779 50
cậu 0.008323602 0.016081538 -0.008067067 0.0039451625 0.003630759 -0.007733087 -0.017135344 0.0035232753 -0.011324102 0.010239038 0.00862455 -0.0021754026 -0.0033293301 0.006866526 0.0013923474 0.014531124 0.0048616384 0.0075903554 0.0028059762 0.009371 -0.005344891 -0.00998274 0.0038323875 0.015348571 -0.0019067997 0.016404038 0.030181387 0.0043246993 -0.006314213 -0.001200657 0.004921867 -0.012872659 -0.002878895 -0.014262573 0.015463053 0.0018853887 0.009064646 -0.0021339601 -0.009251642 0.020933576 0.00049350306 -0.002660173 -0.00084438245 -0.018807713 -0.008964592 -0.0027077626 -0.00037299455 -0.0061825607 -0.02317429 -0.00017958132
tôi 0.013044246 0.0015474431 -0.0010000855 0.00057270034 -0.006443271 -0.0032321785 -0.003031335 0.0024287351 -0.00046142534 0.0037250833 -0.008702243 -0.011511519 -0.008967049 0.0181413 0.0038535176 -0.001423933 -0.0034651586 -0.0074063228 -0.002494968 0.0101517085 -0.011264363 0.0032714577 -0.0114373565 0.0051963776 -6.634926e-05 0.0042670704 0.023415279 -0.004173958 0.009833098 0.007000839 -0.0021263948 -0.012667568 -0.008813406 -0.0033381418 0.004617528 -0.015119 -6.589172e-05 -0.008212482 -0.008439672 0.009716031 -0.009402974 0.0030147303 -0.010073174 -0.016822902 -0.007875102 -0.0007003231 -0.0034571658 -0.0030736432 -0.015130879 -0.00017502427
không 0.00394383 0.012082777 -0.009920176 0.013409935 -0.0053600427 -0.00019475404 -0.0075704358 -0.010242309 -0.009484297 0.0026140355 -0.004316608 0.0033773214 -0.0045350203 0.013853159 -0.008760293 0.00530002 -0.005628213 -0.0015321613 0.006748282 0.005984615 -0.005965397 -0.0013841685 -0.009475159 0.0016321104 3.2590367e-05 -0.0011642728 0.015163492 0.0020606914 0.0027083377 -0.0047414578 -0.004025818 -0.00305026 -0.006288015 -0.019095084 0.011884722 -0.014265929 0.0065844655 0.0018328851 -0.0097169 0.021588992 -0.0068676765 0.0038384164 0.00022902101 -0.013790268 -0.006273615 0.009948769 -0.010115764 -0.006082422 -0.009606539 -0.0041894973
gì 0.0067161336 0.01202351 -0.009008984 -0.00448861 -0.002499666 -0.006452137 0.005932479 -0.00088436645 0.0017688893 -0.0018540792 0.00015381763 0.0035239146 -4.4279666e-05 0.014358617 -0.008520708 0.0068241227 -0.0009136105 0.0019616107 -0.0046627284 -0.0062795132 0.0031856562 0.006375828 0.0032374423 -0.005020197 0.007589847 -0.0045474274 0.007982887 0.00573453 -0.0014822192 0.0020701566 -0.008904488 -0.008413059 0.00777693 -0.007852264 0.010168434 0.0055096433 0.012552512 -0.012311754 -0.006865424 0.003810035 0.0014656516 0.0011896206 0.0040176376 6.6609646e-06 -0.003594829 3.696164e-05 -0.003049718 0.0012136375 -0.0041913697 0.002588247
có 0.008913211 -0.0010220602 0.002460338 0.009070444 -0.0041357134 -0.0076700645 -0.012075034 -0.0049479767 -0.0018143611 -0.008829339 -0.0074903723 0.001189315 -0.0027429722 0.002467568 0.006064419 -0.0019098334 0.003225015 0.0018654305 0.005995748 -0.0010472107 -0.0058591245 -0.00834188 -0.0037353432 0.011919725 -0.0072613982 -0.004293636 0.02209647 -0.0046611647 0.009387142 0.005405958 -0.008606732 -0.008573044 0.0053969803 -0.006315219 -0.003681366 -0.0012368681 -0.0014756235 0.0013965967 -0.0027930508 0.010851789 0.00045177972 -0.0045469045 -0.008049206 -0.010464769 -0.005185687 0.008835286 0.008804508 0.0061458843 0.00039686958 -0.00602934
là 0.013319713 0.0011535067 0.0034478465 0.013530392 0.00038860782 -0.001080609 -0.001704728 -3.358244e-05 -0.014433686 0.0021488091 0.0037290633 0.0046924963 -0.009899461 0.009557573 0.004060252 -0.0005785118 0.010190854 0.0068718027 -0.00040265688 -0.0012809925 0.0028096703 -0.0044478835 0.0070962333 0.004794399 -0.0045624496 0.01117537 0.018198757 0.01002797 -0.0023284056 0.010478038 -0.0024488934 -0.013498886 -0.0067708297 -0.009781303 0.004315873 -0.006510867 0.015008782 -0.0038478267 -0.0018408444 0.013362959 0.0065293666 -0.00892625 -0.013300091 -0.010144504 -0.001896848 -0.0033822237 -0.00460222 -0.00090156216 -0.015797235 0.0041677016
được -0.003922408 0.009867756 -0.0037433226 -0.0052132914 0.004653952 -0.0027596548 -0.010180665 -0.005362917 0.002328101 -0.008098965 -0.008144506 0.00769925 -0.0052560107 0.008894094 0.004759046 0.0071714483 -0.0071294494 0.0062468546 -0.0025229482 -0.001336155 0.005330183 -0.0077107814 -0.0061923997 0.0036070119 0.00092576706 0.013469494 0.005939561 -0.0037255932 0.0021314367 0.010285142 -0.0063797696 -0.01283645 -0.003429954 -0.014723527 0.011266392 -0.013170477 -0.00010243351 0.004815015 0.0016948115 0.0033588868 0.00044537467 0.0049616266 -0.00026882283 -0.003597762 -0.006698447 0.00293959 -0.009877906 0.0063504055 -0.00852795 -0.00244172
rồi 0.005839964 0.0054516485 -0.01065394 0.008810138 -0.0006995131 0.0031511122 0.0015948353 0.0026358364 -0.009443881 0.003112544 0.009462738 0.0018463547 -0.004230339 0.012692511 0.006653298 -0.002074141 -0.004371484 -0.0010368307 0.0044464734 -0.0034894196 -0.009002458 0.002138457 -0.0037532507 -0.0020433962 0.0010146683 -0.0048804693 0.011988112 0.008322598 -4.3370383e-05 0.0010696101 0.009633835 0.0024027177 -0.0066068964 -0.0077687223 0.007396123 0.0035008753 0.005819749 -0.00038286208 0.0037244714 0.014693169 0.008039955 0.0039649904 0.0005309993 -0.01177035 -0.013840806 0.000890583 -0.0053062416 0.00719164 -0.015147651 0.0023931502
thế -0.002440253 -0.0003071156 -0.002361268 0.003278158 0.008064828 -0.0044520865 -0.013584644 0.007446863 -0.0070234686 -0.0052901385 -0.008596996 0.0024408863 0.0026460772 0.0012690042 -0.0034035249 0.012022864 0.005925562 -0.0023280398 -0.0016578226 0.0034749082 -0.004448434 -0.0017587171 0.00088365446 0.0018559674 -0.0065571456 0.0059608947 0.020416694 -0.0013139726 -0.003927915 -0.004052429 0.009137924 0.0023649903 -0.0002678767 -0.005561142 0.009769173 -0.007875317 0.008886971 -0.003201541 -0.0058985744 0.0026978608 0.00055137003 0.0024035093 0.0002743614 0.0017898814 -0.0011118961 -0.00033553923 0.0067674797 0.006788067 -0.002471005 0.0093042385
tớ 0.008749287 -0.0030320096 0.0045681414 0.005759245 -0.0076744016 0.0014427224 -0.011138574 -0.009318772 -0.0031921514 0.005410461 -0.002186228 -0.010325434 0.0038937693 0.005705909 -0.007462908 0.0050058803 0.006586486 -0.006515988 0.0065140696 0.0012997314 0.0084933825 -0.008119201 0.004078096 0.015168324 0.0015369417 0.011280635 0.0098915715 0.012189644 0.002937362 -0.007915047 0.004636222 -0.012530588 0.004131534 -0.005704184 0.0004138649 -0.0024723003 -0.0023152009 -0.012646001 -0.0020831593 0.016319185 -0.0002507721 0.0034538328 -0.012094822 -0.015080112 -0.011643384 0.0009089438 -0.008772767 0.0019746823 -0.012227717 -0.004041352
sao -0.00064680935 0.007991394 -0.01178718 -0.007461108 0.0041731135 0.0032830653 -0.005202352 -0.0087117795 -0.0027371394 0.00044861276 -0.0014770101 -0.005208087 0.003965575 0.0064932113 -0.0064126626 0.007877338 0.010003016 0.0077965297 -0.004194113 -0.0016207732 -0.010267229 -0.008190696 0.004027073 0.01023789 -0.009347865 -0.0020900078 0.010292559 -0.00723376 0.006443902 -0.004469612 -0.002065532 4.7302943e-05 -0.0037861243 -0.013598149 0.009047775 -0.007355672 0.01337787 -0.00630734 0.008134107 -0.0010800796 -0.009998098 -0.0048015327 0.006574083 -0.0057401177 -0.0026713477 0.006472854 0.0047900314 0.005546182 -0.0138675505 0.0030083451
đi -0.0030296973 0.007832919 -0.008816828 -0.000119115975 0.0013065108 0.0031557912 -0.002119972 -0.0025534518 -0.0058004577 0.005532835 -0.00069455506 -0.007737012 -0.010293506 0.014129905 -0.0068462403 0.0077073323 0.005071474 0.008187529 0.010034683 0.0023287947 -0.010232338 0.0014664722 -0.011047739 0.014332828 0.0020737094 0.01365431 0.008969082 0.007936341 0.008524947 0.0032166291 0.002937665 -0.014378219 0.0016173138 -0.009666002 -0.006627505 -0.012234876 0.0043989015 0.0038385969 -0.00047869005 0.010155219 -0.0025573238 0.006836816 0.0029037627 -0.0029159945 -0.007325997 0.0044334885 -0.0038552857 0.004141211 -0.017158093 0.002175812
phải 0.014821938 0.0074371807 0.0034913558 0.0025077804 0.00952017 -0.009850454 -0.010763456 -0.0059929993 -0.013003582 -1.8426716e-05 0.007561866 -0.010869861 0.004832841 0.0022468755 -0.011166278 0.0033588093 0.0071809595 -6.271317e-05 -0.0012078077 0.00065333105 0.003997941 -0.008097562 0.004672752 0.006678318 -0.009404912 0.014073108 0.019939454 0.0059448746 -0.0039199037 0.0018912936 -0.00075259485 -0.0080415895 0.0017232215 -0.0043449616 0.0034535355 -0.011367103 0.0040574507 -0.011857978 0.006922789 0.0009496109 0.0067254286 0.005872128 0.00055171 0.0012525193 0.002918185 -0.005535482 -0.0026828106 -0.0071920487 -0.0058952156 0.012034783
nào 0.0065559414 0.0116083855 0.0049208007 0.0034039451 0.0071118474 -0.0030938513 -0.010024931 -0.00013268097 -0.0024616374 -0.00076705136 0.004027536 -0.008798141 0.00511001 -0.00017956676 -0.009715709 0.009997511 -0.004816676 -0.005143468 0.0021073516 0.0064385845 0.0010443487 0.0016222798 -0.009895051 0.002985078 0.0034515646 0.007374325 0.0003844494 0.008507682 -0.0014524213 0.0055596964 -0.0057969117 -0.0107374145 -0.005758285 -0.01356634 0.0066639264 0.0052152607 0.0065651103 0.0056552044 -0.0057552517 0.00038249703 -0.010976058 0.007835012 -0.0070763747 -0.0060346117 -0.013449016 -0.009970984 0.0016342669 -0.000104001694 -0.015677232 0.00036458974
vậy -0.00029549276 -0.0060494756 -0.006950858 -0.00734109 0.007459477 -0.0033814553 -0.009410905 -0.007676711 -0.0072796117 0.0004328665 0.008791038 0.006344183 -0.010157649 0.004391909 -0.0022854214 0.01165324 -0.006333518 0.0055739274 -0.0020675163 -0.0059576854 0.0009820402 -0.0062076007 -0.0049539404 0.0066427616 0.0027501783 -0.005614215 0.0057605878 -0.0042589963 0.0039352174 0.0027670378 0.007590923 -0.0057347375 0.0030265339 -0.00017670597 0.010011182 -0.0050866795 0.0055637304 0.0066145477 0.0014185684 0.010579851 -0.0037012 -0.0007409901 0.0037878377 -0.009004428 -0.0049890024 -0.00495132 -0.010213565 0.001671003 0.00092350884 -0.002570861
đây 0.014875025 0.007355791 -0.002843357 0.0056543816 -0.0033076953 0.0020462654 -0.00067814096 -0.0047212946 -0.0077087637 0.0036305978 -0.007189094 -0.00504713 -0.010466122 -0.0013279675 0.000979062 0.013419828 0.002963646 -0.006764978 0.00817217 0.0031420372 0.0027337302 -0.009250752 -0.0015773262 -0.0009457812 -0.009492797 0.0027278005 0.011616817 0.011262847 -0.009495619 -0.005487898 0.008069132 -0.0066628335 0.0070478874 -0.012849682 -0.0057731774 -0.0134256305 -0.0036157263 -0.0063585406 0.0009682828 0.0074344776 -0.0034471618 -0.0016414061 0.0031339526 0.0032440785 -0.013294235 0.0057415958 -0.0091126645 -0.0066486006 -0.016802521 0.0014307654
ở 0.006533803 0.0057004765 0.0036962244 -0.0015821694 0.008698348 -0.008666059 0.0037574626 -0.01139718 -0.01220505 0.0029919064 -0.00051784015 -0.0011989664 -0.012150744 0.016103394 -0.009315629 0.013155095 -0.0033382317 0.0033555795 -0.0056152213 0.008555384 0.006416126 -0.011135773 -0.0011775595 0.013956932 0.0068119643 0.0125528425 0.01711071 -0.005932314 -0.0063856402 -0.005268362 0.003982832 -0.0111218635 0.002730093 -0.006729448 0.0084815975 -0.0015013326 0.010690121 0.004455782 0.0031091536 0.008464203 -0.004824627 0.008389344 0.0015668924 0.00045188185 -0.011126895 -0.0011674976 -0.010042116 0.0059540845 -0.0062905173 -0.005374441
biết -0.00396233 0.010294232 -0.0054358826 0.008830694 -0.002653096 0.0017058749 -0.004550352 -0.011030337 -0.0063788765 -0.00014457433 0.0021295948 -0.0032888781 0.0060934587 0.0031669545 -0.0058791046 -0.0009142885 0.0047986647 -0.000378135 0.011224823 0.0110690035 -0.0032615238 -0.007411188 -0.009702091 0.007841454 -0.008958206 0.0070807897 0.0059528863 -0.0028700633 0.0058387998 0.006280445 -0.0006533855 0.0012669185 -0.005120535 -0.008448584 0.011218225 -0.013436061 0.010495609 0.00065763755 -0.0104343295 0.011968284 0.0011757757 0.0041556754 -0.008779332 -0.0058868355 -0.0005093379 0.0061121597 0.0072802487 -0.004638213 -0.0020616078 -0.00737841
làm 0.015809873 0.0011942056 0.00094391144 -0.0060271025 0.003418404 -0.0088791335 -0.00023295538 -0.004975142 -0.0121612875 -0.0071288315 0.009358931 -0.004204605 -0.012344217 0.0031843167 0.009115658 0.0013331568 -0.0032955685 -0.00010961758 0.006162286 0.0021332828 0.0060024336 -0.0007160439 0.0079613095 0.010556347 -0.009825356 -0.0022084913 0.020218346 0.002627526 0.005309461 0.004213487 -0.0021550152 -0.006445807 0.003429777 -0.013847748 0.009953527 -1.1858492e-05 0.0064657493 -0.00073321105 -0.0032323576 0.003990531 0.0056603323 -0.005029112 0.005856999 -0.0071071587 0.00022111747 0.0035118342 -0.008941058 0.008196466 -0.012518124 0.010535576
nói 0.013000138 -0.00359849 0.0036683779 -0.005579279 -0.003330806 -0.0009846378 -0.0016040513 -0.00072347914 0.0069265114 -0.0024908145 -0.009503341 -0.0066485764 -0.011105663 0.009587663 -0.0013360187 0.012350431 -0.0026947588 -0.007923319 0.00032731655 -0.0070589 -0.0025190646 -0.002436975 0.007579213 0.0099875685 0.007903704 0.0075404104 0.016958121 0.0066248793 0.008686206 -0.001365321 0.0067933323 -0.0029462834 -0.0018908639 -0.00951481 0.0017937532 0.006082192 0.0010295603 0.0014473257 -0.00016421537 0.009732811 0.0089960685 -0.006015058 -0.00610821 0.0049649053 0.0043233526 0.0015323332 0.0065174373 -0.0031069245 -0.009822637 -0.006674947
muốn 0.0014489681 0.0046902862 0.0034307623 -7.210166e-05 0.00510627 0.001330527 -0.010189599 -5.0635845e-05 -0.0045873728 -0.009325696 -0.0045685805 -0.010119752 -0.007262023 0.0031524105 -0.006640688 0.009991967 -0.0019514391 0.004895986 0.0026326363 0.008345091 -0.0047106966 -0.007771386 -0.004324468 0.013409811 -0.0015296574 0.0048678285 0.0011641515 -0.0009972231 -0.009417839 0.0056137 -0.0076586576 0.0038714807 -0.0054116896 -0.0036146175 0.004072417 -0.009106627 0.014094427 -0.00968677 -0.01112483 0.0010942316 0.008689456 0.008449435 -0.010276123 0.0032570001 -0.0033282395 8.16119e-05 0.008931001 -0.001400245 -0.0139124915 0.005209376
đó 0.010539379 0.007169145 -0.0042845085 0.0051766443 0.0009278807 0.008013308 -0.00955174 0.0018005704 0.00010192261 0.0058071217 0.00707271 -0.0009185521 -0.011060864 0.010257278 -0.00074032927 0.0099794855 0.011617838 0.00313789 0.008530181 0.0010700604 -0.0105689475 0.005467385 -0.004599616 0.008687736 -0.001772436 -0.00016151275 0.015810283 0.007247021 0.009359483 0.00876258 0.008165578 -0.014187195 0.00887756 -0.014880345 0.010892204 -0.011300932 0.011146141 -0.0012379037 0.0021938428 0.005547265 -0.005730514 0.0035477474 -0.008444443 0.0048458423 -0.009034764 -0.0029583983 -0.0003464769 -0.0076139052 -0.014944543 0.01180666
cho 0.011867266 0.0017340739 0.0010249056 -0.0019831287 0.0025154813 -0.0005282811 -0.0046003065 -0.005876301 -0.009807394 0.008025436 -0.0071463324 0.0073591513 -0.0066741463 0.0135147115 -0.0029097965 0.0048497464 0.008071259 -0.004025251 0.010917974 0.0032986235 -0.010735576 -0.011119972 -0.005124413 0.012977787 -0.0029144397 -0.002832703 0.019549537 0.009444289 -0.008744623 0.007651597 0.0041426998 -0.011558311 0.0017198485 -0.009760061 -0.0030252256 -0.01190014 0.009842784 -0.013093634 -0.0023838354 0.011822633 -0.0034833574 -0.007111288 1.6784981e-05 -0.01215363 0.00056032144 -0.0065432824 0.0010892552 0.0025983271 -0.0022716066 0.0011060969
đã 0.006217645 0.009566724 -0.00033773825 0.009898776 -0.003009357 -0.0059041847 -0.011260912 -0.007444095 -0.0023538792 0.003685052 -0.010126495 0.0030524775 -0.011733348 -0.0036105586 0.008931333 0.012653416 0.005062225 -0.0046747467 0.011398032 0.0035864778 -0.0026160048 0.0056771273 0.007539784 0.0044596167 -0.0066108443 0.011625422 0.014527123 0.0027640301 -0.0058782003 0.0070302887 0.006221588 -0.004625659 -0.008875718 -0.010287049 -0.0018126509 0.0023263772 0.007876009 -0.012073279 -0.009844782 -0.002198584 -0.001372368 0.009991712 0.0039087855 -0.006447902 -0.011605933 0.009107794 -0.0038127215 -0.008643671 -0.0027423992 -0.0018235273
của 0.010388928 0.0017861217 0.0007913234 0.005433476 -0.000725353 0.0066483673 -0.0071551623 -0.009334355 -0.0018232386 -0.0023249344 0.0062627024 0.0076219565 -0.010071082 0.005163341 -0.0028380805 0.011831377 0.0024646097 0.0025761384 -0.001619518 0.008038974 -0.002304327 -0.007267366 0.0046935496 0.012417394 0.00658968 0.0044338643 0.025907267 0.010351578 0.008260408 -0.003464562 -0.0039702365 -0.01834109 0.007317366 2.5744484e-05 0.009723361 -0.0059008277 0.009842975 -0.0037100534 -0.009795489 0.014055033 0.005610227 -0.0012462967 -0.0011167127 0.0006051665 -0.0127289 -0.003161401 -0.0002286483 -0.010095889 -0.016150638 0.01288717
đâu 0.0057849847 -0.0017556214 0.0038690476 0.0036636959 -0.005072895 0.000622085 -0.0053948853 -0.01125249 -0.0053228904 0.004918113 -0.007615017 -0.0029907632 0.00096151244 0.0020843397 -0.0063261283 0.0070391274 -0.006518733 -0.008656685 0.009187463 0.011085764 -0.009188473 -0.00145375 0.0047305212 -0.0005946602 0.007961883 0.011837497 0.0051108478 0.0076042763 0.007156743 0.0012732362 -0.00039205464 0.001174572 -0.0018103851 0.004111115 0.004264438 -0.008342975 0.007066462 -0.0071282983 0.008159767 0.008895174 -0.00822963 -8.4624e-05 -0.006538014 0.002355355 -0.004627492 -0.0028489197 -0.002222449 -0.003706242 -0.0072978847 0.006849731
thôi 0.010592339 0.006127257 -0.004268151 0.008637273 0.010244491 -0.005271275 0.006316393 0.0086313635 -0.0016377543 0.008092078 -0.009011124 0.0047540744 -0.0024498769 0.005541347 -0.0012080645 -0.0036473563 -0.008230227 -0.0014954258 0.0007248036 0.0065629818 0.00539827 -0.001373894 -0.0062644095 0.0050333696 0.0022027902 -0.0001976049 0.011515088 -0.0008632745 -0.0052301153 0.0024791914 0.0022328726 -0.00451698 0.00498311 -0.0061125592 -0.007137299 -0.00609947 0.007233376 -0.0010639976 -0.000103244165 0.0069158142 -0.010086507 -0.0057611912 0.0046594176 -0.010000938 -0.0051925774 0.0006911515 0.009516064 0.00063538196 -0.0020091617 -0.0033710662
đấy 0.010156523 0.0023883022 -0.0035546022 0.0028345003 0.008344935 0.00082294666 -0.0043455767 -0.0036032666 -0.0016049604 -0.0069733867 -0.007675693 -0.005907809 0.0066379653 0.0058714896 0.0052408394 0.0028389588 0.006505594 -0.0057290043 -0.001474798 0.007158664 -0.0047506383 -0.0008821767 -0.008167337 0.00016580013 0.004355633 0.0028163337 0.016510123 -0.0011638557 -0.0032788382 0.0012190507 -0.006089954 -0.011600695 -0.0011733093 -0.005322824 -0.0047715823 0.0011466411 0.0047573713 -0.011274009 -0.0030770015 -0.0024794093 0.008544641 0.0057368064 -0.010451195 -0.005646935 -0.0050558257 0.0006441619 -0.009492126 -0.0041234214 -0.016636627 -0.00017141138
một 0.014791677 0.008650544 -0.0038268624 -0.007294416 0.0024500361 -0.008430507 -0.013925377 0.0017748515 -8.040508e-06 -0.0010770586 0.00089415425 0.007979529 -0.006645099 -0.00081294775 0.0048463577 0.013304742 0.0107430285 -0.0018650268 -0.003638182 -0.005306421 -0.0069242446 -0.0077812644 0.0028393664 0.006708422 -0.002954887 -0.0025429116 0.02206213 0.0043858187 -0.001434021 -0.0023746523 -0.005834104 -0.010532993 0.006016977 -0.009753048 -0.0019550514 -0.010383606 0.014159513 -0.010681804 0.0016803676 0.01180353 -0.010779747 -0.00031929428 0.006826809 -0.0013045741 -0.00013209578 0.0044421395 0.0060052006 0.003037696 -0.003745959 0.0016516253
à 0.0035169746 0.0059172944 0.0021968775 -0.003027302 0.002805062 -0.002398381 -0.01126357 0.0014355311 0.007229623 0.004184455 0.0015496757 0.0078101535 -0.010145012 0.00074385945 -0.004766567 -0.0010142901 0.0041279453 0.003903125 0.00832817 -0.003955778 -0.004335471 -0.0041625635 -0.0011641511 0.0076418812 -0.00086807413 0.0007596926 -0.0030246188 -0.005326169 -0.0070605786 -0.0052974788 0.0018948095 -0.00028579176 -0.0070774793 -0.0036521638 0.0063943393 -0.0006906991 0.0092865825 -0.008575265 -0.0030082432 0.010827896 0.008011986 -0.006107411 -0.0089453785 -0.0037721824 -0.005653048 -0.003651921 0.0032580157 0.0035534855 -0.0046155183 -0.0049918303
sẽ 0.0148645695 0.010326819 -0.0035298886 0.00774402 -0.004318618 0.004346409 -0.013647015 0.006589565 -0.013593979 -0.0043512317 0.0026517091 -0.010644042 -0.0047387984 0.006988676 -0.0034308478 0.00872009 0.0035847528 -0.0050688856 -0.0007141282 0.006674083 0.008990628 0.0029392624 -0.006666621 0.014657166 0.00080063945 0.0011167993 0.012121867 -0.0024692183 0.0075222626 -0.0064352197 0.003827471 1.5654983e-05 -0.0015593969 0.0033829121 0.005188732 -0.0037411775 0.0010715867 -0.014103301 0.0075617093 0.0025542413 0.0080137765 -0.007742133 -0.009243027 0.0014690487 0.0018607007 0.0074813943 -0.0008548244 -0.0015621276 -0.014013799 0.0060681333
nó 0.014486167 0.0029924149 -0.012377886 0.004157898 -0.0047512916 0.0052851485 0.0034424877 0.005100178 -0.0056368383 0.010363144 0.0068711373 0.00771972 -0.005471671 0.010564469 -0.009140334 0.012260283 0.007899364 0.0031033473 0.00081359764 -0.005966255 -0.006132523 -0.0034541462 0.0025723744 0.0024807944 -0.010839597 0.011988144 0.01871258 0.009818028 -0.0060885805 0.009566454 0.005090275 0.0019263099 0.0020702211 -0.0019167186 0.006573846 0.0035441318 -0.00243439 -0.001997385 0.003367346 0.010447334 -0.007319689 0.0030479815 -0.008601623 -0.010106609 -0.008291844 -0.0018887419 -0.0082830135 -0.008776957 -0.016756374 -0.0018166297
thì 0.006740428 -0.0059741256 0.0041555464 -0.006696218 -0.0025955238 -0.01147202 -0.004908126 -0.0012644875 0.0033481454 -0.002674067 -0.008174934 -0.008291298 -0.010723104 0.0067387517 0.0058363373 -0.0059713274 -0.005443245 -0.008326654 0.0075206407 0.009460344 -0.008965625 -0.009897693 0.0028737923 0.0025317708 0.0063689607 0.008300027 0.01937326 -0.005703515 -0.007581587 -0.0047843847 -0.000754246 -0.013220753 0.0026428667 -0.0049354695 0.0026885914 -0.009367131 0.009979642 0.004845987 -0.0024107585 0.01600018 -0.0019760267 -0.0029489887 -0.012608718 -0.0061525395 0.004471555 -0.008136201 -0.0052181194 -0.008912459 -0.01180727 0.010909073
chuyện 0.0007945923 0.011039447 -0.010723917 -0.0077724857 -0.0029260253 0.003992173 -0.005289178 0.0076197283 0.0007321401 0.005004362 5.4198474e-05 -0.009084521 -0.010108393 0.0008290005 -0.0009764316 0.0054892427 0.009686897 -0.008935022 0.005772388 0.007830696 -0.007863627 -0.008065759 -0.0030885527 0.006989637 -0.008196913 0.0064592576 0.009278278 0.007837605 -0.0054927934 -0.00029696184 -0.0061170044 0.003976062 -0.008358669 -0.0083135 0.011508753 0.0012944095 0.0027295772 -0.011790005 -0.0072082947 0.011232073 -0.010489258 -0.004148402 -0.0060980655 -0.009884152 -0.005517484 0.007816471 -0.0053622955 0.0032331848 -0.002285142 -0.003713218
anh 0.0053483797 -0.00804687 -0.0049543874 0.0050802077 0.0041017407 -0.0051235785 -0.001383451 -0.010548732 -0.011946293 -0.0035647107 -0.004948446 -0.005707636 -0.0041727945 0.010912129 0.0029565669 0.0019086766 -0.00091430056 -0.001216688 -0.002692371 0.0039449735 0.006932574 0.0078095314 0.0059450017 -0.0009766411 -0.0047557782 0.010626426 0.008673922 0.006445793 -0.0023004103 -0.0010795249 -0.008364449 0.0024442058 0.0041005216 -0.005480894 0.0037004289 -0.0042010667 0.007508451 0.0029961164 -9.537471e-05 0.0029411155 0.0024281389 0.006141283 0.0018035589 -0.00577533 0.0024048944 -0.0052411794 0.008417567 -0.00315341 -0.004873213 0.003943313
còn 0.0135064535 0.009103649 -0.004586453 0.004036486 0.000629362 0.005442457 -0.013409747 -0.010118068 -0.0068576555 -0.003021367 -0.008667341 -0.008251019 0.00070638844 0.011766178 -0.002534757 0.0004363865 -0.001117795 0.009710243 -0.006024814 -0.0014229786 -0.0050203623 0.003296812 0.004349282 0.00880996 -0.00064091635 -0.0024856827 0.012049254 -0.004165896 -0.0050788545 -0.0017140805 0.007883359 -0.0018792895 -0.010297533 0.0028396095 -0.0034679403 -0.004656569 0.0068455576 0.0007445168 0.004496027 0.011262753 -0.007538245 -0.008934526 -0.009367329 -0.006840171 -0.006759748 0.008046155 0.009424168 -0.010316706 -0.002938824 0.011272457
này 0.015332806 0.010478144 -0.010331008 0.006670019 0.004614843 -0.0062254607 0.0018377068 0.00035906173 0.0034199543 -0.0057192417 -0.0069754706 0.00040377548 0.003656053 0.00777058 -0.0019829872 -0.0022638987 0.002167292 -0.007982095 -0.0051821102 0.009773865 0.007846109 0.0020137695 -0.006423083 -0.0028682922 0.0067339856 0.012026021 0.014735643 0.012685425 -0.0024625799 -0.0019728963 -0.0008417285 0.0023189029 -0.003064659 -0.0061874655 -0.003178883 -0.0018230942 0.0050704805 -0.006435426 -0.0037200917 0.004089991 0.005278241 0.0061305068 0.006814095 -0.005342023 -0.010234002 0.0018363134 -0.0043325545 -0.010722785 -0.013976196 -0.00095989445
cái 0.0019349399 0.01007965 -0.0119816465 0.0075188004 0.000247173 0.0006856146 -0.0032638055 0.007983545 0.0054940917 -0.0023606045 0.00086025026 -0.0030483035 -0.010881934 0.0067066425 0.0014700603 0.01049965 0.006219634 0.0038436058 -0.0070032105 0.0065219663 -0.0014996452 -0.0053353678 -0.000586585 0.0059106015 -0.006669744 0.012022529 0.0060446756 0.0071425727 -0.0018560253 0.006105114 -0.0030368061 -0.010377464 0.001697331 -0.006778958 0.008107432 0.0050781476 0.00843649 -0.012359287 -0.008135959 -0.002739514 0.0072371066 0.004101622 -0.0067833606 -0.012074021 -0.0087184515 0.008320612 0.0033412315 -0.0070675123 -0.012105453 0.00868873
người 0.011461109 -0.0061582117 -0.005369085 0.0019653374 -0.0058577755 -0.0012057371 -0.0041638324 -0.0065627582 0.006687607 0.0026097372 0.0038901852 0.0017600321 0.00014768768 0.007977392 0.007018457 0.008677758 0.0025565077 -0.00170222 -0.0027805576 0.009413654 -0.0023101417 0.006064825 -0.008492154 0.0054729017 0.0020898455 0.009494165 0.00563805 0.008188256 0.0038333545 0.008738108 -0.00011173474 0.004706229 -0.010365394 -0.0014689037 0.00610828 -0.007295944 0.014292602 -0.008649584 0.0005127232 0.011526071 -0.0069802026 -0.0035739532 0.002650593 0.0021855165 0.0048891488 -0.00882855 -0.009155984 0.00039129678 -0.0075869826 0.0073130545
thấy 0.005748323 -0.008201238 0.0052064853 0.0086937295 0.0076611107 -0.0012379444 -0.0068761325 -0.0017514194 -0.009389537 -0.008068442 -0.0055034114 -0.010022524 -0.0061210655 0.01064117 0.001068947 0.0031688465 0.002417415 -0.004972601 0.002470371 -0.009111069 0.0058440897 -0.002259881 -0.0019962913 -0.00028322023 0.0006858603 0.0083575165 0.0024062025 -0.0038807616 -0.0038928813 0.007021409 0.0092760855 0.0055816947 0.005026815 -0.0109439595 0.008504994 0.0015675229 0.0009807791 -0.010240417 0.0061177453 -0.001990091 0.0042357002 -0.0050851423 -0.009101402 0.0007507778 0.004008951 0.005647195 0.0023995258 4.7120764e-05 -0.008010665 -0.0063132504
ừ 0.010686722 -0.0037799159 -0.0028930109 -0.0037231161 0.0076525835 -0.0034689258 -0.0117484415 0.0003870835 -0.0095695155 -0.00025701226 -0.0055703577 -0.008524152 -0.010065183 -0.0006240689 -0.0029794548 -0.0068749646 -0.007897573 0.004680164 0.0073168557 0.0030059407 0.0066130194 0.008710156 0.0035276343 0.001613567 0.008998099 0.0066667423 0.006071072 -0.00018242051 0.008293006 0.0021875445 0.0039959583 -0.012647738 0.0058137397 0.0053915046 -0.0050375033 0.00118543 -0.00039563482 -0.009854156 -0.003480747 0.0020823448 -0.00028254747 -0.0013818832 0.0029297564 0.0050946246 -0.011317697 0.008098214 0.002368087 0.003879508 -0.013105999 0.010530147
rất 0.009724623 0.009274377 0.006384156 0.010792888 -0.00032188676 -0.0029245599 0.0017454571 -0.0078045656 0.006567962 0.0009906064 -0.00041550337 0.0047008065 -0.00960217 0.01176465 0.0025905576 0.002964239 -0.0034637281 -0.0075466163 0.004292249 -0.00248139 -0.0018060374 0.002079172 -0.010717767 0.013727954 0.0017859326 -0.0041148686 0.01215067 0.011436796 -0.0036773677 -0.003856903 0.011037599 -0.0135346595 -0.0076888306 -0.005096215 0.007614749 -0.0007056784 0.0038074045 -0.0033048973 0.0020660337 0.017110026 -0.004246641 -0.00080154877 0.003940914 -0.013095947 -0.0069529554 -0.007345507 -0.00253821 0.004442973 -0.002944341 0.012409036
ai 0.010604581 -0.004443614 0.002808177 0.0015449554 -0.0015431534 0.0046642967 -0.0073303166 0.005552908 -0.006894432 0.009819284 -0.010021213 -0.01007551 0.0018872897 -0.0052494938 -0.0051983604 -0.0058964007 -0.006324444 0.008901636 0.0023327398 -0.0029307592 -0.0006393479 0.0026801163 0.0015563912 0.007306263 -0.0051494087 0.00047264478 0.010329373 0.009686087 0.004267754 -0.003082215 0.007972982 0.0033762504 0.008783695 -0.0061016125 0.0077881776 -0.0015037619 0.004923792 -0.0055630403 -0.0057262294 0.0083374055 0.0030255674 0.0020469434 -0.0029163265 -0.0038055226 0.004705414 -0.0061052735 0.0034782595 0.002183006 -0.015222242 0.0020676537
lại 0.010137414 -0.0042388625 -0.013123597 0.0055839764 0.008331828 0.0063678343 0.0016055314 -0.011129222 0.0023129636 0.007854652 -0.0030925751 -0.005172664 -0.003938716 0.005231735 0.003455345 0.013442609 -0.0021885415 0.0017749114 -0.003025284 0.00800045 -0.0001926163 -0.0074578454 0.003770862 -0.0027058409 0.0026221566 0.007520796 0.007886827 0.0027056972 0.005686903 -0.0047791814 0.004659449 -0.011635791 0.008653554 -0.015465108 -0.002215938 -0.012725838 0.0005041177 -0.0018913853 0.0015677162 0.0022201731 -0.009249869 -0.005717369 -0.010503911 -0.011448597 -0.0014708559 -0.01010573 0.0019308581 -0.0059571313 -0.019013474 -0.005124905
cũng 0.007903449 0.010063332 -0.0077801864 -0.006900211 0.002387441 -0.0099727735 0.0011472541 -0.002042214 -0.010679605 -0.008275771 -0.00928149 -0.007996904 -0.012601969 0.0102616 -0.0064484756 -0.0010174992 0.002407141 -0.0071338755 0.0067947386 0.011437075 0.0001764766 -0.0030612492 -0.00576877 0.003116772 0.0034527427 -0.0027566247 0.010987634 -0.0070538 -0.003911915 -0.009157889 0.0065931566 -0.007796942 0.0058553233 -0.006240954 0.000116374824 -0.0005341925 0.015029765 0.0029853322 -0.0059132245 0.01556683 -0.011050895 0.0025723202 -0.007812701 -0.0029731747 0.0044051944 0.0013261335 0.008144512 -0.0034192964 -0.015392788 0.00059502973
chúng_ta 0.012673135 0.0056824354 -0.0041619767 0.009597033 0.0035730784 -0.007850463 -0.012199502 0.005664799 -0.0047641457 -0.0042401953 -0.009395548 0.007646289 -0.003943103 0.014670313 -0.00065828505 0.006243114 0.0040420345 -0.006480548 -0.00022271491 0.0024521272 0.0051947925 -0.0031905244 -0.0077871815 -0.0023903563 -0.005868714 0.01245615 0.004730699 0.008225142 -0.004612726 0.0029100645 0.00090328447 -0.004230342 0.006801656 -0.00804312 -0.00587048 -0.011582448 0.0028854122 -0.0076424405 -0.009486111 0.01230123 0.0071060285 0.009070485 0.001076238 -0.003692506 -0.0073995567 0.002373597 0.005015844 -0.0015187289 -0.0032914132 0.004013396
có_thể -0.0033439563 -0.002249468 0.0063460325 0.0014513538 -0.005378644 -0.004878339 0.003990894 -0.005933455 0.0059324475 -0.0035301927 0.0037097558 0.0043711523 -0.0051985118 0.012257164 -0.00013816153 0.0015770544 0.0009505971 0.007170383 0.00090455194 0.0057270383 -0.009878626 0.0012860977 -0.011016081 0.007408982 0.00028304156 8.024379e-05 0.0064663854 0.005789792 0.0036083527 0.003386632 -0.002276656 0.0011982324 0.00011827433 -0.016099783 0.008043659 0.002832313 0.0122123305 -0.0032744065 -0.010035168 0.0075073447 -0.0087657245 0.0017728466 -0.012563611 -0.0041769664 -0.008429804 0.0049838754 0.007289274 0.002814324 -0.018198026 -0.0051137204
ăn 0.0060644303 -0.0034957272 -0.010893588 -0.007561947 0.003227491 0.007893683 -0.009189597 0.005067472 -0.011650225 -0.0025879103 -0.0053759385 -0.0017969745 0.005783386 -0.003989381 -0.009452142 -0.004903631 -0.0050021703 0.005382529 0.004874508 -0.00613549 -0.004583316 -0.01139591 -0.0049176645 -0.00348467 0.00925095 0.0029742147 0.0019718448 0.0074668415 0.010481433 -0.0041630915 0.007216702 -0.010595765 -0.003928872 -0.0140009215 -0.007008419 -0.010093919 0.010147789 0.0014086609 -0.004906933 0.0006884985 -0.010557503 0.0014031202 0.0043407353 0.0053392085 0.0047726766 -0.0022933234 -0.00711674 0.0060656727 -0.0013338729 -0.006932024
chưa 0.0049502836 0.0072862026 -0.011410952 -0.0035477036 -0.0044165906 0.0040239217 0.0047717686 -0.0050560697 0.0061249183 0.00012069141 0.0040173866 0.004926876 0.003419158 -0.0022338754 -0.0035864299 -0.0069561834 0.0061671874 0.008815865 0.01114284 0.004048847 0.006247053 0.0077499673 0.0055318843 0.0013881108 -0.00787216 0.00664448 0.007465045 -0.007579296 0.0040698806 0.008402212 -0.0028226504 -0.0072764913 -0.0071318545 -0.003988573 -0.0031729403 0.0048080864 0.0138834575 -0.00940074 -0.011117163 0.015243326 -0.00019324983 0.006177436 -0.0035843782 -0.009225776 -0.003355663 0.009286627 0.009046717 0.00010483717 0.00354459 0.0038613647
thật 0.013207178 0.008115256 -0.0021110605 0.009845627 -0.007583301 -0.0049163997 0.004780277 -0.010826664 -0.011171794 -0.006822513 0.008428106 0.0028080551 0.0003168464 0.0050693955 0.0047965855 0.007889182 -0.0022914042 -0.001800202 -0.008075702 0.010877461 -0.0031031244 0.006889101 -0.001828108 0.006695406 0.0005033967 0.011979871 0.00013117449 -0.0025172224 0.0054177702 0.001212235 0.0023435547 -0.010519472 -0.01052049 0.0035322104 0.01003043 0.0032212846 0.0115372315 0.00065690425 -0.007763926 0.011127642 0.0026639556 -0.001119805 -0.0040572677 0.0030986965 -0.00062196894 -0.0026772993 -0.0041479846 -0.0057000592 -0.0030256615 -0.0002343308
chứ 0.004402912 -0.0046650865 -0.00617358 0.009117925 -0.0034856568 -0.009402819 0.0012126648 -0.006715599 -0.0063371 0.0033437712 0.0062073497 -0.0043835565 -0.0070817606 0.009337415 0.0031238196 0.0024353024 0.009035062 -0.0014279251 0.0027743676 -0.008006292 0.0067459717 0.0011359436 -0.0046350956 -0.0030311793 -0.006504293 0.0050475537 0.014110425 -0.006895243 -0.0036503882 -0.0024072723 0.0013451369 -0.003636509 -0.009987618 -0.0050121862 -0.005084222 0.003925992 0.008320048 -0.009779482 0.0017129085 -0.00091621955 0.0014197004 0.0006884571 -0.009271802 0.005434259 0.0052185985 0.008595557 0.00960399 0.008858336 0.0048985663 0.010750428
vâng 0.0084634 0.010048099 0.008284815 0.00059502374 0.00026331822 -0.010163198 0.0034151818 -0.007820641 -0.0053998036 -0.0040323194 0.0020290606 0.004895903 -0.0067108534 0.00023413898 0.0029681278 -0.006238614 -0.0025705188 0.0066251825 0.009325398 0.0052544614 0.0038171422 0.0061253705 -0.008259493 -0.0065295803 -0.00095285417 0.010804925 0.00015572605 0.0045416397 0.0059779813 -0.0040931804 -0.0029543233 -0.01106461 -0.0027802552 0.0033635502 -0.00491042 -0.0055974685 -0.002895079 -0.0001149195 0.0013284943 0.009235941 0.008897498 0.0028380612 -0.007408104 -0.010751154 -0.0050576106 -0.00042746816 0.0051249214 0.0038799187 -0.004266717 0.010924793
cô 0.008459442 0.012852297 -0.006558896 0.012218249 0.0061854958 0.0054564006 -0.0069902367 -0.009307663 0.0050696908 -0.0033280621 0.004387915 -0.0014098352 0.0038345999 0.009895526 -0.011264717 0.0041694464 0.0075266 0.008158572 -0.0072302893 -0.0020353668 0.0055639655 -0.0028977923 0.0012588506 0.011158503 -0.0031480477 -0.0028507763 0.011926932 0.007636406 -0.00012177463 0.009908739 0.0067110215 0.0022518616 0.008867874 -0.00793379 0.005117267 -0.012998205 0.0046797725 -0.00016749585 -0.0021770955 0.014146875 0.0017516529 0.0013778877 -0.006195587 0.0024785162 -0.014225723 -0.005061948 0.0045297453 -0.0027226617 -0.0053699603 -0.0019182675
mà 0.011981753 0.00041426005 -0.012450687 0.0023649067 0.0025546812 -0.0016335997 -0.0029054603 -0.005985525 -0.012489888 0.00260647 0.005882518 0.003894186 -0.009206755 0.008078621 0.0074808504 0.0025719749 -0.0045559383 0.0025397073 -0.0007950843 0.006499502 0.0031821947 -0.0017473997 -0.0053363503 -0.005897973 0.0051901946 -0.0053400695 0.010875722 0.0102955075 0.0022040254 -0.009561218 0.0041554347 -0.0079865875 0.0022793787 -0.012175065 0.00804564 -0.0013451285 -0.0039995154 0.00502353 -0.0069101197 0.005628531 -0.00618788 0.0021783006 0.004104849 0.0054567 -0.00088705414 -0.0072950264 -0.001627121 0.0051886137 -0.0022094636 0.008425669
chào 0.0037501727 -0.0012871918 0.0043280786 0.004090991 -0.0037092562 -0.0025426466 -0.011314142 0.008961523 0.003359048 0.0093126055 -0.0036981879 -0.0030756027 0.0011615922 0.0027678306 -0.00508933 0.010262192 -0.0049449075 0.004109027 -0.0036166678 0.005697306 0.0006068329 -0.0020755788 -0.00096758397 0.003989948 -0.0074400227 0.0006962632 0.0031411836 0.00724067 0.0045057745 0.0058166008 -0.0063184975 -0.011823747 -0.0048336782 -0.006625784 0.005277898 0.0034941116 0.010330639 -0.009278297 0.000731628 0.012670046 0.0074249045 0.0042570326 0.008839022 0.005199984 0.002256196 0.0073070955 0.0054141153 0.0067465003 -0.012718657 0.0002367113
đúng -0.0014800215 -0.0075418483 -0.0014751493 -0.0020668772 -0.006498392 -0.009317241 0.0011634728 0.0025215733 -0.010551518 0.0076245414 0.008404282 -0.003920961 -0.0034119114 0.012436815 -0.00056075805 0.0083324155 -0.004297353 0.0018326748 0.0067615295 0.006131478 -0.0044874717 -0.0054388233 0.0034546051 0.0053629708 0.009169034 0.0010030889 0.0038934338 -0.00028393534 -0.0047394964 0.0037573706 0.0007075989 -0.00010236741 0.0049698795 -0.00031839826 0.0058553345 -0.00042078504 0.006341597 -0.0074323756 -0.0033993123 0.009908565 -0.007787692 -0.004489041 -0.011733148 -0.009314648 -0.0015687476 -0.0021922311 0.0014368414 -0.005880488 -0.00061266986 0.0038134658
với 0.014095606 0.010628088 -0.011686349 0.004489585 -0.0006066906 0.003634057 0.001330589 -0.000859519 0.005267396 0.009289939 0.006758582 0.00018598477 0.0023825113 0.010949107 0.0070181913 -0.0014702473 0.0068682074 0.00667357 0.0072414144 -0.0038790691 0.00033796544 0.0013141754 -0.0019021789 0.0043858932 0.0042262687 0.003517534 0.012445178 -0.006571136 -0.005604248 -0.0001219906 0.008117071 -0.011314491 0.0076285107 -0.001237196 0.011354411 0.0067911088 -0.0054288334 0.00618078 -0.0009521267 0.006624965 0.001573111 0.00046674797 -0.0023214773 0.00066973106 -0.0061068223 0.0052581136 -0.0034310566 -0.0034187404 -0.0030869856 -0.0070357346
chúng -0.0039207363 0.0011751716 0.0035120582 0.010669426 -0.009625384 -0.010316589 -0.008550272 -0.0061909417 -0.0012465888 -0.006356541 -0.0015071078 -0.0026394085 0.0031936695 -0.0017935034 6.328223e-07 -0.0028258243 0.00522915 -0.009527183 0.0037748052 0.0038484351 0.0006419333 -0.009401474 0.008870954 0.0067982324 0.00529939 0.010738524 0.004296531 0.008162917 0.007570206 -0.0065443097 -0.007919787 0.006201027 -0.003901762 -0.01073443 0.0052169804 0.004824921 -0.002534941 -0.005523975 -0.0023083966 0.0017342938 -0.0002200934 0.0071170074 -0.0011023382 -0.004448117 -0.000785656 0.0018497759 0.0057142293 0.0033847918 -8.863685e-05 0.006430298
đang 0.015050877 -0.0014394567 -0.005268882 0.010174094 0.004905205 -0.00077362335 -0.0028727984 -0.0044840802 -0.006346925 0.005819315 -0.00198557 -0.0032854697 -0.0052803713 0.0017824267 -0.010461196 -0.0019334177 0.0040601417 -0.0014023563 0.0017825848 -0.002928898 -0.0011366354 0.00064969633 -0.0077806544 0.002690979 0.009141316 -0.0031803977 0.017546926 0.0067928266 0.010575992 -0.0012683948 0.005581263 -0.013159242 -0.0059752804 -0.012800232 0.008655957 -0.013067972 0.0036282565 -0.0018108455 0.002285548 0.0039117923 0.006708395 -0.0052354936 0.0060587088 -0.013883245 0.0018986459 0.0018001674 0.0049708826 -0.0048188283 -0.006303472 0.009779129
xin 0.0007373844 -0.003551611 -0.011005574 -0.00859098 0.0077086072 0.006431206 0.006617699 -9.492704e-05 0.0050288546 -0.00867041 -0.0008214962 0.0015639161 -0.0067718206 -0.0014858001 -0.0040202932 0.0025782047 -0.0032014956 0.0070731393 0.00304904 0.0011740022 -0.0045230943 0.003222296 0.009433251 -0.0038072788 -0.0096960515 0.0073018624 -0.005125469 -0.003162228 -0.0038459606 0.007939767 -0.008022908 0.0024490887 0.0066132895 0.001149733 -0.0065486683 1.6854507e-05 0.0051448215 -0.009601915 -0.010599944 0.005354475 0.00066191255 -0.0037285266 0.009248684 -0.007679669 -0.00680806 -0.0066337837 -0.0021671327 -0.009945822 -0.012575647 0.0029975278
ra 0.0033987234 -0.004227649 -0.0021420587 -0.0008028223 0.001830925 -0.0016277975 0.0018681597 0.00060516596 -0.0043041366 -0.0028094428 -0.004559835 0.0059487005 -0.007760287 0.008442147 -0.0074441535 0.006698905 -0.0056483103 0.00088626577 0.0060810684 0.006189725 -0.0019821792 -0.008421121 -0.010600869 0.0019643009 -0.009012495 -0.0048053004 0.019935345 0.012626275 -0.0029333709 0.0045934743 -0.007950566 0.0015292488 0.0024494051 -0.008173467 0.00919237 -0.009753476 0.0038541777 0.003222505 0.0053700106 -0.0029842723 -0.009475426 -0.0045722825 0.006614723 0.0003209558 0.0031180745 0.0065429374 -0.00995336 -0.0023758225 -0.016248768 0.009378698
nghe 0.0015060855 0.004600022 -0.0094947405 0.0027041307 0.002359917 -0.010180638 -0.00568663 0.0054879948 -0.0052325027 0.0013108053 -0.0025554155 0.0031152144 -0.008801217 0.012110475 0.004950742 0.00034792942 0.007093822 0.0064485273 0.010124691 -0.0058184415 -0.005193665 -0.010847995 -0.005408402 0.009650751 -0.00048529063 -0.00019919261 0.012704737 0.010569095 -0.0010816881 -0.0070400285 0.008944526 0.0063533643 -0.008372236 -0.011996608 0.0017517713 -0.0100831 0.005270314 -0.00010523632 -0.0015575828 0.013164324 -0.004375065 -0.0059830947 0.0034912236 -0.0098261945 -0.0072673373 -4.367588e-05 -0.0030553609 0.0018686448 0.005472867 -0.0031656716
khi 0.006523193 0.0030636743 -0.0029369174 0.010458716 0.0047880867 0.002261825 -0.008679227 0.0061706402 -0.0057265083 -0.004578226 0.00086036156 0.0009904752 -0.006424204 0.0018250122 -0.0007032045 0.0033148082 -0.006163808 -0.00505992 -0.0068950155 -0.0060520777 0.008025193 -0.007015375 0.008771929 0.014087981 0.0070682825 0.0018461366 0.0005719819 0.0113213435 9.852076e-05 0.002666635 0.0016680484 -0.0016606681 -0.0040322826 -0.014662869 -0.0072921747 -0.0008915363 0.006020034 -0.012876876 0.002711869 0.0038151203 -0.004084366 0.009730406 0.0041329656 -0.005423624 -0.0072661447 0.0062558763 -0.0016253826 -0.0030496279 -0.0037832404 0.010331441
ấy 0.011475398 0.001327774 -0.008735251 -0.007379353 0.0017622946 -0.0023523134 0.00077546615 0.0053655067 -0.006659719 0.008918859 -0.010737343 -0.008755552 -0.0079452135 -0.0012356483 -0.0020272124 -0.0044469577 0.0053095464 -0.00018201323 0.0097826095 -0.0070121284 -0.00044380312 -0.0023091205 -0.0109232385 -0.0029206397 -0.006941403 0.011794994 0.018477684 0.008376481 0.005846038 -0.009332236 -0.0067579625 -0.014096051 0.0027660236 -0.01426585 0.010173326 -0.011609452 0.00932416 -0.0076358374 0.008650967 0.006286697 -0.0008843964 0.008126695 0.0010753364 -0.0020808692 -0.0060665277 -0.0063504684 0.0030700723 -0.0042820857 -0.016789068 -0.0072664632
và -0.0026019234 0.002697752 -0.011425384 0.003389153 0.010756145 0.0008228831 -0.005673365 -0.0052251364 0.0024771383 -0.0062100524 0.008087837 0.0062058405 0.0016797361 0.00474296 -0.003981278 0.0069685346 0.009851532 0.006229033 -0.0049192803 0.0015717563 0.008760462 0.0051024253 -0.0011094554 0.006775143 -0.005500243 0.0034473184 0.019547222 -0.0009928124 -0.00564026 -0.001180236 0.009427779 -0.008958993 -0.009669545 -0.0122131845 0.004256003 0.0009705821 -0.0031334595 -0.010633704 -0.010456446 0.018848712 -0.0032169267 -0.003292256 -0.0052483627 -0.013720921 -0.012267685 0.0055640945 -0.004377314 -0.0024148785 -0.013495998 0.008707223
để 0.008167989 -0.00038221444 -0.009891021 0.0071977014 -0.0080392575 0.00046699453 -0.0063801664 -0.0053638564 0.0057124724 0.0017030583 -0.007371912 -0.0029194676 -0.0052795494 -0.0019655456 -0.002988601 0.00922346 0.011180937 -0.0092903795 0.0041128467 -0.0012370474 0.008224082 -0.0013345785 0.0044530258 0.0071075037 -0.008805291 -0.0031563456 0.01738469 0.0069714338 -0.009542991 -0.0091707 0.007288341 -0.011338663 -0.008685997 -0.008793333 0.0044042137 -0.0027318674 0.012215098 0.0016876933 -0.00065381406 0.0088452445 0.008642564 -0.004111228 4.990207e-05 -0.011037367 0.0022364152 0.0033930459 0.0045073833 -0.0023633528 -0.009074522 0.010364518
gặp 0.002153157 -0.00050600106 0.008040244 0.009085286 -0.0028391099 -0.0042132935 -0.008259202 0.008419983 0.0046352074 0.0038997862 0.0055774143 -0.0066858325 0.0036356698 -0.0055350964 -0.0023205676 -0.0026628287 -0.004420994 -0.0011705706 0.000714729 0.007866928 -0.0029804565 -0.008041888 0.0021510385 -0.0021690128 0.0074749654 -0.0029377742 0.010268642 -0.0074286973 -0.0053406674 -0.008267078 0.0019059163 -0.0053377245 0.001686294 -0.010330177 -0.0066891853 -7.196483e-05 -0.004887783 0.0056439145 0.0039168224 0.0070836362 0.0015034494 0.0049447147 -0.00571482 -0.010095862 -0.010719699 -0.008430466 -0.00865476 0.008562605 0.005148115 -0.005974009
nhé 0.010265398 -0.0024260785 0.0028083422 0.0056216386 -0.005262757 0.0011003959 0.0010252291 -0.0063694497 -0.0026397288 0.008027997 0.0054115863 -0.001789753 0.0045428877 0.0044058743 -0.007901253 0.010892404 0.0011478263 0.004774671 0.0007057547 -0.0009523988 -0.0090961335 0.0045917765 0.005234938 0.00035491062 0.004138558 0.0007656107 0.01032245 0.009569298 -0.003472037 0.0028938772 -0.005754171 -0.0077208783 -0.0074523445 0.0056335665 0.010236342 -0.012119385 -0.00024462046 -0.0048237774 -0.00537212 0.0075509567 -0.009271263 -0.0030460085 -0.0009322949 -0.00970722 0.0041268663 -0.0011049208 -0.008131684 -0.007097326 -0.002148341 -0.00577362
ta 0.009298658 0.0052549313 -0.0077727167 0.006278975 0.005362076 -0.0013402124 -0.014016965 0.00838273 0.006670306 -0.0027552778 0.0032844166 0.0057947086 -0.009550961 0.011413708 0.001317916 -0.0032434436 0.0086559495 0.0013774164 0.007786538 -0.0017445323 -0.007532499 0.007668865 0.0003595785 0.008950124 -0.009562307 -0.0014821215 0.01583599 0.010728883 -0.007960385 0.010168826 -0.0079580275 -0.007434726 0.0075755115 -0.010421243 -0.0035227241 0.005106392 0.010264157 -0.012623293 0.0058938796 0.008044658 -0.0015485232 0.005225726 0.003512575 -0.008611834 -0.010454196 0.0015599971 0.007738418 0.0069870907 -0.014960927 -0.007839425
như 0.003183342 -0.0040609 0.006370173 0.012459158 -0.0067931036 0.0007692855 -0.013471019 -0.00035077787 -0.010817477 0.0057743345 0.007923123 0.007836593 0.001573979 0.0019430468 -0.0034521683 0.013227663 0.0077737146 -0.0027290909 0.0068086227 -0.0006072733 -0.010010281 -0.004069924 -0.004673411 0.0025731046 -0.0010265498 0.013994657 0.009412689 -0.006716982 0.0041877185 -0.0007071008 0.0023081487 -0.0003491303 -0.010252791 -0.0011414529 -0.007171186 0.0007398072 0.007642604 -0.012690875 -0.0067630312 0.0063968403 -0.000902306 0.0060576247 -0.010834354 -0.01093047 -0.014068434 0.0057276017 0.00404999 -0.0045755142 -0.012718251 0.002562965
cả 0.0017301105 -0.007720507 -0.005287164 -0.0075569684 -0.008376985 -0.008831954 -0.00022523227 -0.008951828 -0.00052924606 0.005477978 0.007334577 -0.0029690021 -0.0031680057 -0.0018491386 -0.0012853377 0.0037402024 0.0075366437 -0.00536686 0.0012474383 0.009546626 -0.0024632553 0.004663673 0.0026539476 0.008586471 -0.005140859 -0.007131233 -0.0004475449 -0.002504784 0.0073618884 -0.0026991942 0.0069286134 -0.0075149755 -0.004532029 -0.00072739663 -0.00599712 -0.0009206515 -0.0009701295 0.0019942564 0.008666401 0.008059182 -0.009026229 -0.009086374 -0.008126539 0.006957729 0.006209679 -0.00702372 0.0061968565 -0.0017647424 -0.0110500725 0.010428565
bị 0.0071211946 0.0042454605 0.0014145153 -0.004260404 0.0009611578 -0.010725076 -0.011683583 0.0016370591 0.0050982474 -0.002581041 0.00920533 0.008998505 -0.0013649584 0.0047981846 -0.0013960621 -0.0027279977 -0.006963767 0.0012013757 0.008381174 0.00081264606 0.0029137935 0.007605281 -0.0030250347 -0.0022900263 0.008502308 0.0019024317 0.014238975 -0.007147173 -0.004010471 -0.00042470972 -0.00040958833 -0.008324559 -0.009876973 0.0025323222 0.002376103 -0.007708638 -0.0020342546 -0.010443428 -0.0051418594 0.014871734 -0.010176102 -0.00042576907 0.005446592 -0.0038179588 -0.010468718 -0.00068997283 -0.009898058 0.0068325507 -0.0029953285 0.0115257455
lên -0.0010187005 -0.005772761 -0.009339668 0.011878307 0.000923422 0.0045047873 -0.008756362 -0.00394057 -0.0077526327 0.0033723367 -0.010409114 -0.005979216 -0.00854937 0.0023335142 -0.0047884304 0.00038444923 0.0009832805 0.0007138123 0.00035886088 -0.0047648656 0.008635884 -0.003636633 0.0032154513 0.00024043571 0.0069432114 0.009119663 0.011484986 -0.005716663 0.00632204 -0.0058701504 -0.0019397327 0.0032798524 -0.0035883673 -0.013528393 -0.0043792455 -0.0053356625 -0.0019773466 -0.0083012795 -0.0010750839 0.011864983 -0.004177179 -0.005777133 0.001720875 0.0011865 0.0051549966 -0.0003310877 -0.0040205917 0.008381879 -0.014391454 0.00093118765
lắm 0.014006648 0.011084187 -0.004743468 -0.0023411778 0.0019471743 -0.009826026 -0.0022576533 0.0044485014 0.0055106347 -0.008871821 0.007640134 0.0024124773 -0.009261276 0.012756303 0.008171099 0.0072218934 0.006365829 0.0069450117 0.010735259 -0.00038451268 -0.009055718 -0.0018238383 0.0025593163 -0.0013831361 -0.002635123 -0.0035425322 0.016341839 0.0080693 -0.005274721 0.0011568733 -0.008506937 -0.0055190176 -0.0038029524 -0.010377137 -0.0024598874 -0.0046057845 0.013713788 -0.012721764 0.0068808887 0.0055024787 -0.004882095 -0.005303234 -0.002927882 -0.0010152995 -0.0017017807 -0.0023177273 -0.0028315354 -0.0005146753 -0.013489458 0.0022744644
thích 0.004736263 0.009823622 -0.0037575641 0.0027960006 -0.0047895294 0.001079757 -0.009859139 -0.0058810855 -0.00065369904 -0.0014364747 -0.0036683585 -0.0020886878 -0.008755332 0.008314277 0.00011399601 -0.0017133617 -0.0052646743 -0.00510384 -0.0058052875 0.0037447049 -0.00027434062 0.005303098 0.0049017216 0.0036250376 -0.0022193035 0.009656528 -0.0033167028 0.003814233 -0.003951081 -0.0082184095 -0.004587616 0.0024798017 0.00037574256 -0.005559155 0.008639582 -0.009623722 4.0830953e-05 0.0064553437 0.004934224 0.012413737 0.005385233 0.009487452 -0.009547731 -0.00028955092 -0.009409444 -0.0026008186 0.006256798 -0.0019781385 -0.005169668 -0.0003657945
các 0.011582882 0.0111903185 -0.0070884973 0.0056740837 0.0013515464 -0.0030732176 -0.0016326989 0.0013505433 -0.009186459 0.0030689777 0.007649917 -0.0023487438 0.0024583412 -0.001924039 0.0016423375 0.010675811 0.0029846546 0.00018917052 0.00047621474 -0.007850397 -0.0031345033 0.0056354795 -0.0008686176 0.0033306924 -0.0049982453 -0.0004804323 0.011362406 0.010370692 -0.00021529676 -0.0076445914 0.01008404 -0.0047483235 0.0020398537 -0.0040451554 0.012275003 0.003573909 -0.0029678617 -0.008180486 0.005505208 0.015301586 0.0010254327 0.0036584463 0.006030815 -0.006872796 -0.010179771 -0.0046918727 -0.004864189 0.000106405976 -0.010219106 0.0014205292
mình 0.00807369 0.0010769774 0.0075906734 0.00827462 -0.0016658404 0.0016974154 -0.010369545 -0.009409205 -0.010817464 -0.0013278079 -0.0017178643 0.0072012004 0.0042565824 0.0053560603 0.009114697 0.006497417 0.0031075026 0.005933537 0.0024033717 -0.0077859038 0.008317634 -0.0006600933 0.009183549 0.0073386715 0.009210956 -0.00036752954 0.010328978 -0.0035681883 -0.0071973084 -0.0074964883 0.005825213 -0.009893418 0.0058046067 0.001795882 -0.0022541324 -0.011928267 0.0065078186 -0.008372307 0.0043088295 -0.0015790798 0.0013037118 -0.009485894 0.0036447388 -0.01245189 -0.009535082 -0.007023627 -0.009586827 0.00443739 0.0046391585 -0.0004174563
chỉ 0.006947938 0.010876313 -0.0034397456 0.00845932 -0.0039247037 -0.00521807 -0.008061962 -0.0077552507 -0.008550812 -0.009267757 -0.008647258 -0.009239784 -0.010407465 -0.0036861927 -0.0089692725 0.010708529 0.010825017 0.004925402 -0.0066764834 -0.003856937 -0.0020754535 0.004903856 -0.008259618 0.010660261 -0.00900798 0.010761862 0.01039839 -0.0034744146 0.006013323 0.0054592593 -0.00038610425 -0.011694374 -0.0014300403 -0.0055188593 0.007517722 -0.010484536 0.0044097165 -0.006505344 -0.003960067 -0.0004361613 0.008118994 0.0056589 -0.0045292536 0.006828074 0.0069289734 -0.004059895 -0.007360233 -0.0030429445 0.00048194872 0.005677743
chúng_tôi -0.0037612342 -0.0039260983 0.0023080877 0.003757713 0.0013393309 0.005259205 -0.012079704 -0.001505983 -0.00023786363 -0.00907691 0.0004512288 0.0017779783 0.007552683 0.0014498566 0.0085277995 -0.00086612103 -0.0019006507 -0.009220994 -0.0068892282 0.002698653 -0.002296678 0.00044636964 -0.009948564 -0.004074168 -0.0010652823 -0.0016535899 0.0035693885 0.0074315863 -0.0064970264 0.004405586 -0.0090525 -0.0054081865 -0.0046441695 -0.0057569654 -0.005209738 -0.005209926 -0.0022251226 -0.0025050626 0.0030687493 -0.00085950433 -0.0029233326 -0.008063417 -0.0059475224 0.00055337226 -0.007810936 -0.005029867 -0.0040628584 -0.0017114187 -0.0037156194 -0.007449746
thế_nào 0.0036071339 -0.0027254964 -0.008024951 0.0020108488 0.0038155813 0.0016522956 -0.0012430109 -0.008127575 0.005773023 -0.0017106939 -0.00779128 -0.0010225764 -0.0026264433 0.009674123 -0.0023041 -0.004949369 -0.0032795274 0.0012548538 0.005821212 -0.008881747 0.0039591873 0.005913977 -0.007854084 0.0006521425 -0.0006709118 0.007199784 0.011591074 0.0093880715 -0.0039291633 0.008340181 -0.0066748043 -0.007400287 -0.008031156 0.0043666116 -0.003907441 -0.0023775788 -0.004557946 -0.003554085 0.0006422166 0.008823631 0.0054502413 -0.0024056057 0.0011022706 -0.003021601 -0.011063813 -0.002848276 -0.0066396887 -0.0033124 0.0056017986 -0.0012804725
hay -0.00044762128 -0.004460007 -0.008544498 -0.0032796026 -0.0068838987 -0.0031365454 -0.00541216 -0.0042641754 -0.009667499 0.0094369035 -0.010021621 0.0015652381 -0.0005003561 0.00893143 -0.0044864397 0.008946516 -0.0019963991 0.009644999 0.010070829 0.0036984228 -0.0015483919 -0.010114063 -0.0037670403 0.009422135 0.005216938 0.00011340441 -0.0038587283 0.011312703 -0.0073147174 -0.0051311664 -0.0036259752 0.0025838537 -0.0038106919 -0.011648037 0.006641311 -0.010240606 0.006208991 0.0009491023 -0.0058721444 -0.0008774717 -0.0044071865 0.004840205 -0.004707383 -0.0026221664 -0.0014277 -0.0071272855 -0.010613675 0.009115543 0.0010102979 0.00843619
nghĩ 0.0045938776 0.005397608 -0.009730036 0.0028577838 0.010332467 -0.00033685655 -0.00076002744 -0.0083898725 0.0031803835 0.0037883357 -0.008728927 0.0003663049 -0.008450077 -0.0027538533 0.00082028925 -0.0060520796 -0.0063704196 0.0052971104 -0.00515304 -0.0046786 -0.009418784 -0.010866126 0.005559617 0.012565111 -0.0037753107 0.0012246282 0.0031239078 -0.0074693044 -0.001559854 -0.0052975114 0.008724435 -0.010873788 0.007628722 -0.0067758476 0.010651178 0.00280709 0.006635412 0.0010925493 0.0075588753 0.015362402 0.0012761928 -0.0037302112 -0.010922653 -0.010013275 0.004450063 -0.002871978 -0.0071241283 0.008117366 -0.0021893128 0.011667952
vào -0.0047568996 0.008762058 0.0052737035 -0.0012723602 6.537732e-05 -0.0076884297 -0.0132897245 -0.010140321 -0.0095378505 0.008558697 -0.0095035 -0.005309396 0.0050435574 0.011734579 -0.007031207 -0.0010513543 0.0040940763 0.002938522 0.006257243 0.003465348 -0.002374357 0.006917692 0.00042393315 -0.0006895638 0.0063898354 0.0046655466 0.011793815 0.01207055 0.009993811 -0.0072754514 0.010652498 -0.005712766 -0.005099393 0.0006819541 0.010132191 -0.008193967 0.0001143492 -0.009785871 -0.0077813333 0.015131145 0.0035681303 0.0012263053 -0.009585497 -0.011470383 0.0019193137 -0.008216236 -0.0034061843 0.005670029 -0.013328872 0.009179135
quá 0.0057466733 -0.0027257218 -0.011019632 -0.002214998 -0.009623093 -0.009299112 0.0075921756 0.00036955587 0.006053426 -0.00059300096 -0.0055526793 -0.000994551 0.005599204 0.011328267 0.0001262139 0.0096068205 0.004425608 0.009419238 -0.003624605 -0.008875869 0.0011066681 -0.008734342 0.0047003715 0.0023154789 -0.0007800363 0.006978302 0.0010681232 -0.00055730547 -0.008173896 0.0069335974 -0.001240007 0.000811873 0.008614541 -0.006642892 -0.001361665 -0.008345999 0.007796643 -0.002155804 0.0049616694 0.012689614 -0.0019478054 -0.008853271 -0.009226083 -0.0026735407 0.0026530253 -0.008953153 0.0005562924 -0.0044684163 -0.01163041 0.005551088
hãy 0.0048658405 0.007529001 0.0019358499 -0.0056685866 -0.0013944987 0.005650466 -0.009708894 -0.008549891 -0.010225054 0.0013758143 -0.0011341667 0.008946314 0.007396409 -0.006941784 0.003993468 -0.0017202953 0.0065315817 0.009817749 -0.003920912 0.009989878 0.006919066 -0.008770022 0.008120982 0.0053390344 0.005326542 -0.0037261033 0.010511199 0.0028680982 0.004857556 0.0056610866 0.001964446 -0.006305839 -0.0037632338 -0.012092236 0.0015004539 -0.0068381885 0.00615937 -0.009412828 0.006677086 0.011276715 -0.008917047 -0.009491114 -0.007213265 -0.010187563 0.0015587194 -0.0036962968 -0.008906507 -0.00693816 0.006893978 -0.0033574754
chỗ -0.0013734892 0.0010607137 -0.0009577772 0.0017433704 -0.0062069213 -0.0050474303 0.0009397859 -0.0009094038 -0.009261984 0.00909731 0.0008666846 0.0056661307 -0.0005243729 -0.007511905 0.0068939067 0.010105736 0.009339094 -0.0043251375 -0.008783854 -0.009347477 0.0028358374 -0.010844227 -0.0029840479 -0.0070115505 -0.0069371196 -0.00029863667 0.008332391 0.0066744075 0.00948951 -0.0021530369 -0.008745984 -0.0043942872 0.001327703 -0.0014142691 0.010192578 -0.0046367995 0.00394043 0.00039287438 0.006022452 0.009401086 -0.007228461 -0.0054046973 -0.0064611444 -0.0021065157 0.003265837 -0.0017789023 0.006924003 -0.008362811 -0.011511452 0.0065564807
cảm_ơn 0.009845625 -0.0028705706 -0.0052782437 -0.0035535519 -0.00418735 0.007898189 -0.009702897 0.0040402813 0.004388233 0.0068278373 0.0054022353 0.0018243991 -0.001162604 0.0027076085 -0.006326883 0.0035422114 -0.004107692 0.009457836 -0.007865285 0.008209957 -0.0050378847 0.0071565877 0.004936829 0.010303538 0.0066321315 0.005401843 -0.0057538287 0.0062157325 0.0050533297 -0.004254505 0.0043188357 0.0056877574 0.00057787774 -0.002818274 0.0022404904 0.0025824474 0.0030868829 0.0046988805 -0.0076618786 -0.006394665 0.0015477217 -0.008264222 0.006318086 -0.008459147 0.0001911207 0.008977836 -0.0014352469 0.0065125567 0.0013902659 0.008228689
nhưng 0.0022075737 -0.004376096 -0.0027470181 -0.006192328 -0.008850391 -0.008994415 0.0062543275 -0.0104904 0.00069480913 -0.005065966 0.009185554 -0.0006028552 0.00015721547 0.0047137006 -0.0057384577 -0.005002136 -8.331773e-05 -0.0034441699 0.008903968 0.009920997 0.004902098 -0.0069687497 -0.0053202463 0.011257081 -0.0077911043 -0.006627657 -0.0037501587 -0.0071110874 0.009380921 -0.0004147151 0.006691922 0.0008604013 -0.0028889317 -0.0063914433 0.0024593738 -0.003994072 0.0057594655 -0.0026388653 -0.0056562335 -0.001626828 -0.0058931666 -0.0032123483 -0.0065012765 -0.009961341 -0.0028011012 -0.0004931155 0.009285342 -0.009872829 -0.0032834762 0.006987007
hai 0.011193381 -0.0053844657 0.0034696732 0.0104691945 0.000774876 0.0029878586 -0.0025619376 -0.003438322 -0.007282533 -7.6178825e-05 -0.0073329676 0.0056982962 -0.009416834 0.011657286 0.0068508117 -0.0046704723 0.009943345 -0.0015136432 -0.0060611097 0.006722139 -0.009694062 0.008487628 -0.009501001 0.0005413471 -0.004008811 0.0048149806 0.0092789475 0.005265672 -0.0076379376 -0.00536342 -0.00502813 0.0040383684 0.0068835737 -0.00033009937 -0.0023612108 -0.009445196 0.007163524 -0.0027371885 0.0002920415 -0.0036693749 -0.008050152 0.003244808 0.0074945744 -0.0017897651 -0.012026613 -0.008634632 0.0057883123 0.002188691 -0.01130386 -0.0032876318
ông -0.004795768 -0.0030212032 -0.0006803974 0.0034359016 -0.00031987156 -0.0021426552 0.0070380233 -0.00386362 -0.00982828 0.001823658 0.0022480055 -0.0059197918 -0.011040089 0.0006339937 0.0025908083 0.001961048 0.010225308 0.0006963475 0.0019966043 -0.0011828034 0.0018496178 0.00048794723 -0.0059859804 -0.0067788386 -0.007016697 0.004116326 0.010425173 -0.001521219 0.0036290458 0.007012714 0.006031712 -0.0075534396 0.003415684 -0.013680877 -0.007665815 0.0021740969 -0.0006742382 -0.0114763 -5.909682e-05 0.014512927 -0.005705323 0.010152252 -0.0026566025 0.00662856 -0.007129893 -0.0017168985 0.00576935 -0.009431254 -0.0025131884 0.00032045867
mua 0.00964596 -0.001823429 -6.8044035e-05 -0.0014679655 0.006778253 -0.008411915 -0.009542619 -0.0074310335 -0.00011078089 -0.00021318953 0.009686047 0.0034336539 -0.006774979 0.010547198 -0.0020770568 0.0038677158 -0.006135964 0.008987294 0.010683556 0.0069367797 -0.009123862 -0.0023618862 0.008301053 -0.0019721785 -0.009018324 -0.0034715259 0.009192044 -0.00076232303 0.0020914464 -0.00072928215 -0.0058810664 -0.011920001 -0.008990723 -0.013194546 0.009625176 0.0014416068 0.0051863333 -0.010623442 0.0048745153 0.011991233 0.0030280536 0.006941773 0.00019271791 -0.0070195477 -0.009432554 -0.0037078685 0.007812381 0.0046591097 -0.007434781 0.010956577
bạn 0.0088687325 -0.00021090606 0.007131295 -0.0074692187 -0.009701391 -0.0025494508 -0.0059319246 -0.006155114 -0.0026456348 0.0090765115 0.0069585415 -0.009088511 -0.0008826254 -0.0005878799 0.006161779 0.0018292904 -0.0031471348 -0.003182842 0.00230193 0.0049377345 -0.0019669612 -0.006978846 0.0039266665 0.0074555036 -0.009145879 0.006334163 -0.000798949 0.008313341 0.01007686 0.009038801 0.007718807 0.00078627834 -0.0040268386 0.00605426 0.00631533 -0.002538181 -0.0040336032 -0.00046979764 -0.0013995224 0.0099659 0.00793594 -0.0005312481 -0.009392745 -0.0025147744 -0.0023439638 0.0006707338 0.00046669377 -0.0009375014 -0.009984568 0.0058381553
ổn 0.005654245 0.001003039 -0.0056477585 0.007544424 0.009211154 -0.0044160034 -0.00948264 0.00044813508 0.0069748317 0.0065163565 0.0010589506 -0.008132477 -0.004332009 -0.008382031 -0.0019269617 -0.0025585121 0.0034231648 0.0017321858 -0.00080353837 -0.00845017 0.001307087 0.0049007363 -0.0042634606 -0.0038132302 -0.0078101917 0.0049936 -0.0057407906 -0.008622775 0.006540466 -0.0037472865 0.000675831 -0.0058960486 0.00462594 0.0061604884 0.0017006027 -0.0027252429 0.007049844 0.006521918 0.0021232835 0.008595594 0.004809885 0.006322177 0.008349389 0.004810529 0.0070770634 -0.0050142724 0.0033581425 0.0038487774 0.0048848507 -0.0018469455
điều -0.006370706 0.0016717502 -0.00733772 0.006664495 -0.00019165734 0.0016899061 -0.0033414084 0.0024845756 -0.0046132854 -0.0057696817 0.0018303622 -0.0050090356 -0.008387882 0.0038742903 -0.004328248 0.001204228 0.005840547 0.008594056 0.0072477604 -0.008768355 -0.009181644 -0.0010267269 -0.0016467453 0.008930438 -0.00063821906 -0.0034875157 0.008871769 -0.003327225 -0.0044062803 -0.004616645 -0.00028352992 -0.01282822 0.007680711 0.0045196926 0.0011583333 -0.006869884 -0.0026495846 -0.007640617 -0.010697475 -0.0011714472 5.8219677e-05 -0.009685587 -0.008262264 0.0044960883 0.002968988 0.009455936 0.0081563415 -0.0011066858 -0.000104872335 0.00313765
đến -0.0023010965 0.0074970583 0.0027503734 0.00028355815 0.0037152003 -0.010425253 0.00037345328 -0.0021556253 0.008534052 -0.0060898745 0.004135702 0.0064461567 -0.007424504 0.0022548863 0.0069546006 -0.00039666408 0.007655232 -0.0010760442 0.0047462923 -0.00091775856 -0.008941692 -0.006379017 0.0013655191 -0.005591712 0.009393992 0.001837961 0.014856647 0.0012692858 -0.00025537045 -0.0063878503 0.0072286227 0.0057724123 0.0010909211 -0.005448718 -0.002284889 -0.007520052 -0.0032562262 -0.004907526 -0.003447615 -0.0010678776 -0.00045266416 0.0002454789 -0.010288867 -0.012253415 0.005083383 -0.0036995579 -0.007022199 0.0057834308 -0.009897453 0.0006227921
lấy 0.010798049 -0.0015847994 0.004298698 -0.005687595 -0.0027664981 0.0022658685 0.0034325088 -0.009438646 -0.0011816983 0.0052146097 0.009044521 -0.0044789617 -0.0035495528 0.0050753765 -2.8616656e-05 -0.0015514599 -0.00058124634 0.0010883681 -0.00026671687 -0.006044327 0.006370198 0.0027353002 -0.0031612902 0.010118707 0.0046458063 -0.0018396256 0.006534008 0.005691535 0.0006420708 -0.004760999 -0.008440691 -0.003970421 0.0001756064 -0.010576372 0.0018870066 0.0035181257 -8.747302e-05 -0.009092666 -0.00063142163 0.0045297933 0.0093169445 0.006675747 0.007833215 -0.00081063935 -0.007046152 -0.0036199812 0.0045836708 0.0065577053 0.002171573 -0.008949737
nếu 0.0011840664 -0.0037935865 0.00500286 -0.0023034094 0.008003221 0.004750303 0.001389332 -0.003176716 -0.00022346697 0.0043581426 0.007867771 0.0019305636 0.0024478137 0.0062897163 0.0027772347 0.010217096 -0.0076398826 0.004371417 0.006072197 0.006185848 0.0022007409 -0.007234033 -0.0027345906 -0.0032223074 -0.007009119 -0.0022201368 0.006702328 0.0022227354 0.0017289948 0.009997068 0.0038825804 -0.012258785 0.0023472314 -0.008414271 -0.0043251812 -0.0008347513 0.003977757 -0.0046843467 0.0013104967 0.0006555964 -0.0058769234 0.0003937326 -0.0021503493 -0.010589769 -0.011476781 0.0029663222 0.007309026 0.00796045 -0.009491116 0.0047436366
cần 0.0071447482 0.0028341599 -0.0012197488 -0.008037449 0.0021562704 -0.00465336 -0.0014957297 0.0029993483 0.00016393386 9.6045944e-05 -0.003924569 0.0067376653 0.0038105596 -0.0017335418 0.007791585 0.00751396 0.009519723 0.0074698864 -0.0058305687 -0.0011634702 -0.009997321 -0.0073155686 -0.009916022 0.0076421294 0.0028847698 0.0034963933 -0.0018402353 0.0007781523 -0.0028231232 -0.00086358807 0.0072090495 -0.0013267521 0.0033953462 -0.01140472 0.0061763404 -0.005934572 0.0029828723 0.007425485 -0.0014542225 0.008709311 0.0037987537 0.0096788425 0.002783689 -0.011234607 -0.0119010145 -0.009622921 0.0015727807 -0.000676251 0.001523233 0.0056242626
vui -0.001979486 -0.004522495 -0.004320192 0.0039274786 -0.0036091234 0.0048827687 0.0023650883 0.004592329 -0.009435627 -0.0012114808 0.005900708 0.005253996 0.0019141852 -0.0018734452 0.0022052529 0.008161655 -0.007859264 -0.0020328206 0.008032812 0.00010376468 -0.004974422 -0.005902409 -0.002730606 0.008024975 0.003219593 0.0033750762 0.011147315 0.008877065 0.0048969043 -0.005683183 0.010519663 0.0027549965 -0.005881772 -0.009322781 -0.006441978 -0.0104433885 0.0007030595 0.0021059888 -0.0021609669 0.008743938 -0.0059239604 0.008256638 -0.0015701308 0.0033039812 -0.010213581 -0.006472368 -0.00896933 -0.0069665904 -0.003202183 0.011307521
làm_sao -0.0019900035 0.0020702882 0.003777614 -0.0038837115 0.006822908 0.0018369386 0.003157406 0.008103382 0.0056810128 0.009034476 0.009799256 0.004213215 0.0028208217 0.009834687 0.009051119 -0.0021887799 -0.0068720784 -0.007480148 -0.0010665454 -0.009271622 0.0073881177 0.0071995677 0.0046618967 0.0025158743 -0.0030103696 0.00639447 0.0020622357 -0.007496108 0.0013557845 -0.0015420526 -0.007803396 -0.009417047 0.0033117048 0.0007032987 -0.00042170344 -0.008148686 -0.0016111007 0.00040759545 0.0069583696 0.0023799448 0.001538178 0.0070777177 0.0010206108 -0.0018852276 0.0050262767 0.008073676 0.008635481 -0.0009273555 -0.0008706445 -0.0061928434
sống 0.006603995 -0.0048693735 0.007985863 -0.0065076333 0.0076988963 0.008854641 0.0031921917 -0.0014361115 -0.009634126 0.000747199 0.0021663469 -0.0048508462 0.00069497706 0.0043800185 0.00017927952 0.00047082134 0.008685153 0.008246019 0.0050831004 -0.0006677116 0.0073537272 -0.0020451588 0.0012332802 0.008301496 -0.0069426224 -0.0012065865 0.002363571 0.010465912 -0.004546137 0.0046453835 -0.003318014 -0.0004670764 -0.008687347 -0.008684147 -0.0012652396 0.001043626 0.005585922 -0.009616815 -0.0012074109 0.01243824 0.0037397793 -0.008287341 0.00489047 -0.010467021 -0.0039812843 0.0037868617 0.001506083 0.00598028 -0.00836296 0.0026517971
chắc 0.002686964 -0.0063126683 -0.0056428034 0.01032026 -0.0075308047 -0.0067179124 0.004997128 0.0059335856 0.00786323 -0.0050968234 -0.0075320215 -0.008439077 0.0074757715 0.012625017 0.002258862 -0.0063324515 0.007992143 -0.008130412 -0.00027128783 0.0017853479 -0.0015476954 -0.007039577 0.0002745638 -0.0037875464 0.007965338 -0.0013720595 0.0052816947 0.010509805 0.00019817748 -0.00089618354 0.0029276076 7.256574e-05 0.004394028 -0.012516601 0.00906692 -0.0066506886 0.008846613 -0.004442813 -0.004303696 0.0129801715 -0.0064006336 -0.0036420855 -0.002644269 -0.010744153 -0.0019356438 0.0017433441 -0.009052903 0.001655517 0.0008568694 0.0018112976
giờ -0.0043560346 0.008737574 -0.004616558 0.0053626597 0.004576833 -0.006482945 -0.0013862161 0.0062815696 -0.0015471639 -0.0049259164 0.0048003052 0.0083467895 -0.0061629624 0.0042309524 0.005522542 0.001249342 -0.005189987 0.006954926 0.01089706 -0.003804051 -0.0070714713 -0.009069998 -0.0040352196 -0.0028169216 0.004465229 0.009402554 -0.0036606714 -0.006694009 -0.0070789326 -0.0053628194 0.0077046147 -0.012237083 0.0023034858 -0.007307279 -0.007291587 -0.0074873404 0.009655356 0.0030997437 -0.008695432 -0.005389039 -0.0012839779 -0.0065886774 0.006762063 -0.010407635 -0.007978456 0.0044200076 0.0064637396 0.009470724 -0.011515027 0.00391768
giúp -0.0015584033 -0.0057392125 0.006782631 0.0033810146 0.0039411704 -0.007840528 -0.002379531 -0.0034854498 0.00395417 0.0040347576 0.008868515 0.0037186428 -0.0113888495 -0.005832956 0.0070850523 -0.00865893 -0.0032841128 0.0058977474 0.0009822573 0.0104970215 0.0075113084 0.00696954 0.0030101317 -0.00036698888 -0.009758614 0.0045134146 -0.003966041 -0.00036988998 -0.008850785 -0.0071222787 0.0075107217 -0.0012100134 -0.0063753584 -0.005467365 0.008794668 -0.002828065 0.0024774382 0.005338737 -0.006243745 0.0059281066 -0.0027045205 -0.0057083555 0.0053405 0.004660918 -0.007781627 0.004638123 0.0032676093 0.007604578 0.006415002 -0.0032448056
trả 0.00031107554 0.006674526 -0.005204814 0.008702444 0.009420357 -0.0042480007 -0.005652826 0.003212723 -0.0037596505 -0.008817162 0.004082303 -0.0070200223 -0.003182603 0.0016649807 -0.009504349 -0.0005249527 0.009550585 -0.0077478318 0.009628933 -0.0083755 0.007938027 0.0062346775 0.0075745434 0.0037279227 -0.00320144 0.011662066 -0.00516576 -0.006472481 0.006151102 0.009185581 0.002061116 0.0026196367 -0.0060231537 -0.012274022 0.001193235 0.0083580315 0.007877057 -0.007381749 0.008447335 -0.00059762347 0.003497883 0.006926918 -0.010653054 0.00088349613 -0.011046388 -0.0017635473 0.0035903945 0.004679014 -0.007357616 0.0074660075
tiền -0.002725563 -0.007523419 0.0030747212 0.01027162 -0.009187764 0.008259644 0.0027184675 0.0041495743 0.0049138526 -0.00071918196 -0.008254696 0.0007445417 -0.0070183603 -0.0035179574 0.0011442438 -0.00046698772 0.009646685 -0.0056009465 -0.004528629 -0.0054428824 -0.003395885 -0.01073779 -0.008142403 0.003784642 -0.00059981714 0.008785071 0.010726872 -0.0059151105 0.0038277179 0.0054646456 -0.0038714705 9.799313e-05 0.0021604965 0.0035609629 0.007652933 -0.005870183 0.0021224217 -0.011223874 0.008833775 0.0040943734 0.0065219696 -0.0070562097 0.0054120794 -0.006102479 -0.01050659 -0.0033082417 0.0056330524 0.0034165278 -0.0030785648 0.009828251
món 0.010587281 0.0016159324 0.0056689377 0.008888258 -0.0039555114 -0.002000391 0.00067150546 -0.0077815256 -0.0005306451 -0.0052942787 -0.0041446364 -0.0012495428 -0.009887414 0.009879124 -0.008432108 0.0025801389 -0.0029004328 -0.00809289 -0.0069062524 0.007753071 0.0014023356 -0.0011458744 -0.0054493314 0.011621394 -0.00070703373 0.004973679 0.015953038 0.006574883 0.0028763493 0.0005759937 -0.008886565 0.0047051995 0.008940217 0.0030986506 -0.0019531583 -0.0041549634 0.004252215 -0.0056042373 -0.009957451 0.006574835 0.0013556744 -0.0003944145 -0.0077922847 0.00010026252 0.0038299654 0.00036558838 0.00055044907 0.0014897295 -0.0148956375 0.0004908525
tốt -0.0070872586 0.004420671 -2.9022201e-05 0.008068384 0.008757067 0.00027127194 0.005168773 0.0007419413 -0.006343884 0.001186544 0.0014941117 -0.0012613246 -0.00065652886 0.00029685118 -0.0007461954 0.00635382 0.007384694 -0.00055447564 0.005008342 0.010798216 0.0048220735 -0.008353346 -0.009488437 0.0038868147 -0.004955933 -0.00151958 0.011870635 -0.0053440514 0.0061543942 0.00889409 -0.00013311412 -0.0010978488 -0.0074683437 0.0032707031 0.0008741155 0.005958413 0.0005761303 -0.006452515 -0.005431041 0.00745743 -0.0015664067 0.002992366 -0.0095704645 -0.0077665364 0.0049800575 -0.009244979 -0.001804522 -0.0008321099 0.0016640071 -0.007270144
vài 0.0050454587 -0.0035226042 -0.0043408214 0.0066585145 0.003957597 -0.0012931909 0.00068000297 -0.00093882857 -0.007676857 -0.0009802328 0.0022739223 0.007197711 -0.0015947212 0.008328171 0.0093415 -0.004295006 0.004124539 0.010405092 -0.007925455 0.005646105 0.004740828 -0.00885039 -0.004136398 0.009772864 0.00055454025 0.0023831616 0.0019588887 0.008923708 0.0018450541 1.5240887e-05 0.0028370984 0.0030477028 0.008080601 0.0026255208 0.008202239 -0.008863351 0.011843559 -0.0046484442 0.008655877 0.00822909 0.0035026588 0.004387864 -0.0024917019 0.0013352454 -0.008466389 0.0064691203 0.0012284874 0.001085605 0.004869869 -0.00090544205
thứ -0.0059629977 -0.0046012043 0.0077604074 0.006607968 0.0035513057 -0.009422217 -0.007769979 0.008378049 -0.010323482 -0.0074808374 -0.005542392 -0.004416268 0.0041510556 0.0018880063 -0.009450012 0.0065124985 0.008650584 0.0024120966 -0.006483687 0.0001061599 0.0049636415 -0.0029753137 -0.008890606 -0.0006571659 0.0090087345 0.008979086 0.012062264 0.0055785975 -0.0018206264 -0.0061099404 0.000798744 -0.0021250932 0.008339318 -0.010052172 0.004092685 0.0034075407 0.01015856 -0.0024580974 0.0039035585 -0.005726749 -0.008149454 0.00739842 -0.008016004 -0.011397176 -0.004065162 -0.008804925 0.006691651 -0.007546792 0.002086303 -0.002933936
mọi -0.006632309 -0.002087869 -0.0040039923 -0.004839662 -0.0010574609 0.0022667127 0.006246326 -0.0020572843 -0.011436312 -0.0044656866 -0.0062929657 1.0961621e-06 0.0057471045 0.00342449 0.0074229315 -0.0026024831 0.005563254 -0.0062304535 0.0014262426 -0.00037146156 -0.0010103574 -0.00024948464 -0.0028969364 0.012157027 -0.002085284 -0.006138292 0.010604585 0.007908612 -0.009753356 0.0025867603 -0.009019755 -0.0056730313 0.001976757 0.0033451663 0.00065371924 0.007924111 0.011775431 -0.0022383947 -0.004688884 0.0006563532 -0.008080521 -0.006941997 -0.010415867 0.00033137246 0.0032251205 0.005826875 -0.0060466873 -0.0056907106 -0.006193829 0.009764524
về 0.009778619 0.011438688 0.005342174 -0.0028099755 -0.008263554 2.6345055e-05 -0.012056062 0.0062348633 -0.008523421 0.008177541 -0.008046161 -0.0022281497 -0.0108629055 0.010530186 0.00096060795 0.0033702282 -0.006664071 -0.001748331 -0.001961643 0.0063350606 -0.00020470118 -0.003893947 0.0076841484 -0.0017803533 -0.004270033 -0.0043103127 -0.0017383335 0.0014578823 -0.005289687 -0.0030886328 -0.0021749416 -0.011047491 0.008814439 -0.004907173 -0.0019435375 0.0066236923 0.00464164 -0.0064472705 0.0005432322 0.012220174 0.008333406 0.008035959 0.0068423757 -9.610296e-05 -0.0103276735 0.00942594 0.0007869419 -0.009766994 -0.009250649 0.008314509
trong -0.0028147642 0.0032768536 -0.0009086217 0.0048560286 -0.007330371 -0.0011325091 0.0076412223 -0.0039854543 0.0018131537 -0.005981466 -0.0011819167 -0.0007028307 -0.0021515412 -0.0036638414 -0.010431891 0.008751655 -0.0021132668 -0.004181622 0.0046195243 -0.009344205 0.001897819 0.005148936 0.00753072 -0.0063241334 -0.0027152614 0.0012065079 0.012991901 -0.0059579317 -0.0042823125 0.0068408437 0.00025317984 -0.009670134 0.0072837584 -0.0012525378 -0.0053152232 -0.00061960553 0.005013574 0.0060514067 -0.007082839 0.004089596 -0.009717644 -0.00664409 -0.00038592835 -0.007802438 0.0005621612 -0.003188596 0.007822804 -8.227307e-06 -0.0046646767 0.009237104
nhớ 0.008473353 0.009824721 -0.008336179 0.005131784 -0.002283244 -0.0034766968 -0.003539038 -0.0011289299 0.0005726629 -0.008573154 -0.0059626033 0.0040953476 -0.0043048374 0.0061289244 0.006557512 -0.007557473 0.008465519 -0.00587743 -0.0010329991 -0.008434855 0.007702454 -0.0024465215 0.0069093904 0.009016968 -0.0022963458 0.011076358 0.003655171 -0.0018185391 0.00046678484 -0.0069940384 -0.005284862 -0.0006513331 -0.002503982 0.006016928 -0.007389427 -0.0050426344 0.0013993491 -0.005078202 -7.708867e-05 0.0004199704 0.008463108 0.008963161 -0.01013511 -0.0028660593 -0.007617618 0.002814728 0.006528036 0.008449658 0.007134589 -0.0049095126
tên 0.002641235 -0.0066788998 -0.0055653285 -0.00563081 -0.008351188 0.0063476986 0.0058481633 -0.010431196 -0.007784439 0.0072475676 -0.0033078713 -0.006885874 0.0003468813 -0.0010497988 0.008677306 0.0010045263 0.007424853 0.0046472033 -0.0011619733 0.009418202 0.009500971 -0.006591792 -0.006832358 -0.0034493601 0.0061749755 0.008751437 0.008998251 0.00015664089 -0.003575845 0.0003376089 0.001329887 -0.002143723 -0.00673304 0.0034220237 -0.00233717 -0.0027047487 0.00798632 -0.007590685 -0.0048440187 0.009744916 -0.010203378 0.0040299264 0.00086790876 -0.0060276403 -0.0074980273 -0.0061756633 0.008062128 0.006889015 -0.0036321997 -0.005141239
tin 0.00060395064 0.010708876 -0.009133532 0.0014564198 -0.0045476584 -0.0076212087 0.000892261 -0.008050021 0.00537485 -0.008787975 0.0025969835 -0.007186539 0.004758976 0.00619689 0.007526416 0.004296896 -0.008525048 0.008860445 -0.00018655875 -0.008302436 0.006800855 -0.005790008 -0.008103852 0.006680551 -0.004829999 -0.0043258667 0.009747793 0.005870162 0.004854263 -0.0080829915 0.0078003905 0.0024259274 -0.007327404 -0.0029035078 0.0047090612 0.0028643184 0.00042035902 0.0067563504 -0.0080907615 0.012175652 -0.004221109 0.0044648442 -0.0006751967 0.00059328135 -0.0100743 -0.009469098 0.0048253844 -0.0008822602 0.0023518647 0.010363303
việc 0.008430409 -0.004508469 0.007865534 0.00861167 -0.00778895 0.0010231956 -0.009879518 -0.005149433 -0.00649762 -0.009526555 0.002659038 -0.0009809311 -0.00496769 -0.002765136 0.003362328 -0.0037307097 0.004214761 0.0043619913 0.0039031757 0.010191409 -0.008050715 -0.004384823 -2.778428e-05 0.0011293001 -0.006968475 0.0016652828 0.0051769908 -0.0036155311 -0.0015048418 0.009880249 0.01028405 0.005361616 -0.0062849624 -0.0058334833 -0.004246113 0.005554966 0.008634145 0.0050509847 0.004719279 0.003933342 -0.008694888 0.006365349 -0.009282265 0.0056793904 0.0067122183 0.004985752 -0.0023781955 0.002894116 -0.0123150125 0.0017128512
chờ 0.010908723 0.0064149247 0.0065900753 -0.006612354 0.006288305 -0.0027866964 0.0026242314 0.003763579 -0.008274127 0.009227716 0.008424851 -0.0040347846 0.007535384 -0.0065407567 0.008859396 -0.0042290166 -0.0015263961 0.0022849834 0.006476789 -0.007918892 -0.0036736634 0.004879416 0.0075948327 0.011267344 0.0058041154 0.008399479 -0.00011023304 0.00032178807 0.007443882 0.0005653754 0.009472811 0.0026760413 0.0063696993 0.0026313195 0.006951366 -0.010942488 -0.0070491657 -0.00054888777 0.0035437166 0.0019753121 0.0038904988 0.0038360427 -0.009499617 0.00074125757 -0.0051052435 0.009498749 -0.008073857 -0.008414045 0.0029905727 -0.0018886623
hơn 0.009417655 0.007625724 -0.00045638246 0.0010632467 0.0021020838 -0.0061151907 0.002664613 0.0064642364 -0.010893186 -0.0036192317 -0.006956626 -0.0062531084 0.0063762697 0.0009857401 -0.0033137565 -0.0058046235 0.008429515 -0.0070356773 0.0018834817 -0.007388161 -0.0072402097 0.0069070477 0.005999976 0.0091605075 0.009560691 0.0011551904 0.014723032 0.011035429 0.0011073095 -0.0073822574 -0.009040099 -0.009488564 -0.010210453 0.0014373153 -8.5918036e-05 -0.011755076 0.004210763 0.007836223 -0.010150038 0.004909009 -0.006071973 -0.009541193 -0.0024712018 0.0027261989 -0.009110204 0.0009902716 0.0092760585 0.0021063788 -0.0034292676 -7.088244e-05
không_thể 8.648909e-05 -0.0066309106 0.005691454 -0.0068021696 -0.008584832 0.0058076717 0.00058160274 0.0049253637 -0.011375391 0.010113306 0.009798743 0.005968516 0.0014991972 0.0018736266 -0.005901506 -0.0072551738 -0.003895677 -0.0046571125 0.0062760464 0.0033555492 0.004750085 0.0055013546 0.0044062575 0.006176422 -0.00038899336 -0.006387506 0.0049016094 0.009671667 -0.006541762 -0.002713394 -0.004995413 0.0016629023 -0.009574517 -0.008685519 0.0023877302 0.008496227 -0.002675751 0.0075308713 -0.0011959327 -0.0014344471 0.0037084601 0.005100375 -0.0060813413 -0.008481322 0.004220504 0.0023076225 0.0052002347 7.381148e-05 0.0013318373 0.0008466772
tay 0.001576084 -0.0044655153 -0.011335137 0.01131186 -0.009476684 -0.00019140472 -0.00601965 -0.0028581643 0.002201987 0.0082250135 -0.0053835483 -0.007626789 0.0048193727 0.009237548 0.002624532 0.0018005115 -0.0058178036 0.005403542 0.0055625094 0.0052706753 -0.008010652 -0.001968289 0.003995398 0.003275197 -0.009872753 -0.006766838 0.012182181 0.008340876 0.007006007 -0.0063023996 0.0104487715 -0.010974198 -0.009413202 -0.0025767055 0.010268719 -0.004178145 0.010976623 0.003231347 0.0015638964 0.013447648 -0.0078121303 0.0043485113 0.0082970895 -0.011538507 0.0044861585 0.006330661 -0.00753659 -0.0016957493 -0.002802843 0.0069589806
cám_ơn -0.003887483 0.0011203552 0.006712556 -0.0051133484 -0.0010814908 0.0017065489 -0.000592052 -0.0023137596 -0.0008812551 0.0023060348 -0.008818088 -0.001211832 -0.0071592224 -0.0054413183 0.003606125 0.007117706 -0.005925702 -0.0067142933 0.007641828 -0.008164196 0.005293205 -0.008367477 -0.0054998514 0.00031911558 -0.0042570163 0.0096605625 0.0047427267 0.010852856 -0.0086592585 0.007579361 0.0054179016 0.005405953 0.009387477 -0.007138886 -0.004170554 -0.0029509584 -4.8815997e-05 0.007451142 0.0034816193 -0.0036483365 0.00356425 0.003781238 -0.009190149 -0.008572076 0.0019217941 -0.0011619274 -0.008558908 0.0066012763 -0.004026267 0.00069793704
nữa -0.0028313468 -0.0037691218 -0.0045698546 0.0063065295 -0.008091113 0.0026911974 0.0011807873 -0.0054959296 0.0073675634 0.0026216728 -0.008587501 0.00056496693 -0.002535146 -0.008646338 -0.003492208 -0.002372129 -0.007947727 0.006712179 -0.00095144863 0.008531018 -0.00476564 0.009228756 -0.0011839048 0.0008139889 -0.002576 -0.001320585 3.7444443e-07 0.0020139094 -0.009024665 -0.0034587688 -0.0040729675 -0.00027319245 -0.0062996675 -0.005758159 -0.0007290006 -0.010785547 -0.0014451797 -0.005096053 -0.009074204 0.010485345 0.003293838 -0.008772343 0.0036333872 0.004221949 0.003226372 -0.0016873914 0.0052655 -0.0019435635 0.0027372472 0.0007498799
buổi 0.0021580646 -0.0072858734 0.0015556607 0.009949701 0.005607165 -0.0042689727 0.0047387746 -0.0065003433 0.005547863 -0.006788662 0.0064361207 -0.007325376 -0.011121929 0.008668789 -0.0077335644 0.00497537 0.008664622 -0.009656874 -0.0025496113 -0.0072546313 -0.00432072 -0.008426133 0.008525172 0.0033948417 0.004011283 -0.004765686 0.0055410205 0.003779098 -0.0037295155 -0.0029866213 0.00048396798 -0.008956612 -0.0010126211 -0.009782399 0.009419535 -0.0056659235 -0.00029449773 -0.00626161 -0.0037590482 0.013857502 0.0011683601 -0.0005385763 0.00051847333 -0.0009369877 0.00023577483 -0.004653304 -0.004642963 -0.000278291 0.0055456697 0.007904285
ồ -0.0071349987 0.00585144 -0.009692104 0.0065668034 0.0016695042 -0.006959126 -0.0070292293 0.0033302968 0.00093161315 -0.0029843163 -0.002581734 0.008336227 0.007241265 0.0067107677 -0.008508929 0.0032209202 -0.0041377596 0.004294841 -0.002676707 -0.00092729693 0.008680395 0.008733747 0.00047301897 -0.0009468212 0.007617896 0.004616386 0.011873397 -0.0057538482 -0.0063614403 0.0038464346 0.006011266 0.004613996 0.007042183 -0.004166632 0.005565421 0.005312397 0.0054107895 -0.0002396999 -0.0011401686 0.007975287 -0.008601306 -0.0034093973 -0.004306705 -0.009919223 0.007878371 0.0022350843 0.00053262606 -0.0040198117 0.0045248442 -0.008615642
nhau -0.0066641863 -0.00066767767 0.0075348835 0.010847293 0.002894287 -0.006420591 -0.006400219 0.00602788 0.0007949085 0.00820699 -0.007449653 0.0017801956 0.006205517 0.003707522 0.0043967916 0.0047275634 0.0045575406 -0.009430661 -0.006421925 -0.0025551545 0.0034711233 -0.0074594007 -0.008629661 0.0006365437 -0.0016856651 0.00888838 0.0007977118 0.0065055965 0.0044042426 -0.0030760881 0.006033474 0.0067871036 -0.00086793373 0.0069128945 0.0037211631 0.0013585913 0.012155669 -0.006442312 -0.009794206 0.012346642 -0.00033499853 0.009766403 0.007238525 -0.006122954 -0.009310917 -0.004783046 -0.004758689 -0.0022772066 -0.003869065 0.010408442
ư 0.005238037 0.003420914 -0.004113937 0.007990091 0.009324428 -0.0013173439 0.001063311 -0.005150988 0.0018757824 0.0045152027 0.00976825 -0.007908421 -0.00868274 0.0073505794 -0.005272612 0.009630739 0.0018076954 -0.0025217733 -0.005376189 -0.0077376836 -0.009856228 -0.0023100243 0.0001602146 -2.6755093e-05 -0.009972215 -0.0033760846 -0.0029049213 -0.0051714936 0.00057678483 0.0045889537 0.008316626 -0.002766506 -0.008273342 0.002004286 -0.0070833196 -0.0001368223 0.0033910684 0.0016105735 0.006423662 0.008387529 -0.0010484105 -0.007865607 0.00019432715 -0.008533209 0.0051145805 0.0088782525 -0.005405334 -0.0020795166 -0.006056675 0.00058634137
hả 0.009568669 0.009446768 -0.010965982 -0.0011699173 -0.0028601221 -0.003962116 -0.007241804 0.007944322 0.005960884 0.003074554 -0.004057464 -0.008057869 0.0014543163 0.004917003 -0.008283909 0.0069599 -0.0073406575 0.00972513 0.010176943 0.000968706 -0.005910827 -0.009835652 -0.010477149 -0.004355088 0.000836886 0.0041607665 0.005522166 -0.002852036 0.002342904 -0.006213361 0.0032350284 0.001460303 0.0015151598 -0.0052589695 0.008645486 0.007264505 -0.006729865 0.0050932667 -0.0037848004 -0.0064974055 0.000117055104 0.0025401865 -0.00913502 0.0022783107 0.0048109237 -0.0012889704 0.0063433787 -0.00787209 0.0032180871 0.010001592
chẳng 0.0020990067 0.0107197575 -0.006136303 -0.0018942754 -0.009893992 0.0056105987 0.006896405 -0.006327349 -0.0032970884 -0.0072831423 -0.0011238056 -0.004005669 0.004333165 0.0009801214 -0.009401071 -0.004138425 -0.0072933794 -0.0075289905 0.0010754952 -0.0034879432 0.0070813736 -0.009605141 0.0075770007 0.0004350257 0.0076424577 0.0042759017 -0.0065265233 -0.0013518437 -0.0016032897 0.007514796 0.00015827302 -0.011173369 -0.004005956 0.0037144842 -0.0041159024 -0.010336209 0.0020918318 -0.010793608 0.0029673157 -0.0039305 -0.0030628752 -0.008678859 -0.0016516952 -0.007039117 -0.007796498 -0.0064247935 0.0032260166 0.003849708 -0.002665587 -0.0076051676
bài 0.0033306463 0.0017555163 -0.010347013 -0.001753827 0.007894518 0.0023265556 -0.0051697586 0.006214289 -0.006027744 -0.00930915 0.009193342 0.0049839113 -0.003947714 0.0054506017 -0.004662443 0.006609682 0.007890309 0.0069348407 0.0036714217 0.003004278 0.004424392 -0.004788418 0.0023477797 0.00999045 0.00016683708 -0.005807979 -0.00090451236 -0.0023496235 -0.0038860606 -0.007291751 0.0046933815 -0.010731918 -0.008173074 -0.0031340395 -0.0075719673 -0.008193936 0.004215157 -0.010863916 0.0050304616 0.0016747129 -0.005949031 -0.0057259044 -0.0030715445 -0.0019958422 0.0030690373 0.0054729185 -0.002732383 0.0055297 -0.010252837 0.0016238895
hỏi -0.0014592955 -0.005846194 7.258432e-05 -0.0075946813 0.006593316 0.00510591 -0.0025448108 -0.001911563 0.0049397927 -0.00053090614 0.0047384766 -0.0021049974 -0.010542832 0.0028454463 -0.005591752 0.006274228 0.004836131 -0.007538431 0.0073371944 0.007870283 0.0002297773 -0.009776251 -0.007739148 0.010097956 -0.0031106418 -0.0040920395 0.0070271175 8.7756474e-05 0.0068604653 0.0099770585 0.0016543252 -0.0012760612 -0.0032034009 0.0037445955 0.0021332325 0.0023699063 -0.0012046689 0.0010564866 0.0024988363 0.008167485 -0.0010941124 0.009895339 0.0068181707 0.006422313 0.0074924855 0.00677634 -0.0032450273 -0.0049943733 -0.012680892 0.005096216
sự -0.0054926164 0.0076734163 -0.0067280466 -0.008315114 0.00831497 0.0066823415 -0.009932393 -0.00021104423 0.0056153536 0.0004649599 -0.006096226 -0.002104731 -0.0034086169 -0.0058714286 0.007175859 -0.0047649257 0.004900784 0.0043560704 0.007440015 -0.002318969 0.006053713 0.0023382998 -0.002651242 -0.0020694768 0.007232335 0.00091358006 0.009850013 0.011056913 0.00951827 0.0057180733 0.008737178 -0.0046739345 0.0042159227 0.0002331049 -0.0074813506 0.0018003607 -0.007783879 -0.008688998 -0.0069539305 0.00077922485 0.0014223016 -0.0053690006 -0.0040523834 1.4541605e-05 -0.0002093759 0.0036642037 0.007575735 -0.001279618 -0.008404361 0.0005266059
cùng 0.007852008 -0.0023022345 -0.010886049 -0.0042100525 -0.004438214 0.003396992 -0.0081377365 0.004721775 -0.004692831 -0.0064595076 -0.005946825 0.009244876 0.0063293064 0.0036734396 -0.0016507724 -0.004533442 -0.007926486 0.0028688842 -0.0006914485 0.0100755235 0.0023539478 0.0063920277 -0.002129429 -0.0067839934 0.007939756 0.0051170993 0.011966355 -0.0069624023 0.009388398 -0.0090269325 0.007158835 0.0020451727 0.0018594754 0.0012481764 0.003914031 -0.0004443364 0.006927049 -0.010375119 -0.003695469 0.0024568434 0.008128824 -0.0065953555 -0.007476553 0.005288688 -0.001281439 0.009326142 0.0052085617 0.007662124 -0.00875963 0.0004280753
dùng 0.0022573776 0.005156601 -0.009190904 -0.00013038087 -0.0059855217 -0.00048552838 0.001101269 -0.0053559174 -0.0065578 0.00039228826 -0.0034347544 -0.00011047292 0.0056651975 0.0034301525 0.0028332807 0.008238094 0.0035972693 0.0055431332 0.010078004 -0.006546531 -0.0021611163 -0.00063143333 -0.00795389 0.008158608 -0.005294389 0.009824714 0.006006205 -0.0066194898 0.0007877911 0.004404393 -0.0016589583 -0.010368579 -0.0019381661 -0.0032229314 0.004334006 -0.0046311654 0.00014715026 -0.00080499816 -0.0008978313 0.0055029853 -0.0038359915 -0.0015004341 0.006526837 0.0020147737 -0.0012348942 0.0020107331 -0.007882341 0.007952571 -0.007268436 -0.003666728
nơi -0.0073334705 -0.008062338 -0.009723878 -0.0004663984 -0.009237628 -0.010066727 -0.006180287 -0.005992924 -0.0023397438 0.008898836 0.009664788 0.0068672216 -0.004767281 -0.0035938725 0.007553628 0.0064715366 0.0034158435 -0.0014071085 -0.00052270514 -0.0054348493 -0.0070846137 0.0036307487 -0.0078006345 -0.005316307 0.0013488684 -0.006572991 0.009451241 -0.00053623534 0.00046856247 0.010012363 -0.009715161 -0.010738089 -0.0040956195 -0.008119055 0.0041151633 -0.0012795648 0.00346193 0.005454672 0.0009441434 0.008702898 -0.005813034 -0.0025844474 0.005641463 -0.010319376 -0.0097660385 0.0048613767 0.0018929456 -0.0028702156 -0.0025338812 -0.0003539593
kiểu 0.0027132947 0.0032872364 -0.0057194117 -0.00050317316 -0.008094395 0.0037592927 -0.005809492 -0.0055582677 0.0022936012 -0.007151397 0.009124688 -0.0064068134 -0.009861276 -0.00092632184 -0.0033276228 0.010250018 -0.0021621326 -0.004301705 0.00985545 0.0055693844 -0.0016347814 0.0067439117 0.0018142579 -0.005716048 -0.008855876 0.009411337 0.011639302 0.007987304 -0.0023052003 -0.002163468 -0.00089792674 -0.011851874 -0.004137431 0.0056510265 -0.008188396 -0.009525197 0.009624898 -0.0068672015 -0.0061391443 -0.0013057784 0.00034383693 -0.0041097566 -0.008641453 -0.011187766 0.004102428 -0.0029529955 0.007451271 -0.007504288 -0.0101811895 -0.0047164354
khỏe 0.0074117016 0.0020516338 -0.0047544115 0.002210374 0.006293297 0.0022543047 -0.002242049 0.0024894527 0.004402027 -0.0007353952 -0.0077010053 0.0044680373 0.0008546611 0.007171383 -0.006748661 -0.003643068 0.0078038727 -0.0041792616 0.008853423 0.0048249294 -0.0030527806 -0.00508992 -0.0029738168 0.0052136485 -0.004867627 0.0026566964 -0.0023683968 -0.0007977543 0.0013949237 0.0070986296 -0.009611957 0.00077176327 0.0044301604 0.005484823 -0.0047162483 0.003068288 0.0022805089 0.0047559016 -0.0002826603 0.010806163 0.003107591 0.002792771 -0.0058527957 0.008665424 0.00016211713 -0.0030970522 0.00863956 -0.0031364004 -0.0069928155 -0.0026736727
loại -0.0038033172 -0.008125851 -0.009576772 -0.006155446 -0.0014536934 0.008175559 -0.008048038 -0.0044078063 0.0006081007 -0.0076237647 0.0037846698 0.0068081752 -0.0020371173 0.012290907 0.004534986 0.0053671654 0.0057686265 -0.007630561 0.008386796 0.005736947 0.00050350296 0.00073352706 -0.007840463 4.371692e-05 0.0037701621 0.010163916 -0.0019164241 0.00286253 0.008296222 -0.00318742 -0.008622036 0.0020923263 0.004597042 -0.0072002653 -0.0016901235 0.0018842318 0.01200092 -0.011414228 -0.004907599 -0.0034646976 0.008795694 -0.005089047 -0.010550426 -0.0031202212 -0.011330442 -0.007211398 -0.0054394198 0.0013501537 -0.006489 -0.0053483793
tạm_biệt 0.009078193 -0.0010160472 -0.008453241 0.0035012204 -0.008207206 -0.0016097816 -0.00656595 -0.0071297702 0.0050092903 -0.006312569 -0.0024761308 0.00065084506 0.00083652785 0.0036575946 0.005738872 0.0022692624 0.0067774937 0.0063211867 0.0012893225 0.0012035958 0.00029911636 -0.0037189927 -0.009988387 -0.002952786 -0.0046920776 0.008050531 0.009670418 0.006987465 0.002701791 0.0068610446 -0.0037029078 0.008632005 0.00039218602 0.005245918 -0.009084959 -0.008714188 0.0016311324 0.0023751992 0.0022843995 0.009856679 -0.000488535 0.0073777973 -0.0015684417 -0.0022122895 0.0075639104 -0.0031232135 -0.0017991342 0.0076955003 -0.0067617698 0.008800686
nhìn 0.0011809937 0.008364062 -0.0027989314 -0.005839457 -0.009247347 0.0075730467 -0.006092804 0.0022091796 -0.0019426729 0.0093052825 -0.00509277 0.0057697953 0.006370252 -0.0002491333 -0.0078495005 -0.005193052 -0.008165549 -0.0031940844 0.0079218205 -0.0043983283 0.0035078425 0.0035799409 0.0014227718 -0.00044901148 -0.008325695 -0.0015069698 0.005727099 -0.004089596 -0.009982043 0.0017275761 0.000683877 -0.011416097 0.0043911915 0.0009354793 -0.006147019 0.0042002713 0.008543654 -0.011289869 8.254743e-05 -0.0066327658 -0.0036133453 -0.0013040659 -0.00516 0.0035756812 -0.010081752 -0.0016665823 0.0007315479 -0.0048317644 -0.010620725 0.008990524
kia 0.009429595 -0.004611868 -0.002436685 0.006400164 0.0004950891 -0.008378784 1.4989666e-05 0.007493919 0.0024560522 0.009316933 0.003176736 -0.0026514048 0.009027842 0.002589603 0.0038472107 0.0027555495 0.007489625 -0.006305098 0.0045490945 -0.0076766172 -0.0058269966 0.00065088365 0.0009924864 0.0071195364 0.006924862 0.0012045214 -0.0012644375 -0.0028480964 -0.008454015 -0.009915202 0.0072070532 0.003118618 0.003602062 -0.0067956736 0.0043554027 -0.0069817225 0.010262159 0.006085151 0.00076453644 -0.0049662404 -0.003059113 -0.0060184244 -0.00036098412 -0.0031813306 -0.010396651 0.008898789 0.007656988 -0.009857841 -0.011763697 0.00912849
bây_giờ -0.0034382085 -0.0007669457 -0.008605731 0.009284803 0.0002696702 -0.0051901774 0.008134965 -0.009394974 -0.008457075 0.00849436 0.0025253792 0.0066875606 -0.006623845 0.006229759 -0.010247849 0.009856718 0.0028321971 0.0099396445 0.009396867 0.007240036 -0.0017390691 0.0092633 0.006096706 -0.00048325417 -0.0006498254 0.008069798 -0.0050928583 -0.0056022187 -0.009545387 0.008399612 0.0047127893 0.0008425824 -0.004505798 -0.0019536081 0.0054027084 0.0031678656 -0.00011060445 0.0035923647 0.0041142926 0.007126938 0.0050503206 0.0045185075 -0.0064921477 0.001485614 -0.0089077735 -0.0063718255 -0.0012434913 0.0030740036 -0.0042291842 0.0032602318
mời 0.0072022877 -0.009540393 -0.0038173997 0.0055341655 0.001890839 0.006648556 -0.0008033901 -0.0023727862 -0.0010655472 0.009637028 0.0031136484 -0.007288447 -0.0088979 0.0045564985 -0.006889595 -0.00837375 0.006504078 0.0016031838 0.0006469693 0.0048771263 -0.0076276585 -0.00920151 -0.008735509 -0.006807959 0.008024734 0.0015597227 -0.0068252115 0.007909196 -0.0070635993 -0.0010495298 -0.004574025 0.008013147 -0.0015056484 -0.0013298225 0.0005306307 -0.0047627157 0.006956146 -0.005943772 -0.0026020948 0.008829552 -0.0052316003 -0.006956153 -0.004464434 0.006637303 -0.005400593 0.009883466 0.0066973343 -0.010125159 -0.008096756 0.010383145
nhỉ -0.0012900602 -0.007665951 -0.0068353643 -0.0076601827 0.000709836 -0.0031151602 0.00039561116 -0.0070115244 -0.000975198 0.00022523219 0.007362385 -0.0080619445 -0.010722208 -0.002563325 0.008294014 0.0032120892 0.0010396115 -0.0011652188 -0.006620578 -0.005055024 -0.009552646 0.0013818974 0.007038829 0.011078452 -0.0065442 0.008998841 0.003172712 0.0066171433 -0.00530957 0.006350622 0.009342375 -0.009806213 -0.0009896443 -0.0036793966 -0.0027548452 -0.008322939 0.0042327167 -0.0056664585 0.006775154 0.00019305933 -0.007143022 -0.00034318803 0.00012216787 -0.00047735553 -0.0049030688 -0.0025555713 0.0057704123 0.003317487 0.0034154241 -0.007000267
kìa 0.0049160616 0.008481082 -0.00021611506 -0.0064261784 -0.00011392807 -0.0005483191 0.00014623781 0.0050543672 -0.0051144864 -0.0027120241 0.0069448426 0.009819347 -0.0009869203 0.010996637 -0.0022568188 0.000507096 -0.007869509 0.007803654 0.008236612 0.003160992 0.0012736565 0.0070151016 0.0033119447 0.006320867 0.008409978 0.009602548 0.00884839 -0.0043299147 0.0015963184 -0.0068814196 0.006387444 0.007249528 -0.005835236 -0.002933601 0.009263796 -0.010103174 0.0053232037 -0.004465628 -0.00691252 -0.0034297907 0.0043999404 -0.0013671243 -0.0005765267 -0.0069329473 -0.0086834645 -0.0037772995 0.0030272389 -0.009176856 -0.010163728 -0.0023618096
đẹp -0.0047345846 -0.0034078176 0.0073719835 0.0055712312 -0.0067700287 0.00086852716 -0.002547297 0.0054142745 -0.0063326904 -0.008551405 -0.00031116963 -0.005985268 0.0063786823 0.005300546 -0.0024093688 0.003840626 -0.004674799 -0.0015019733 0.0015040366 0.007642062 0.00091132685 -0.004799511 -0.008327699 -0.002005697 -0.010003988 -0.0067720166 0.004420083 0.008644527 0.009945017 0.00078997563 0.0026907572 -0.0050574117 -0.008820057 -0.004866937 0.005691659 0.0021673904 0.0012703909 -0.009446781 0.006473592 0.0003164102 0.0041264775 -0.0021564043 0.0076238294 -0.006332584 0.00041561638 0.0038688066 -0.009162492 0.008952713 0.0017943458 -0.007785633
chơi 0.000997736 -0.005229706 -0.0057275128 0.0065833195 0.009559394 -0.0028815465 0.0007242632 -7.734137e-05 -0.0047143195 -0.0065107937 0.001331982 -0.0052523473 0.008182848 0.004376647 0.0017095022 -0.0042510284 -0.005272204 -0.004094981 -0.0077941036 -0.00083304965 -0.0033863538 -0.010231609 -0.0015946656 0.009946859 0.0067047006 0.002999517 0.0058899396 -0.006610469 0.00640513 0.0073745586 -0.006975384 -0.010336617 -0.0032014188 -0.007826223 -0.0038405329 -0.0038742602 -0.0003606152 -0.008614566 0.0011131325 -0.0019432852 -0.0058419337 -0.0053838496 0.0064053386 -0.00589991 -0.004215894 -0.00072117016 -0.0029779577 0.0065764985 -0.0037404762 0.000447942
rõ -0.007023396 -0.006178272 0.0014844589 0.006584304 -0.0073520574 -0.008017249 0.0016731063 -0.0029561892 -0.0033470525 0.005734386 0.0014165151 -0.0009848068 0.0066016456 0.005743974 0.005875345 0.010891309 0.0054905415 0.0069397227 0.0048077656 -0.0058633164 0.007183393 -0.0051869033 0.002610944 0.003988934 -0.008843319 0.008593074 0.0036894258 -0.00064019824 -5.1005867e-05 -0.00033288414 -0.0049476894 -0.0019575655 -0.008015417 0.0011310749 0.008977522 -0.007867548 -0.0012453052 -0.00033947054 -0.0045142584 0.0040670848 -0.0028796743 -0.0023693526 -0.008283291 0.0057215067 -0.0049352795 0.0023850407 0.002837861 0.0034430732 -0.011789499 0.0039799483
tìm 0.0067279683 0.0035534778 -0.0074140774 0.004705268 0.0023154817 0.002848888 -0.0036449626 -0.005483855 0.0064917016 -0.006963984 0.0060449736 -0.007144145 0.0015470199 -0.0039185206 0.008269085 -0.006271842 0.00013108968 0.0032429213 0.0071207816 -0.0060444474 -0.0008890934 -0.0018292089 0.008852442 -0.0033642757 -0.00093470194 -0.003621028 -0.0019265073 -0.0066551166 0.004116984 -0.008006186 -0.005646513 0.0015002368 0.00985378 0.0011604922 0.008143217 -0.0011491603 0.0026499187 0.007376452 -0.0052881944 -0.006352291 -0.00814632 -0.0068906588 -0.0027229155 0.004435838 0.0034935793 -0.0060213376 -0.00054662355 0.00052938645 -0.009932104 -0.00580778
nên 0.0011390379 0.0002743361 0.003820932 -0.0020790799 0.005792835 -0.0012357234 -0.0038969899 0.005349211 -0.003910052 -0.00293035 0.0007564288 -0.0096056815 -0.0022504884 0.008260418 0.008711187 0.001008122 0.00236572 -0.008472624 -0.0012203943 0.008834121 0.0018583182 -0.0043548727 -0.006436054 -0.003239448 0.0019936578 -0.008337713 0.013418308 0.0042764894 0.00083843747 -7.443196e-05 -0.0029253196 -0.00041833456 0.007856698 0.00081487326 0.0063412925 -0.008013489 0.0052034133 -0.0060093105 0.0049967123 0.009847025 -0.0030262806 0.006813319 0.0056169457 -0.0026976014 -0.0065774824 0.0006592091 -0.0024308881 -0.0036971266 -0.007920159 -0.00884871
thử 0.008727285 0.0031310439 -0.006978586 -0.0030044033 -0.006041048 -0.0027281565 -0.0011096336 0.008717239 -0.0019652948 0.004969665 0.0002960461 -0.001444878 0.0038880159 -0.004651951 0.0026899995 0.00051413587 0.00019369251 0.0012257894 0.0050335107 0.009360176 0.0022771358 -0.008803923 0.0043960097 0.0017721974 0.002505624 0.005426856 0.00022291276 0.008891195 -0.005214746 0.00899467 -0.0024915885 -0.009127546 -0.0077360272 0.0020270369 -0.003508827 -0.0033931069 -0.0063002477 -0.00042162393 -0.0063650487 -0.0026333018 -0.0008508724 -0.004869153 -0.0072854063 -0.0066796234 -0.0083624935 -0.0038789948 -0.0062018586 -0.008841191 -0.01029338 0.008629412
đánh -0.007441008 -0.003943729 -0.0031692795 0.009825368 0.0079955235 -0.0033412646 0.0034473997 -0.010122121 0.008801935 -0.003881258 -0.004676643 -0.0056695645 0.006378131 0.008527987 0.009219567 0.0075904923 0.010616929 0.0065915296 0.0020832387 0.0074573373 0.0028887035 -0.0050859693 0.009472152 -0.005970814 -0.010195755 0.007999756 0.007161464 0.0059035122 0.001724201 0.0037950466 0.0072695217 -0.00036042894 0.009199863 -0.0076438775 0.004578696 0.00060844736 -0.00032012735 -0.0027737988 0.005967099 0.0066956365 0.0031695801 -0.0075874934 0.00029934602 -0.0044552903 -0.0050986097 0.0005798597 -0.008328941 0.0019668345 -0.008290031 0.0064312103
