779 50
cậu 0.0049450714 -0.004581659 -0.0064345677 -0.004884611 0.0012905261 0.016194288 0.011349278 -0.0067907283 -0.0072795507 0.0049208873 0.006222507 -0.009629519 -0.01821505 -0.016642436 -0.016300758 0.026767256 -0.009055089 -0.01114083 0.008355436 -0.015410131 -0.0037721596 0.003539307 0.011320879 0.016709642 0.0023671102 0.026823279 -0.00987818 -0.014546576 -0.013585586 -0.019731453 0.006822865 -0.010377716 0.014049852 0.009686744 0.0071635176 0.008939337 -0.00842527 0.012574562 0.00631574 -0.012626806 0.0013553936 -0.006217063 -0.00039815897 -0.010750005 0.00050876336 -0.0009042382 -0.009185266 0.010741754 -0.007998752 -0.009007164
tôi -0.011307204 0.004231549 0.00028306255 -0.0043740543 -0.009291017 0.0075279525 0.0030488733 -0.0072769867 0.002150951 0.012433349 0.0049359454 -0.005676903 -0.0046133976 -0.0062582935 -0.014820109 0.011404816 -0.011699384 -0.016893096 -0.0060931914 -0.01132383 0.000915183 -0.007869197 0.018395402 0.0053491318 -0.00411908 0.024487631 -0.00036485711 -0.009167391 -0.01803872 0.001522358 0.0033076562 -0.0026527354 0.01682639 0.0084969485 0.0118978415 -0.005326749 0.0033759188 0.004093439 0.012124922 0.0025131071 -0.00034690372 -0.011551619 -0.006538985 0.0054700533 -0.007966973 -0.0071936995 -0.002683265 0.0035087436 0.005014503 -0.0017775255
không -0.0029204206 0.004312715 -0.0070218397 -0.017412085 0.009554659 -0.0008840024 0.0020103203 0.0074278214 0.0002913721 0.001667777 -0.008579246 -0.018953491 -0.00426016 -0.006163689 -0.01838066 0.020178242 -0.008129814 -0.013831368 0.0070575094 -0.01447615 -0.011746363 0.0027311344 0.013696902 0.01848648 0.0060204873 0.0155758355 -0.009314415 -0.0054244953 -0.019267311 -0.0048894705 -0.001243988 -0.0044932 0.0028624742 0.009967098 0.008095736 0.0059418413 0.0053981184 5.1455558e-05 0.0100314375 -0.0042955754 -0.00620887 0.0054244576 -0.006797272 -0.00015142014 0.006046233 -0.004520345 -0.0036769074 0.0004585889 0.0030417326 -0.00449503
gì 0.008797238 -0.0052846163 0.00066157983 -0.008421136 -0.008948503 0.01081427 -0.006164126 -0.0068410523 0.0046187933 0.012560521 0.0070990035 -0.009135418 -0.006978269 -0.010280454 -0.008077024 0.008187967 0.005620108 -0.011838259 -0.002627965 -0.012130266 -0.010318145 0.009021046 0.009952032 0.011937873 0.0074710315 0.012156825 0.0077371886 -0.008165763 0.0025209382 -0.012158019 -0.006163927 -0.0008386416 -0.002379373 -0.0028093304 0.003584814 0.008256615 -0.0068654097 0.0051313224 0.0030724495 0.004418773 -0.008575338 0.0025948626 -0.012267153 0.008981259 -0.007931748 -0.007061222 0.003060469 0.0055648154 0.006860662 -0.0008751664
có -0.0009272944 -0.0018791924 0.0077868938 -0.008867237 0.0031454652 0.0006827178 0.0064314404 -0.0025621115 0.0010201081 -0.0031485108 0.006075353 -0.013727549 -0.0055650533 0.002012261 -0.0042214235 0.010626364 -0.0051784576 -0.01497787 0.0037859955 0.0016199414 0.0003169365 -0.005087869 0.006078666 0.002779208 -0.009428896 0.006972255 0.0019684914 0.0005485285 -0.015435508 -0.010517435 0.0025579801 -0.01141254 0.006638575 -0.0017382345 0.0013185965 -0.0011903718 0.0018094343 0.0060367053 0.0030770705 7.536526e-05 0.0060708085 -0.010179642 -0.011753623 -0.0069170054 -0.0016059817 -0.008873516 -0.01152423 0.005200317 -0.004096437 0.0017521802
là 0.0062348186 0.003562805 -6.0093837e-05 -0.017671335 0.008640294 0.009772996 -0.0042965207 -0.00698057 -0.0012480948 0.011024081 -0.004219479 -0.011115478 -0.006001732 -0.010302602 -0.011736122 0.016981263 -0.009560404 -0.0031694626 -0.008214374 -0.0041710758 0.0035368495 0.0016656168 0.018648941 0.0039667087 -0.00685745 0.022012664 0.0052988655 -0.013130232 -0.0066688573 -0.01310385 0.0054818103 0.00038270417 -0.0024062898 0.00091606117 0.005291073 0.008629388 -0.00072465837 0.018267386 0.02112384 0.0014367464 0.004876757 -0.0114665 -0.007635789 -0.0013914707 0.0023084471 -0.0044561266 -0.0083423145 0.017925788 -0.009982651 0.0024303515
được -0.0022298675 -0.01142655 0.0042784223 -0.016893834 0.0006719096 0.0031486915 -0.0041701854 0.009377578 -0.0019988318 0.00014226537 0.005245686 -0.011600153 -0.0052821753 0.0027556622 -0.008546111 0.0191133 0.0032939112 -0.009206801 0.0038172766 0.0035199914 0.00086976663 0.0038261723 0.0045816684 0.0058526597 -0.0012937529 0.0008062839 0.005707887 -0.004766648 -0.013721693 -0.013589497 0.0051662875 -0.0026607069 0.010192807 -0.004816075 0.00052721455 -0.007917471 0.0007019912 0.015361361 -0.0008906449 0.0038980306 -0.0044274866 -0.0061508273 0.0066641415 -0.009138983 0.0003064346 0.006334522 0.0018883644 0.014007024 -0.0022360766 -0.0018224935
rồi -0.00062404206 -0.0055143926 -0.009680525 -0.016413702 0.0018820062 0.0031107678 0.002259669 0.006601051 0.004769535 0.008421189 -0.0077872826 -0.0064343987 -0.003754067 0.004084615 -0.009759323 0.013876205 0.0004792772 0.0056188502 -0.008644943 0.0011445117 -0.0010677294 0.0069691003 0.0014646717 0.0008119582 0.007850606 0.015972937 -0.0001330814 0.0039745932 -0.002069845 -0.013734748 0.0048675756 -0.0061188377 0.007440086 0.011507609 -0.003892382 0.0024534985 -0.007623812 3.4780925e-05 0.0089196265 0.0040940354 -0.0007909241 -0.011112516 -0.010050133 -0.0040751193 0.00884537 0.0025007427 0.0053161555 0.006851376 -0.00575528 0.007134664
thế -0.0022997253 0.003835343 -0.0053896704 -0.0007673139 -0.0037484635 0.0044336547 0.00049225346 0.0018088502 0.0006949912 0.0133641595 0.0077363304 -0.008363756 0.0013247627 0.003960083 -0.0004784703 0.018512648 -0.0023870866 0.00392893 -0.0023978776 0.006287372 0.0074403286 -0.008105649 0.010962317 0.001064851 -0.0025050559 0.011855216 -0.0004997931 0.0031302029 -0.01021807 -0.00326931 -0.00531014 -0.0051987856 -0.002175543 0.010369635 0.00028885293 -0.0005673085 0.0028027415 0.006789046 0.017569438 -0.007380603 -0.0034893653 -1.0893437e-05 -0.008770178 0.0012258999 -0.0049336953 -0.008958049 -0.0023283716 -0.0031362574 0.0041623814 -0.0037770025
tớ -0.0024954681 -0.0026357302 0.003933143 -0.007463138 -0.0044162474 0.011237242 0.0006877453 -0.009298621 -0.008942588 0.005843759 -0.005283978 -0.015463005 -0.011908851 -0.009353208 -0.010526901 0.022837715 0.003656248 -0.008072008 0.0032373113 -0.0093782395 -0.010719012 -0.0017926467 0.008881811 0.0039350125 -0.009055557 0.010179449 -0.0011084152 -0.0048730276 -0.010555537 -0.010874365 0.0018934464 0.0010527045 0.013443674 0.0029469477 -0.005012615 0.006618158 -0.00024194336 0.0009535819 0.01933717 -0.012798747 0.00938737 -0.005232643 -0.008537603 0.0028788801 0.0034344934 -0.002386813 -0.01145313 0.0069409735 -0.0049032564 0.0070897224
sao 0.004395413 -0.0053978832 -0.0029038205 -0.0015951503 0.0057016746 0.010177363 0.011676305 0.0084614325 -0.0050937836 0.0028402861 -0.008318406 -0.0017689969 0.002317932 0.0053795497 -0.005065932 0.011241487 0.0029101858 -0.005992146 -0.00034106773 0.001720585 -0.00089067774 -0.008443481 0.008272908 0.0029176811 0.0070382147 0.0144041935 -0.009043697 0.0035368379 -0.00256896 -0.0050517917 -0.0006494058 -0.008081231 0.00072223647 0.01130603 0.01010625 0.0035681997 -0.0043981187 0.008189336 0.0012796381 -0.0044110985 -0.0056381454 0.002976554 -0.01053765 -0.0073078577 0.0008056972 -0.006722714 0.002306913 0.008114017 0.00072911615 0.0097331125
đi 0.0050561433 -0.012064693 0.0058917003 -0.016456917 -0.0017186136 -0.003834197 0.005669866 -0.0033667327 -0.0122199515 0.008218988 0.0044110697 -0.012882305 -0.0053725992 0.00194998 -0.011831022 0.01248994 -0.0043544685 0.0012983669 0.004679581 -0.012526968 -0.0041891723 -0.0010427465 -0.00067568204 0.009019836 -0.0072304695 0.009526927 -0.0020113185 0.00037397977 -0.015895361 -0.0009858606 -0.0075942106 -0.006801893 0.0050746463 0.0074283406 0.009143618 -0.0032228434 -0.0021700747 0.01223815 0.009808149 -0.005951661 -0.0058330037 -0.0023974788 -0.009870136 -0.0004108226 -4.680442e-05 0.0029185286 0.0011340583 0.007258744 0.0060115247 -0.0066890013
phải -0.0074432385 -0.012808592 -0.005290882 -0.013345724 -0.0022136762 0.006316407 -0.007612474 0.00024373499 -0.011509999 0.0013375271 -0.005666962 -0.017384367 -0.014860979 -0.014470735 -0.0069556637 0.010996443 0.0028358242 -0.009250626 0.0070558274 0.0033230083 -0.008009423 0.0021715492 0.012102962 0.013172895 -0.007054025 0.015199598 -0.0014783703 0.004239935 -0.0037402872 -0.0070698676 0.003548374 0.0043375203 -0.004278217 0.0060430295 0.008691479 -0.0037659856 -0.0028168934 0.0068265125 0.010453572 0.007257629 -0.0028096528 -0.0012490725 -0.012981227 -0.00023363957 0.008015313 0.0053682486 -0.0036978452 0.0105544245 -0.004634694 -0.004189983
nào -0.010193538 0.0008341213 0.007996677 -0.010028686 -0.00010630006 0.009320373 -0.00018807643 0.0009814695 0.003671307 -0.00043342236 -0.009644508 -0.009295063 -0.0086444905 -0.010694107 -0.00063901785 -0.002596335 -0.009535034 -0.008955866 0.008565306 -0.008761411 0.008450556 -0.008638653 0.0041451873 0.014052295 -0.0051648137 0.0044672946 0.0034306105 -0.008353529 -0.015255372 -0.008899351 0.008695719 0.00089748733 -0.0017777766 -0.008121826 0.009963892 -0.002959131 0.005860223 0.005359841 0.008132357 -0.0029050775 0.0055403584 -0.009567852 -0.001273992 0.009461483 -0.0029678051 0.0027106574 -0.002588618 0.0021106184 0.0030986315 -1.2381822e-06
vậy 0.00020451467 -0.003561623 0.0036990007 -0.014193437 0.0036864285 0.0072215814 0.007192409 0.005473921 -0.0056121307 0.00012232416 0.001498761 0.005053704 0.001499596 -0.0021128592 -0.005022066 0.014794605 -0.002871239 -0.0043695113 0.0036119537 -0.0002968931 -0.003552146 0.007281679 0.010459588 0.0024873754 0.0012609812 0.009915131 0.0023709533 -0.011170675 -0.010899078 0.0045686457 -0.008076103 -0.009584257 0.010964436 -0.004620564 -0.00017431389 0.0013739368 -0.0062847203 0.005085651 0.0098590925 0.0053929356 0.0059659486 0.00163355 -0.0073486282 -0.008328901 -0.0010857221 -0.009473936 0.0055978107 -0.0038943586 0.0008893005 0.008367563
đây -0.009789803 0.0029776844 -0.006281628 0.0021326926 -0.008965366 0.0012612677 0.01066219 0.004068679 -0.0022475824 0.005602247 -0.0001356289 0.0016247829 -0.014478818 -0.008771314 -0.011416987 0.015845282 -0.0040528676 -0.010996582 0.0058446196 -0.005296812 0.007886542 0.008570492 -0.002829977 -0.004080802 0.0024570634 0.017115891 -0.0022366347 -0.013423782 -0.004631945 -0.012979398 -0.0018041357 -0.00075371214 -0.0031988337 -0.006775273 -0.002321843 -0.005710967 -0.0054661115 0.010396662 0.016376983 0.0040480318 0.008438635 -0.012223346 -0.00090501294 0.0059749074 -0.008467442 0.008830044 -0.0040949164 -0.0005420101 0.007829437 -0.0009971895
ở 0.008420082 -0.0006166981 0.0069294777 -0.006824907 0.0064146263 0.0032692584 0.010315588 0.0067125075 -0.012561543 0.0070064752 0.00450242 -0.007859206 0.0018026314 -0.0034130362 -0.011618563 0.015858583 -0.00024949742 0.0025120224 0.0065254085 -0.0013917609 -0.0054768077 0.009415551 0.010925443 0.01035509 -0.0025815482 0.007788889 0.0076304064 -0.007815344 -0.0005274823 -0.014684272 0.0063198274 -0.012557425 0.008480488 0.005660028 0.0017480382 -0.0070227226 -0.00087027054 0.013795042 0.0040715868 0.006969462 -0.006896776 -0.0011666026 -0.0039306358 -0.0086057875 -0.0033257215 0.0036734212 -0.008133952 0.014459761 0.008584576 0.006943138
biết -0.009609521 0.004696059 4.9135564e-05 -0.003934366 -0.0066489587 0.004814693 -0.005091165 0.003485519 0.007363872 0.008460467 -0.00043421274 -0.0043401546 0.003716813 -0.008534705 0.0013871235 0.017788284 -0.0007219303 -0.012106995 -0.009559962 -0.001010084 0.0052932887 0.009591236 0.0039942176 0.014697144 0.008752991 0.015899027 0.0052281097 -0.011626169 -0.014813431 -0.0063986746 0.007970146 -0.0021819717 -0.0015889595 0.0051167333 0.004754211 0.0031796019 0.0012027307 0.0046209265 0.01250567 0.005459029 -0.007797921 0.006423605 0.0054827547 -0.009745996 -0.006311748 -0.008263284 -0.0026941663 -0.0038580261 0.00425492 0.0011266604
làm -0.0037496875 -0.0036365667 -0.008404778 -0.009643872 0.0036499724 0.0033616957 -0.0059313537 0.00014602585 -0.007674794 0.006598832 -0.008891179 -0.00055661576 -0.01137668 -0.01149562 0.0022013965 0.015943833 -0.0005352173 -0.009067673 -0.008194033 0.006179491 -0.0059529417 -0.005410782 0.0018117374 0.009181297 -0.0023784353 0.008129757 0.006582774 -0.011632767 -0.00081801077 -0.008948267 0.0063321423 0.007718845 -0.00028501768 -0.00289709 0.0048778895 -0.0037454201 -0.0013090232 -0.0009592175 0.012199297 -0.009171914 0.008307925 -0.005358147 0.0045303684 0.008454085 -0.0060006008 -0.0036445968 0.0033476867 0.014293867 -0.009710584 -0.002474348
nói -0.0092388885 -0.0013810581 -0.0021904318 -0.0020509774 0.0059328177 0.0037921777 0.0024409213 0.008862758 -0.003083421 0.012523633 0.0053786454 -0.0018140462 -0.006751668 0.0039011845 -0.0029750997 0.00063709065 -0.0047680545 -0.013783722 0.009243997 -0.0042665587 0.0021785067 0.0032710775 0.009677794 0.009308621 0.0022454672 0.015596332 -0.0029259564 0.00069772353 0.004008881 -0.0023649957 0.0075500975 -0.011348491 0.005199737 -2.1969276e-05 0.007370911 0.0061910367 -0.004755451 0.013105671 0.009010073 -0.010835064 0.008551476 -0.009929302 -0.0074572396 0.0026066187 0.0005930411 0.009648594 0.00017751499 0.0022515794 0.003776428 0.006570568
muốn 0.0018271643 -0.010927483 0.00814921 -0.0011663076 0.0050427313 -0.0018132904 0.010521294 -0.0059299716 -0.008118627 0.008934094 0.0010159162 -0.00968195 -0.0049165566 -0.011576132 -0.00439383 0.01502369 -0.0009851146 0.0022497287 -0.0034375156 -0.011440291 -0.004024978 0.0035095718 0.014071513 0.011617733 0.004311785 0.009188296 -0.006082233 0.0062060477 -0.011740796 -0.0032793996 0.0061063454 0.007035861 -0.0036878274 0.008680061 0.007293076 -6.0651735e-05 0.008853248 -0.00070281426 0.0096493 -0.0015880011 0.008265844 -0.0072608413 -0.0042736516 0.0038878575 -0.0053902045 -0.0018366949 -0.0066961115 0.013534222 -0.002083963 0.0035973182
đó -0.0090285335 -0.005905429 -0.0036187724 -0.004108196 0.0046152375 0.006744512 -0.00463844 0.005006949 -0.0015960763 0.004644481 -0.004433026 -0.0025450564 -0.012484748 -0.012346033 -0.0043193824 0.008956175 0.006405778 0.0013785204 0.0061619543 0.0001791435 -0.010027923 -0.00700158 0.002434409 0.0065915096 0.004786811 0.015642043 0.0070925104 -0.003761552 0.002573512 0.0050187013 -0.0003790987 -0.010144431 0.012423942 -0.0015377124 -0.0007467844 -0.00880564 -0.00060126215 0.0004634346 0.016221866 -0.006180267 2.0930616e-05 -0.011404367 -0.0049115885 0.0035669417 0.0007173746 -0.00088115723 -0.0038226382 0.0030153927 -0.008297164 -0.006991321
cho -0.003051883 -0.003968534 -0.0064763213 -0.014114894 0.002168558 -0.0046673305 0.009636051 0.0039183293 0.006453138 0.015045701 -0.0073178876 -0.011246895 -0.0008302354 -0.0010635257 -0.006286213 0.0043847854 0.0015465611 -0.012456605 -0.0038271793 -0.005458424 -0.0026311944 0.0014565286 0.006383531 0.003048779 -0.0060155024 0.01746915 -0.008911849 2.4805213e-05 -0.016820148 -0.007365178 -8.4565756e-05 -0.0044831345 0.004284026 0.011046435 0.0068931486 0.0049861358 0.0018960799 0.007303847 0.008233186 -0.0112013295 -0.00040461696 -0.011689501 -0.012823606 -0.010773821 0.006446014 -0.002825433 0.006118037 0.010962333 0.008041957 0.0025782413
đã -0.007225929 -0.0028445183 -0.005462492 -0.0077220052 -0.0023678443 0.01120856 0.0013338345 -0.009479001 0.0050899405 0.008758077 0.0071240994 0.0021324812 0.005131858 0.0033957334 -0.013919782 0.012965769 -0.010705729 -0.0029745444 0.0077097863 -0.0016893641 0.0084764045 0.0015924805 0.0064909584 0.007435167 0.00304089 0.0072818575 0.008530788 0.0058806846 0.0007472845 -0.01353142 0.005003721 0.0064594867 0.009176985 -0.0019124802 -0.0021769516 -0.004006065 -0.004740627 0.0028266672 0.012888342 -0.008262318 -0.002112912 -0.0026955274 -0.01045376 -0.0032004397 0.0047186273 0.008476607 0.008617846 0.007874266 -0.005429083 0.009686678
của 0.008191211 -0.00085764966 -0.007949841 -0.010568015 0.007924488 0.0064704437 0.0023696367 -0.007434054 0.005519415 0.0049791723 0.004380507 -0.015832094 -0.01011581 0.0014523827 -0.014447508 0.020721102 0.0052638403 -0.011207446 -0.0016189836 -0.0027591232 0.003011321 -0.0007203304 0.015369378 0.0063674767 -0.008466789 0.024174176 0.005481402 -0.002893975 -0.0014714544 -0.0148135675 -0.000679249 -0.006929266 0.012095474 -0.0019579763 -0.0043229833 -0.0050229793 0.0021963574 0.014058609 0.011338749 0.0034550761 -0.002004512 -0.013147395 -0.00089165685 -0.0020627622 0.002017251 0.005629495 -0.0024425667 0.0065443483 0.006858595 0.0045436914
đâu -0.008742593 -0.005073277 0.0028082894 -0.0055648214 -0.007543257 -0.004899108 0.00728258 -0.00035529904 0.00046704468 -0.0008363479 -0.009038586 -0.011543109 0.0038969154 -0.014003736 0.004730624 0.014793157 0.00280809 0.0042653354 -0.0050939177 0.00582499 -0.0041515473 0.0059580854 -0.0042041503 0.012885599 0.005416936 0.0068998816 0.0030101384 0.001497933 -0.007578485 -0.011536004 0.0005568466 -0.009620712 0.010628931 -0.00168265 0.00062221085 0.0061146766 -0.0044021425 0.009856588 -0.0024892923 0.0047735367 -0.00884764 0.0039603002 -0.008881062 0.00011141403 0.0095000565 0.003277002 -0.0059407013 -0.005471617 -0.008557411 0.0062790182
thôi -0.0011766691 -0.006554483 -0.007914876 -0.0038684714 -0.0031156123 0.004737509 -0.00052875915 0.0063237324 -0.0038235674 0.006841271 -0.0023471145 0.0035408959 -0.000199564 -0.011839111 -0.0119288135 -0.004151341 -0.00672272 0.003614926 -0.008625257 -0.0020541411 -0.0053366614 0.0038742232 -0.005650509 0.0013840131 0.0031033044 0.013495462 0.0040270025 0.0048423205 -0.0040028137 0.0019967232 0.0065277587 0.005098672 0.008490866 0.0023983172 0.010186826 0.00020202003 -0.008393373 0.006970811 0.0056585157 0.008286869 0.0063862526 -0.0002705498 -0.0010330918 -0.003506187 0.0010878539 -0.00647656 0.00035024367 0.003648118 -0.00067337026 0.00398289
đấy -0.0049802004 -0.011736454 -0.005643933 0.0013511498 -0.0032342325 0.0048815864 0.00072048244 0.006019645 0.0052147764 0.004852626 0.004304305 -0.011215666 -0.013193851 -0.0030580934 0.0003317658 0.009432341 0.0056846556 -0.013116091 0.0058506234 0.0013748665 -0.0057204836 0.0026357789 0.010115815 -0.0011815102 3.9586474e-05 0.009983449 0.009052361 -0.011641509 -0.0019307925 -0.002712467 -0.007377771 0.005258266 -0.005657416 0.0007546099 0.000858485 0.0046854587 0.008586984 0.00084588456 0.015697626 -0.001076393 -0.008360162 -0.0077518118 0.0031732735 0.0010416617 0.009185685 -0.0055120965 0.0043334304 0.0062395777 0.005854961 0.01000105
một 0.0007008763 -0.0030902193 -0.005207435 -0.0090557495 -0.0042046765 0.013283715 0.010766872 -0.008162353 0.005148766 0.004329917 0.0012393559 -0.017037217 -0.010391973 -0.009689193 -0.010391697 0.0064063636 -0.0073914016 -0.0119301975 -0.006419318 0.004528705 -0.0026105165 0.006991914 0.0044635506 0.013500305 -0.0046933326 0.011950798 -0.0007402754 0.0035417003 -0.0045937328 -0.006349144 0.0065024123 -0.007322469 0.0054769013 -0.0037622284 0.0034014417 0.005489891 -0.008411455 0.0063850656 0.00043314358 0.0027169029 0.002702555 -0.009210918 -0.006589286 0.0055937367 -0.005111713 -0.0017483028 -0.005235574 0.012063023 -0.0055657863 -0.0027002075
à 0.0027066134 -0.009698321 -0.010462905 -0.0055722217 0.006471408 0.0118121235 0.006707789 -0.009717304 0.0084917275 0.0022193226 0.0007885371 -0.0051033674 -0.0058854143 -0.011638594 -0.008770388 0.0062889475 0.0076431762 -0.01122673 0.006237397 -0.007519643 0.008224877 -0.003917441 0.010545942 0.0077912714 0.0023697366 0.009423378 -8.407778e-05 -0.003177294 -0.0006871158 -0.006455083 0.009386048 -0.006963646 0.0071975114 0.0024906062 0.010962944 0.009684108 -0.006321942 -0.0022850998 0.004332874 0.0069865915 0.009224563 -0.004354537 -0.0012795575 -0.007918671 0.0033090175 0.0020330907 -0.008180465 -0.004951526 -0.0019440567 0.0057838126
sẽ -0.0059790467 0.0033778083 -0.0057877223 0.0010780444 0.009790701 -0.005098931 0.010310951 0.009011771 -0.0012384475 0.010727441 -0.0052666324 -0.00418352 -0.01142788 -0.0114571955 -0.011458876 0.0010949838 -0.0027447338 -0.008545916 -0.008707641 0.0015048176 -0.0030413195 -0.0068470626 0.0013146107 0.007686669 0.007240197 0.009354962 -0.004334622 0.003265736 -0.0055188225 -0.0034970113 -0.0016671959 -0.0010006729 0.008204419 0.00529039 0.004116247 0.010748031 -0.006048617 -0.0038811658 0.0060189925 0.0028946262 -0.0077072806 -0.010097814 0.006643341 0.007649403 -0.002991121 0.0024676586 0.0008333865 0.0016332128 -0.009723516 -0.007917003
nó 0.0056640673 -0.0028008057 -0.003710682 -0.01634079 -0.008392217 -0.00023489058 0.0076069725 0.0055880495 0.0051220967 0.0019634808 -0.010743053 -0.009626603 -0.0097011225 -0.0151216155 -0.014838455 0.013497689 0.008429532 -0.01457901 -0.005285798 -0.001157287 0.001824765 -0.008937323 0.006605862 0.006720248 -0.0059169973 0.0024263994 -0.01008777 -0.0057521937 -0.0123927025 -0.0035922641 -0.002347413 -0.00244724 0.003056814 0.011833167 -8.729579e-05 0.00045345954 -0.0057968665 9.838633e-05 0.015033876 -0.008016679 0.0034728267 0.0042043026 -0.0002585058 0.0077758688 -0.0075709824 0.010173836 0.003442955 0.0017580406 0.0077599827 -2.8378603e-05
thì -0.009173798 -0.0031838717 0.00031087204 -0.012961876 -0.008518543 0.008665638 0.0070433808 0.0058527547 -0.009184971 0.0094927205 -0.0028005575 -0.014990504 0.00174497 -0.0063225124 -0.009228922 0.0010089162 -0.011445001 -0.0033177333 0.0012497652 -0.006342001 -0.007968022 -0.0019281134 0.004031144 0.0069354028 0.0036255978 0.015827766 -0.0061069014 -0.006397787 -0.0067818896 -0.00311745 0.0030850358 0.006023355 0.0075497255 0.0116895 0.00066128594 0.007918344 -0.008635416 0.007511625 0.0033893576 -0.011243205 0.009121879 -0.009140669 -0.007795768 0.0052941563 0.0044382657 -2.7940018e-06 0.002147845 0.015255365 -0.0060904776 -0.007656847
chuyện 0.003581245 -0.0033436061 -0.0019154984 -0.014155507 -0.007065511 -0.00010324012 0.0030462912 -8.294503e-06 0.0072145774 -0.005016565 -0.009849783 -0.013218094 -0.012008007 0.0019076064 -0.00926159 0.0033030305 -0.010316794 -0.0021727986 -0.0059970636 -0.0035013077 0.004429476 0.009983565 0.0023202598 0.0105883535 0.0035106672 0.0044686585 -0.00055316027 -0.00056098687 -0.004310606 -0.008134431 -0.0019402155 -0.00702818 0.0037515278 0.005106533 0.0015160587 0.0041273013 -0.00059662806 0.003240028 0.0042494494 -0.011040695 0.00033086154 0.006476073 -0.0106981015 -0.008936675 -0.0055717346 -0.0013483033 0.005580294 0.011678787 0.0010215181 -0.0005628864
anh 0.0071212715 0.0068387175 0.00080753176 -0.0132313175 -0.007304336 0.0029185228 -0.0044179284 0.0032863189 -0.0015304728 0.010727143 -0.008678124 -0.00074306113 0.0014225357 -0.0098634 7.778774e-05 0.011258703 0.00074065087 -0.0050353757 -0.0065948023 -0.005483169 -0.010402311 -0.0032263305 0.013874327 0.010223802 -0.0056852573 0.011695644 -0.0025400827 -0.009500718 -0.010375643 -0.0020384148 -0.0017488757 -0.0018909111 0.009890289 0.00015562479 0.010838229 -0.0043115495 0.0025242153 0.003619627 0.007897168 -0.0034759217 0.007910607 -0.007097094 0.0053992625 0.006098773 0.0036501586 -0.009776054 0.004580804 -0.0024201456 -0.0060191597 0.009944691
còn 0.00065951515 -0.011272971 0.0052200267 -0.0040561026 0.003454576 0.002757347 -0.008121169 -0.004644863 0.0010048659 0.009936664 -0.0015682305 -0.006802803 0.0051461835 -0.013289348 -0.0011399572 0.008607733 0.005941095 -0.0019430268 0.0033240744 -0.010853963 0.0084675085 -0.0035423029 0.012029975 0.012338839 -0.007055251 0.015696818 0.00571399 0.0022166516 -0.003844995 0.0008792061 0.009802694 -0.0016664275 0.013253016 0.009652577 -0.00058951654 -0.0013310446 -0.0030799774 -0.0008418665 0.0014783128 -0.00033431425 -0.003168958 -0.001644812 0.00019850045 0.009168431 0.008392751 0.010059587 0.0024216825 0.015298723 -0.0016821886 0.0017243198
này 0.0017822576 0.00035870925 0.00432985 -0.014933944 -0.0030673703 0.008818912 0.0048400383 0.00036815426 -0.00084279326 0.0074988054 0.008912492 -0.011542914 -0.0073093204 -0.010392535 0.00038034326 0.018024301 -0.0037471121 -0.006107584 -0.008349016 -0.010599806 0.008378462 -0.008924203 0.0034603341 0.0030751505 -0.0041060117 0.013793844 0.0024924234 -0.006093173 -0.012246776 -0.009104456 0.0006365118 0.0034469152 -0.0054668556 -0.0040319627 0.007504762 -0.0059631257 0.005705411 -0.00075510587 0.014505547 -0.0037623472 0.0069055683 -0.0068279933 -0.004236712 -0.0040467414 -0.0020301405 0.0012477455 0.0054353797 0.008946043 -0.0043098945 -0.00800259
cái -0.008136589 -0.009847488 -0.009219412 -0.011671698 0.0019214404 0.004896562 0.010706216 -0.008569665 -0.005318809 0.012213263 0.0051893396 -0.013157524 0.0062158196 -0.00852424 0.002168761 0.016977482 -0.00040444284 -0.004514337 -0.0065800035 -0.0101958085 0.005749706 0.0076700207 -0.0038971268 -0.003958722 0.00399553 0.001353892 -0.0049777743 -0.012459929 -0.0096948035 -0.006963638 -0.007139296 -0.0008614153 0.013250232 -0.002498497 -0.0061687552 0.00492585 -0.003051732 0.010980428 0.012769843 0.00407503 0.0009674634 0.008101613 -0.004483917 -0.0054757553 0.0071198423 -0.0061156163 -0.0094818715 0.0048865103 -0.0063492847 0.0056538302
người 0.0009820758 -0.008694801 -0.0058270786 -0.0080428375 0.00605286 0.012932772 -0.0018534504 -0.008130079 0.0006578243 -0.0006410339 0.0036205316 -0.0044313804 -0.0036468906 0.0008567216 -0.012151532 0.0068859803 0.007056028 0.0037646943 0.0011831359 -0.009650774 0.006394881 0.00036359573 0.00547993 0.002101536 -0.0024300485 0.00919314 0.001757278 -0.008921306 -0.002955436 -0.010194516 -0.0072935107 -0.01175672 -0.0025680175 -0.0069583086 -0.0011372681 -0.007438425 -0.003996175 -0.0007327361 0.008218334 -0.000683623 0.008455099 0.0061321785 -0.005418638 -0.01022978 -0.007505933 2.5659736e-05 -0.0069688833 -0.00069479813 0.0013768311 0.0012167104
thấy 0.0027648592 0.004280959 0.0029924787 -0.0054218695 -0.006486989 0.011479605 0.011307839 0.008571886 -0.010270234 -0.003118163 -0.01023454 -0.010149969 0.0038355917 0.0064448593 0.002201621 -0.0013438757 0.0043411897 -0.0071998322 0.0068951603 -0.010835503 -0.0044199387 -0.0075530396 0.009636589 0.0059526376 0.0038570983 0.009015279 0.007913931 -0.007883073 -0.005079211 -0.00051483174 0.0107051 0.0009325118 0.010417448 0.00075645396 0.010826332 -0.0006604813 0.0003077394 -0.007168159 0.0036767751 -0.0067440444 0.0098653035 0.0008144757 0.007663293 -0.0066063805 -0.0062256893 -0.008919348 0.0023429587 0.009814773 0.0031947382 0.00933325
ừ 0.008223127 -0.0058110007 -0.00881075 -0.009732324 0.006065309 0.011072652 0.011196745 0.004434449 0.0033865657 -0.0019665377 0.0003609843 -0.010245114 0.0063554803 -0.0026967567 -0.009280223 0.013448898 0.001122979 -0.010709979 -0.0010641154 0.0028770135 -0.0015343928 0.009154043 0.012788871 -0.0051755863 0.0011513613 0.012990277 -0.008323525 0.007036419 -0.0061619706 -0.008488256 0.002110825 0.008728191 0.0064334963 0.007967806 -0.008218899 0.0012504999 -0.0014516783 0.012569049 0.0022699763 -0.003025634 0.0012175128 0.001416234 -0.0015118606 0.0068384334 0.006754383 0.0015620282 -0.009837971 0.0009743247 0.004631488 0.0032636244
rất -0.0062893787 -0.005043459 -0.0019128567 -0.010214998 -0.0038776258 -0.0055202595 0.00064500934 -0.0064058383 -0.006304052 0.007986119 -0.002575759 -0.011656389 -0.0033623264 0.0025613206 -0.0049856915 0.0040152757 -0.008077086 -0.014665142 -0.008995886 0.0038701652 -3.7935748e-05 0.0040735095 0.015605527 0.0020101953 -0.0016955031 0.0023620485 4.0033483e-05 -0.0067542484 -0.013673639 0.0005972938 0.011187832 -0.0017619793 0.0031171385 -0.006046265 -0.0036429586 -0.0020106535 -0.00385249 0.011388955 0.0026560423 0.0072140233 0.00925991 -0.008286956 -0.0023567607 0.00867135 0.008749592 0.0059459396 0.0036374105 0.0031300064 0.0075248955 -0.0006718199
ai 0.0007257108 0.00055396406 0.001555829 0.005037891 -0.0022767286 -0.007147531 0.0061509483 0.008431295 0.0071941502 0.008788154 -0.006586437 0.003285474 0.0005420309 -0.008362863 -0.010004496 -0.0036482727 -0.0039871247 -0.010297819 -0.008281252 -0.0033136255 -0.0034090374 0.008803148 0.0037515173 0.008754307 -0.006439749 0.013112825 -0.0028379105 0.0020666183 -0.0011198269 -0.0024175483 -0.0064511388 -0.009908359 -0.005292432 -0.0074627427 0.004319704 -0.0046621193 -0.009809832 -0.0060419054 -0.0005831729 -0.004945408 -0.0033921327 0.007690434 -0.0015328008 0.005267998 0.0024256632 -0.0005324189 -0.0019184266 0.010699281 -0.009705012 -0.004726888
lại 0.0018446784 -6.162722e-05 -0.010025138 -0.006553873 0.0023586578 0.0038277432 -0.0068010762 -0.008893167 0.0037105072 0.000120543125 0.0007936419 -0.012543792 -0.014277252 -0.0065672775 -0.010670746 0.0034561458 -0.0004558185 -0.0034989368 -0.0056218742 -0.001961831 -0.0052601392 -0.0012040307 0.011603883 5.943918e-05 0.0076572644 0.015214835 0.0025658263 0.0050185174 -0.00850564 -0.011230206 0.007399049 -0.010112862 0.0001150476 0.0043391143 -0.001863108 0.008888618 0.0040449854 0.011726813 0.010508604 0.0069372184 0.002036998 0.007719388 -0.0046654474 0.004630093 0.010159247 0.00936305 -0.00041451107 0.012215607 0.0038122302 0.00020457387
cũng 0.003275303 0.003701572 -0.00109357 -0.0075494605 -0.008426076 0.005678691 0.0015861378 -0.0065798317 -0.0012405806 -0.00023859479 -0.0004506628 -0.008987113 0.0028526827 -0.011661637 0.00023332995 0.011090586 0.001315974 -0.0032625971 0.008626103 -0.00037644783 0.005232852 0.009523059 0.0015014239 0.014587981 -0.0026753093 0.0078133065 0.0011626546 -0.005641037 -0.014680906 -0.0028413597 0.009182339 0.0015224761 0.014253598 0.0110432375 0.0007321014 -0.0003141767 0.0029625339 -0.0009839205 0.0005367618 -0.00815537 0.00086167053 -0.008967379 -0.009378033 -0.006466947 -0.009409581 0.0067249243 -0.010734454 0.00386978 0.00041892592 -0.0039258716
chúng_ta 0.0019262211 -0.009610635 0.002436483 -0.012448144 -0.0026745363 0.0048063505 0.0011848689 0.00048174983 0.0045653144 0.011480491 -0.0037965009 -0.0024412225 -0.0006612198 -0.0064083803 -0.009576533 0.009101184 0.007347572 -0.013662657 -0.008200176 -0.0020801532 -0.0097186165 -0.00094773597 0.007796717 0.0070468513 0.0042197057 0.004790857 0.0020937582 -0.004793515 -0.013453441 -0.0057498217 -0.0014621213 -0.0054390957 -0.00080210244 -0.006697284 0.011900407 -0.008297106 0.006690476 0.013377529 0.011692595 -0.007993192 -0.008820471 0.0050337617 -0.0057764645 -0.009819102 0.0074860975 -0.0026345723 -0.0028721008 -0.0007089787 0.0077870497 -0.0011503919
có_thể -0.00030900183 -0.012255521 0.004814736 -0.015826687 0.001163256 0.010965065 0.010151379 -0.0016929633 0.0046155867 -0.0040354817 -0.0047399173 -0.0014715381 -0.014583582 -0.0018420395 -0.014771813 0.009328619 0.00036213576 0.0008005208 -0.0049440186 -0.0029319855 -0.0110851005 -0.0020132668 0.0049017346 -0.0009915776 0.0015209368 0.004223152 0.008240697 0.0049002646 -0.0040728073 -0.014130449 -0.0026385474 -0.0052780593 -0.00396436 0.0071802703 0.0065105343 0.0024475525 0.002940626 0.0044533177 0.0017632756 0.003615276 -0.00878386 -0.007159244 -0.008823367 0.0076345964 0.004634642 0.0009799006 0.0043017725 0.011201632 -0.009970497 -0.0066876276
ăn 0.0010113725 8.247211e-05 0.0065757646 0.004519832 -0.008015419 -0.0047333743 0.010920769 -3.6971065e-05 -0.008865967 0.011993867 0.0034663507 -0.011801002 -0.0071327286 -0.012346679 0.0017217745 0.006791352 -0.006146392 2.8882067e-05 0.0013214025 -0.004992633 -0.0028196308 0.001646195 0.010985751 0.0062085413 0.0041933088 0.0077801337 -0.0064086793 -0.0010951575 -0.009092613 -0.008027344 -0.008535378 -0.0020714183 0.0071619074 0.0075141476 0.0065540657 -3.1827418e-05 -0.004836345 0.0030995766 0.0053869053 -0.010430244 0.0029174923 -0.011344016 -0.0020107955 0.007561097 -0.008810931 -0.005303733 -0.0070110545 0.008035072 0.005630309 0.0011913992
chưa -0.0053951032 0.002698135 -0.009823387 -0.0044078147 0.0041677095 0.0102174105 0.001384599 -0.004874508 -0.0072246757 0.0001859224 -0.0021839533 -0.005838044 -0.0038973524 -0.012267979 0.004415239 0.011046966 0.0032581517 -0.0022876167 -0.009379801 0.0049236394 -0.0064788996 0.008685636 0.0010375861 -0.0028645769 0.009604833 0.0052653947 -0.0048285224 -0.0048615607 -0.008303739 -0.002935817 -0.005778545 -0.010749657 0.011049609 0.008136999 -0.006932187 -3.6959944e-05 -0.0022931134 0.006072358 -0.0037450285 0.0073224967 -0.0077382834 0.0016078145 -0.0007332976 -0.010240098 0.006105697 -0.0025343685 0.0030647079 0.013964081 -0.0031640704 0.006028553
thật 0.0072546965 0.003986547 0.0062541086 -0.008124299 4.4852564e-05 0.00010801651 -0.006811835 -0.0057865637 0.0033615595 0.0006861457 0.00044764898 0.0018592589 -0.008512884 -0.0103162015 -0.0064325677 0.008163114 -0.0020759914 -0.006585804 -0.004627132 -0.002845233 0.003256889 6.572082e-05 -0.006316187 0.0088293115 0.0038559635 -0.003835216 0.0037362096 -0.003579012 -0.0015888306 -0.0048685065 -0.002704892 -0.0027448523 -0.00701957 0.005022284 -0.0069962796 0.0011271371 0.004489833 0.010769349 0.009213588 0.005982751 -0.0080511775 -0.008702919 -0.005314654 0.008091039 0.004013873 -0.009339869 0.0035650092 -0.006433359 -0.0022373511 -0.0064025023
chứ -0.0042298185 -0.005915144 0.0014760356 0.0057014776 0.0068339827 0.009241991 0.005202867 0.0008497593 0.005023233 -0.004191752 -0.0007860112 0.0022319544 0.0028859416 0.007031821 -0.0038201266 0.0029207172 -0.00088319683 -0.009825052 0.008034196 -0.009460844 -0.007014659 -0.007899987 -0.00016293005 0.00975051 0.0091845235 -0.00018070955 -0.0008119719 -0.0006383963 0.0068719164 -0.0057534385 0.009355892 -0.009502554 -0.0018971118 -0.008394277 -0.0028762482 -0.001347516 0.0033480863 -0.007476082 0.011320811 -0.0049323887 0.006993047 0.0057229395 -0.00063553517 -0.00087581214 0.009621622 0.0068326057 -0.00517505 0.011507475 -0.010037723 0.002487342
vâng -0.0017468386 -0.006879068 0.009275222 0.002898309 -0.0030446204 0.001009276 0.0039233738 0.0037868447 -0.0041757077 -0.008206615 8.109382e-05 -0.0034011544 0.004351896 -0.006076995 -0.0015311234 0.0060321386 0.0025791617 0.0005356028 0.0033859166 0.005129232 0.003964185 0.007365748 0.00447348 0.0066240984 -0.0022279096 0.0011300554 -0.0065142578 -0.010105872 -0.00070022716 -0.0056292308 -0.004220364 -0.004448702 -0.0058943396 -0.003964288 -0.006844587 0.009391875 0.0086372895 0.011804647 0.010184936 0.0028723073 0.0091530625 0.0024188259 0.008815202 -0.006987357 0.003906987 -0.0042847237 0.003551396 0.0033392333 -0.00012829035 -0.006719285
cô 0.0072593805 -0.010461907 -0.006057753 -0.014802768 0.0029865326 0.004066114 -0.0046617915 0.002318784 -0.0042692632 0.007883779 -0.008605589 -0.009743619 -0.014469793 -0.009704513 -0.0077748303 0.011148202 -0.0050850883 -0.003952606 -0.002028692 0.001868222 0.0002723586 0.008899417 0.009824614 0.0007675737 -0.0036705805 0.016369108 -0.006536829 -0.004340089 -0.0056556137 0.0017754174 0.001794936 0.0018032423 -0.005463848 0.006354771 -0.0061181327 -0.0012966703 -0.005910298 0.0018831438 0.011543347 -0.0028719527 0.009371142 -0.011068819 -0.0019870487 -0.010077785 0.0029410296 -0.0017284979 0.0032527244 0.011266449 0.009594719 -0.0071382583
mà 0.0042586797 0.004084355 -0.0066020708 0.0020238408 -0.0027085727 0.010184817 0.005928009 0.008797241 -0.009432325 0.0029207172 -0.010155037 -0.007196384 -0.009299355 -0.008998309 0.00062035257 0.0031459632 -0.011470484 -0.009921157 -0.008796987 0.007375721 -0.00733309 0.006108991 -0.0022462083 0.012362896 -0.009286426 0.012226983 -0.004621198 -0.0003226507 -0.010778311 -0.003522853 0.002491543 0.0053597125 0.010884519 0.006385456 0.0035433115 0.006146981 -0.005512415 -0.0044124485 0.011505591 0.006269205 -0.0021659941 0.0023871674 0.0050295717 0.00032791606 -0.000123379 -0.0060372315 0.0029525512 0.006936869 0.0093123745 0.004544225
chào -0.00052190677 -0.0023945277 0.0064841956 -0.0045053246 -0.0009400564 -0.00752521 -0.002550874 0.002858329 -0.008682404 -0.005640798 0.009604963 -0.00038416596 -0.004881067 -0.0059276177 0.007288754 0.011989815 0.0015557519 -0.010165333 0.00055873394 -0.00014669304 -0.010644652 0.002323448 0.012284325 -0.0051439186 -0.0026900426 0.009516695 0.004294866 -0.0030696988 -0.0087293815 -0.010895159 -0.008324734 0.008457839 -0.006882057 0.0061189146 -0.0005484691 -0.0008518237 -0.006273212 0.00047097143 0.005543377 -0.01025835 -0.0040849308 -0.0001636841 0.00088880927 0.00092456606 0.008681464 0.010211779 -0.005676986 -0.0063812924 0.009339671 0.006462939
đúng 0.004202576 0.00013619926 -0.00898606 -0.00087979477 -0.008087594 0.009928804 0.0030884729 -0.0047005606 0.0015818843 0.0041235723 0.007569456 -0.013443217 0.0009272301 0.0057191267 -0.00272602 0.009516873 -0.0031394148 0.004505025 0.0065712 0.0033633213 -0.0054887724 0.0073172003 -0.0036682205 -0.00097413687 0.0021225684 0.0088052675 -0.0064919456 -0.00814192 0.0020483842 0.0038321984 0.004787588 -0.008140525 0.005621211 -0.0017249802 0.005201124 0.0024150976 -0.0067433114 0.0070675057 0.004146351 0.0064914003 -0.008362197 -0.008235688 0.0033000587 -0.0032348065 0.00048767694 0.00087778416 -0.0017521029 -0.0059898817 -0.0036763996 0.0054657403
với -0.001945932 0.0070784767 0.0051404107 0.0046556434 -0.0045964695 -0.00037963237 0.0032634516 -0.0035985892 -0.0033297548 -0.0044667474 -0.0060900147 -0.00988068 -0.004012821 0.003538032 0.00048365607 0.009427515 0.0027480496 -0.001425154 0.009524729 -0.011721996 0.0057545183 0.002828307 0.007483585 0.0058138897 -0.008562922 0.016217247 -0.0020843642 -0.009903846 -0.011940962 0.0048884153 0.002798352 -0.011329073 0.0049833795 -0.0033896526 0.00010360804 0.010379628 -0.006468502 0.002349607 0.012531199 -0.0040059905 -0.007284475 0.00048790546 -0.0079365885 -0.0032716624 0.007992941 -0.0018675204 -0.009483038 -0.003939625 -0.0076239053 0.0069477465
chúng 0.008452058 0.0074434443 0.004152907 0.0026021176 -0.0021521389 -0.0027007365 0.009356622 -0.0027493718 -0.0022605767 -0.0024212003 0.0031802612 0.0026832768 -0.0023396418 0.0040681823 0.0032557652 0.013765101 0.005508305 -0.009444625 0.0062325825 0.0008084821 0.005839052 0.004082886 0.0024495556 -0.0014436002 0.007415542 0.0069092875 -0.008765292 0.001710191 0.0028337971 -0.006738352 -0.00873565 -0.00082762784 0.002276989 -0.0013203089 -0.0034587167 -0.0028010295 -0.0049427147 0.003599135 -0.0027908774 0.0069172913 -0.0027493825 -0.0014670807 0.0051167575 0.0046574017 0.003575945 -0.0023178803 -0.0021692992 0.009947442 0.009381864 0.003627134
đang 0.00016643989 -0.0069924956 -0.009907229 -0.011074381 0.007056893 -0.004180622 0.008802636 -0.00041996996 -0.010888021 0.0053376053 0.0011372375 -0.010291454 -0.012717393 -0.013109633 -0.0022512279 0.0018122972 -0.010580412 -0.012962725 0.00041185963 -0.000538013 -0.010665175 -0.0040809265 0.015656605 0.014542474 0.002684892 0.0076067224 0.002453785 0.0045030373 -0.015164191 -0.0024832168 0.010552418 -0.001407067 0.009722357 0.010948044 -0.00012004876 -0.0072092977 -0.0030304769 0.003962877 -0.0017807594 0.002072804 -0.009508149 0.0074956915 0.00041127953 -0.009603096 -0.00800853 -0.009423415 0.0021562083 0.005912346 0.006692865 0.008359672
xin 0.0037144346 -0.0027056804 0.00408677 0.0013588527 0.009896911 -0.008934797 0.006149645 -0.00023324246 -3.5295e-05 -0.0036990019 -0.009026461 -0.0019776558 -0.0073078 0.0041160733 -0.012050104 0.013373425 0.0009979175 -0.008140719 -0.0062658763 0.0014166103 -0.008688376 -0.007003935 -0.0023623616 -0.004540985 -0.0068935067 0.009561892 -0.0013849237 -0.007897095 0.0025327937 0.005191215 0.009707662 0.0044489643 0.001517761 -0.0032957303 0.010095886 -0.004019118 -0.007931669 -0.0026181925 0.0067272154 -0.0039463406 0.0016286761 0.0032686559 0.008639215 -0.0045636864 -0.0031209427 0.0017488358 -0.0021875547 0.008009226 -0.0049221525 0.003432335
ra -0.004828762 -0.0057850373 -0.010721265 -0.009075989 -0.0076875943 0.0030481173 8.38217e-05 -0.00499251 -0.010926756 -0.0022925069 -0.009437455 -0.008963317 -0.004750292 -0.001871696 -0.0036599934 0.01797482 0.0059749503 -0.0065793954 0.007004413 -0.0026933437 0.006292045 0.0018649808 0.007874217 -0.00055830815 -0.0037558116 0.011930694 0.0010666883 -0.011898803 -0.005715587 -0.010364486 0.001982746 -0.0070471177 -0.00082164886 0.00626964 -0.004048976 -0.0053661265 0.008128773 0.011528426 0.01024594 -0.003663649 0.009838967 -0.001317015 0.0020168698 0.006633109 -0.00076167955 -0.0062393285 0.0028253424 0.0053725033 -0.0031466037 0.007066587
nghe 0.0007157594 -0.0058899703 -0.005737221 -0.006536672 0.002540411 8.232448e-05 -0.0056339223 0.008858819 0.0028072041 0.006403765 0.00930466 -0.011322821 0.00084037066 -0.0015246937 0.0008591309 0.012591457 0.007994827 -0.0017897066 -0.0096279215 -0.007582557 -0.0066377996 0.01018903 0.003634981 0.0068532564 -0.008893012 0.012338539 0.004774232 -0.010502558 -0.008644198 0.006004805 -0.0037395915 -0.0040080165 0.008920923 -0.005430513 0.008866622 0.0053698183 -0.0014850727 0.01239144 0.00728046 -0.0035206343 0.00019317027 -0.0002861304 0.0029851692 -0.0031828186 -0.0023371081 0.0070005083 -0.010362111 0.011031771 0.0075210095 -0.008906149
khi 0.0061216988 -0.012392454 0.0060769087 -0.010536277 -0.0045899707 0.004141762 0.012108429 0.0014754849 -0.012217804 0.0022301122 0.0030274712 3.168414e-05 0.0019408235 -0.012739011 -0.015333885 0.0126364995 -0.0060388707 -0.013465682 0.0053662322 0.00027536313 -0.0026170134 -0.00045700555 -0.0016196854 0.011466998 0.0011799276 0.0078063374 0.0048615327 -0.002674764 -0.009004443 -0.009005897 0.00019503655 -0.009872013 0.0042694253 -0.0071700825 0.00068160135 -0.0009440664 0.0006918551 -0.0033382166 0.0055887434 -0.0051647206 -0.00042606264 -0.008460599 -0.0006672353 0.0031880538 -0.008465873 0.0033435447 -0.009852643 0.0020363797 -0.008464707 -0.00965489
ấy 0.0051530562 0.0038892776 -0.009318077 -0.0013278954 -0.00660262 0.008974836 -0.007166624 0.0015169545 -0.003334275 0.010884696 -0.010889777 -0.0029384608 -0.0047269976 -0.012015547 0.0008145149 0.0076876734 -0.007896152 -0.008148206 -0.004291249 0.00024250787 -0.0060758004 0.00060200196 -0.0038290243 0.011544361 -0.008021647 0.009726373 -0.008983366 0.0070581986 -0.007528967 0.004488033 0.00069549854 0.0056334925 -0.0056284047 -1.2404531e-05 0.006219905 0.0057002106 0.0044152066 0.013688671 0.012146168 -0.0061477437 -0.005395457 0.004407735 0.0033028685 -0.0046813493 -0.0045349007 0.0038309912 -0.0066368054 0.0044432967 0.0035959077 0.008681291
và 0.000635292 -0.007952365 -0.0028656935 -0.00016363985 -0.008362388 -0.0048187533 0.0112848515 -0.0010273849 -0.011654406 0.010994084 -0.009005082 -0.008271683 -0.008644999 -0.0049236948 -0.016675502 0.020601213 -0.0014268366 -0.0031304702 0.002062899 0.0046048616 -0.0055043944 -0.0042398195 0.014938835 0.011214268 0.005476659 0.0029826525 -0.00895218 0.0041281567 -0.01680876 0.002705543 -0.00069312437 0.00031323245 0.014360011 0.0020955962 0.0054368214 0.007342097 -0.0067792004 -9.381408e-05 0.010076518 0.0031674148 -0.003698227 -0.0034913009 -0.012852239 -0.0045187646 -0.0047694733 -0.0020901 -0.008775835 -0.002211819 -0.008268419 0.00043392307
để -2.354126e-05 -0.010798824 0.003784039 -0.016146004 0.009024714 0.0049678884 0.0055807536 -0.007849844 0.0070191077 -0.0020884138 -0.0031053743 -0.010787359 0.004376251 -0.0014398198 -0.014845476 0.0182719 -0.010708379 0.0053356267 0.0058710673 0.0056051733 -0.0028224033 0.002920695 0.00038091964 0.0040003164 0.0025063886 0.01329929 -0.005952062 -0.010574944 -0.006612144 -0.008042657 0.010438513 0.0015236338 -0.00025879324 0.010386337 0.0010488931 0.0057927547 -0.0054932525 0.0012426034 -0.00039891075 0.0025328062 -0.0060387217 -0.01117838 0.0029718732 0.004439549 -0.0047232364 -0.009710561 0.0026363987 0.003184317 -0.0031292778 -0.008868235
gặp 0.0042351526 0.0010395532 0.006354024 0.0034429305 -0.0048584742 -0.0007192543 0.010614528 -0.0028292907 0.003407916 0.0030077402 -0.0074143107 -0.012706541 -0.0060464065 -0.0009322981 0.003432966 -0.0006862574 0.0025953748 -0.0118065225 0.0022526626 -0.00594547 -0.0026770225 0.0017836536 0.0038534417 0.010478634 0.0059792236 0.0007360664 -0.00023477759 -0.00891747 -0.011664957 0.0027400085 -0.007277387 0.003940141 0.003097338 -0.007682434 0.0004552577 -0.00032365843 0.0038895647 -0.0062072407 0.009183982 -0.001693057 -0.0021691641 0.002792626 -0.0040660277 0.002369722 -0.0075014043 -0.007101942 0.0030263106 0.011295715 -0.008305606 0.0050458796
nhé -0.0029332535 -0.011248492 0.0009868117 -0.012096505 -0.00918848 0.001269318 0.00046639136 -0.0043942803 -0.011381805 -0.004556951 -0.001819747 -0.005802363 -0.0068519167 -0.009751558 -0.012370901 0.014797389 0.0037037788 0.0044437726 -0.00336864 -0.0033458476 -0.005635747 0.009661591 -0.0060080756 -0.0010603961 -0.0046271523 0.011556723 -0.0047328216 0.003267072 0.0055600856 -0.005063371 0.009472205 -0.0016755147 -0.0030985759 0.008215105 0.0035253607 0.009096229 0.0021787784 0.0013184476 -3.4793535e-05 -0.009476755 -0.00944159 0.006961365 -0.0075189387 0.0021481388 0.0070113186 -0.0023131436 -0.0007720539 0.00182359 0.0017588675 0.006213537
ta 0.0023402495 -0.009386328 -0.01048969 -0.016326677 0.007742677 -0.005874266 0.0081082 0.00788144 0.0055103907 0.009292551 -0.003251435 0.0032905953 0.0022223387 -0.012085155 -0.007332355 0.004127838 -0.00044594557 -0.006288109 -0.003233072 -0.00630959 -0.01028804 -0.006866915 -0.0013628874 0.0126627395 -0.0009888045 0.0148162795 -0.006314487 0.0063908533 -0.008248351 0.0039411676 0.00362876 0.006543942 0.007873065 0.007927494 0.01043339 -6.352573e-05 -0.003098963 0.009230071 0.0009844354 -0.010935169 -0.0077860863 0.005907144 0.006978086 -0.0039114524 0.0075262426 -0.00085667503 -0.009375229 0.014108416 0.008239002 -0.0054903743
như 0.0017937043 -0.00658609 -0.00035995292 -0.0040099355 -0.0024347908 0.0026664864 0.0034016934 0.004057701 -0.0047252374 0.006222942 0.0068826573 0.0008045729 -0.010769681 -0.004731478 0.0006877992 0.00584319 -0.0077843266 0.00010902662 0.00043709978 -0.0019885064 0.00027465323 0.0075279577 0.004533181 0.015971867 -0.0079946695 0.019291058 0.0016798808 0.0035881742 -0.010460448 0.0031698667 0.0051386943 -0.0019811527 0.0007767512 0.010174458 0.008234269 0.0034559343 0.0045986115 0.0055350317 0.001115888 -0.0109872725 0.0005583339 -4.687465e-05 -0.0044299415 -0.0096803075 0.001919994 -0.0026497706 0.003942348 0.0018938675 0.0012414017 -0.009132966
cả -0.010128778 0.00042163016 0.0020346078 -0.012947742 -6.78227e-05 0.006008684 0.0019723484 0.007262073 -0.005055805 0.009671168 -0.0010314361 0.0022927115 0.0007771365 -0.0042538974 -0.012869311 0.010892396 0.0069838893 -0.0073106377 -0.008659669 0.0025506222 -0.0037463482 -0.009190621 0.0094684595 -0.0057806554 0.0029083884 0.007401368 -0.0052284696 -0.0043963185 -0.008769621 -0.012461278 0.004072127 0.0005164626 -0.0077494644 0.0047365627 -0.008873835 -0.0006247083 -0.006767973 0.012150698 0.010637098 0.008359136 -0.0016473811 0.002508815 0.002460935 0.0074758823 0.0059525184 0.008857423 -0.0083599845 0.010097258 0.0078713 -0.001048095
bị -0.010949225 -0.00097187964 -0.0007714199 -0.009258169 -0.008313904 0.012305626 0.010735266 0.010247911 0.0060147964 0.012563342 -0.0100528505 0.00308631 -0.0016739513 -0.015025251 -0.011315437 0.015165946 0.00067227945 0.0030456379 0.0061053312 0.0010039646 0.007976247 -0.002594534 0.014038604 0.011606482 -0.0045403237 0.008443168 -0.004207264 0.0009749226 -0.013587548 0.0014518787 -0.0061038546 0.006148912 0.01175192 -0.0067468495 0.0049653184 0.0064220396 0.0026658934 0.004052832 0.0096496865 -0.006573123 0.0025774366 -0.0070213964 -0.010237835 -0.0046628905 0.0056726835 0.0027615689 -0.005978955 0.011881809 -0.0033117726 -0.008835259
lên -0.0012856008 -0.004793079 0.005557558 -0.004246006 -0.004375908 0.009166127 -0.0058800234 0.0008047343 -0.010151743 4.0670664e-05 0.003957269 -0.0037588535 -0.00630234 -0.005585199 -0.012884325 -0.0024108433 -0.008996778 -0.0072176694 2.7537279e-05 -0.0035780629 -0.010414797 0.010386373 0.013497288 0.0091517735 -0.0012748557 0.006215292 -0.0095802 0.00039049456 -0.0019291305 -0.0052693235 0.0006805859 -0.004354568 0.0028135227 -0.003973301 -0.0085604 0.0070562377 0.0052286377 0.00925318 0.011644109 -0.0079156505 -0.0027835167 -0.0011782403 -0.006094237 -0.0062742927 -0.008420019 0.0025754815 -0.0092284875 -0.0034974113 0.0035959487 0.00876173
lắm -0.0001443994 -0.0081888875 -0.0015552856 -0.008895246 0.006503363 -5.68447e-05 -0.0002322844 0.008106067 -0.011155442 0.011422393 -0.0024281766 -0.011372199 -0.009220373 -0.0036802394 0.0028535812 0.0127251595 0.000185232 -0.009085011 0.0033039756 -0.0027816736 -0.006373223 0.0058516967 0.009134193 -0.00042107186 -0.0010862555 -0.002689615 0.007833073 -0.0010639742 0.0017728484 0.00024433614 0.0022180865 0.0016935825 0.013175615 -0.00028690038 0.0049380776 0.0008124665 0.00035700423 0.0027236794 0.014332504 0.005496549 0.006959694 -0.0017298 0.005827111 0.009588006 -0.0045521096 0.002549315 -0.00557489 -0.0057861265 -0.010261569 -0.009279643
thích 0.0032270197 -0.0017623188 0.004205058 0.0057704654 -0.006761806 0.010706095 0.008840158 0.008508137 -0.0022477496 -0.005005271 -0.002573883 0.0022356613 -0.008965632 -0.011184609 0.0055336305 -0.0047123907 0.0018745272 -0.00415844 -0.0044457163 -0.0019414378 -0.009405639 0.0003749787 0.011908691 0.0076593067 0.009636636 -0.0048066173 0.0065388223 -0.0031516224 0.0030159592 -0.011881684 -0.005407799 -0.010587749 0.009871452 0.006381547 -0.007731773 -0.0014020378 0.0075810626 0.009701623 0.0062056775 -0.0029262027 -0.009652601 -0.006539786 0.005324475 0.004128351 0.0068585654 0.0074465093 -0.0018887697 -0.0036510613 0.0071834554 0.006086662
các -0.0074254097 -0.013022329 0.002550898 -0.016959604 0.009589713 0.011439848 -0.0047211014 -0.0030516328 0.0033846444 -0.0024628055 0.0052409964 -0.00999404 -0.0035201584 -0.0051729092 -0.008118491 0.002304387 0.002100542 -0.010778636 -0.0011702083 -0.00217698 0.003697887 0.0037775093 -0.0013569327 -0.0037980853 -0.0019302336 0.004330599 -0.001202905 0.00491071 0.0027417738 -0.013052066 -0.008716273 -0.000968693 0.013364822 -0.002653393 0.0030047777 -0.0018612731 0.008296015 0.010273948 0.010594546 -0.0075668236 0.0044245427 -0.005966141 0.0063381097 0.0059385994 -0.009317698 0.00799174 -0.008425162 0.013703628 -0.0025135046 0.00020813427
mình 0.0052423603 -0.011119995 -0.0030354601 -0.002998067 0.008933369 -0.0021652745 -0.002309851 0.007271079 -0.0048790053 0.005190022 -0.0043078177 -0.013767176 0.0054375804 -0.009279926 -0.0053459103 -0.0020903011 -0.007689573 -0.01010173 -0.0070838584 0.0070265327 0.0009240011 0.0046817614 0.007899135 0.003133023 0.0057189586 0.0023948431 0.0068246336 -0.0069690724 -0.0025692007 -0.0034697754 -0.0055824644 0.0010407224 -0.005652907 0.0026289108 -0.0009919844 0.008212706 0.0056868265 -0.0016879563 -8.5976426e-05 -0.0029882744 -0.0079862485 -0.011064955 -0.011533438 -0.005910302 0.0055989414 0.0018499166 0.008143149 -0.0029826642 0.009448036 0.00094352773
chỉ -0.010136264 0.007879025 -0.0026761747 -0.0072838124 0.00010357555 -0.0071503124 0.0053242715 0.00058013404 -0.0016251052 0.00704573 -0.0030531252 -0.010893734 -0.011202715 0.00071824924 -0.0072617363 0.011570872 0.002646506 0.003709261 0.0021903457 0.0064253323 -0.004003664 0.0020268145 0.0024512864 -0.0065131844 -0.00905867 0.013137032 -0.005657294 -0.001483438 -0.009409238 -0.0069695953 0.0039898604 -0.0017649893 0.007696923 -0.0036680095 0.00093806593 -0.009282296 0.0093264105 -0.00018096913 0.00602561 -0.005539344 0.0041406667 0.0036361478 -0.0023685186 -0.009582835 0.0026245757 0.004410987 -0.007411776 0.0045176754 0.0011813221 -0.00498427
chúng_tôi -0.0062381327 -0.011140946 -0.00464546 -0.0005666234 -0.0018866754 0.006092565 -0.008204608 -0.0060747885 -0.010020127 0.0032378088 -0.0038770002 -0.010247953 -0.007303361 -0.008931529 0.006292048 0.0002851653 0.0025333993 0.0022128427 0.009607631 0.002312032 0.008789178 -0.005277606 -0.005782975 0.010587257 -0.006224028 0.009391237 0.009728348 0.0009861119 -0.006847082 -0.003199341 -0.0028554397 -0.0031859172 -0.002661431 -0.0050153635 -0.0059416196 -0.0020430468 0.007776414 0.012067536 -0.005824544 -0.0014620981 -0.0005059345 -0.0004500483 -0.0006635008 0.0031462782 -0.004520223 0.0035275014 0.008767198 -0.0036893082 -0.0060907626 -0.008478009
thế_nào -0.006883393 -0.003540994 0.0029099311 -0.010531966 0.0043192166 0.007367411 -0.007991489 -0.0049602645 0.007267859 0.006528265 0.004773624 -0.008551139 -0.0014280836 -0.00054528925 -0.0028380994 0.011010058 -0.0047275824 -0.0013860706 0.0022625667 0.0021466285 -0.0011966442 0.00084895024 0.0067700054 0.003183555 -0.0003236315 0.009378912 0.009017712 -0.0031484698 -0.008799151 -0.009745304 0.0009423005 0.0026837245 -0.008124442 0.0018242631 -0.00054163876 0.001306433 -0.008610684 0.009001757 0.011546055 -0.009877457 -0.0010074917 0.0006678846 0.00012194886 -0.009231053 0.010105547 0.0031962763 -0.0035856697 0.011839948 0.008968381 0.003686334
hay 0.0016285707 0.006775042 0.0018456702 -0.011296775 0.0043694563 -0.0021374056 0.001396326 -0.0012946624 -0.0110681355 0.0024824706 1.9231804e-05 -0.005312963 0.0066894204 -0.0072747 0.0009643235 0.00880758 -0.0058394694 0.005434135 -0.008888231 -0.008846507 -0.0029291578 -0.0077887266 -0.00544665 -0.006118242 -0.006887976 0.0067816107 -0.0033820807 -0.010511843 -0.013568867 -0.010387693 -0.0031782638 0.0034801231 -0.000952489 0.004372561 -0.0012868757 -0.005373838 -0.008475403 -0.0028198613 0.00593545 -0.008804178 -0.0018840162 -0.01029592 -0.006898971 -0.003533818 -0.008965998 -0.0038733922 0.005814294 -0.005484777 0.0015572231 -0.0051163486
nghĩ -0.0043746196 -0.0026320468 -0.008052176 -0.013753797 -0.004970791 0.00935489 0.003913276 0.008761907 -0.011197977 0.0052290945 -0.002380965 -0.0005522084 0.0031151953 -0.006585983 -0.011210516 0.0041048517 0.00018868066 -0.006398101 0.0060436497 0.003168971 -0.0012762978 0.002642386 0.0061267368 0.0047763963 0.003647343 0.014708903 -0.0019949125 -0.008395053 0.0029011613 -0.005183401 0.0066961334 0.00024702455 0.0054163435 -0.0015119268 -0.001984308 0.00063154666 -0.00903188 -0.0020857991 0.0013982328 -0.007330349 0.0003744946 0.0016836743 -0.0069765756 0.0028543896 0.007507431 -0.0010311727 -0.004250968 0.010469117 0.008327562 0.008843794
vào 0.005822113 0.0035816727 -0.005917374 -0.009687722 -0.005049167 0.006044602 0.011166941 0.0009766195 -0.00026671623 0.0057505737 -0.010677751 -0.013136745 0.0040172464 -0.003436322 0.0038427438 0.016414016 -0.004025478 -0.00011271928 -0.0049714805 -0.0062790923 -0.004578405 -0.0014936245 0.014495562 0.008912959 -0.004864808 0.0026905525 0.009503929 0.0021600358 -0.009690937 0.004363421 0.007818139 -0.001912633 0.0123787485 0.001182609 -0.005172287 -0.004856907 0.003884731 0.0038974592 0.0009750799 -0.009262077 0.0010752223 -0.0018163659 0.0012060486 -0.0043899235 -0.009561846 0.0033621602 -0.0076486026 0.009994139 0.0008458105 -0.0045862617
quá 0.00095832185 -0.003386259 0.006053739 -0.0070689004 0.0068997927 0.007269012 -0.000904572 0.00995873 -0.004116903 0.010246265 0.0023914226 -0.01276939 -0.009406774 -0.008559763 -0.005034678 0.013893084 -0.0068786 0.0069685164 -0.0065167933 -0.0059556286 -0.0047513577 0.008592946 0.0003718414 0.0006032562 -0.008585228 0.001275245 -0.0061586616 -0.007524388 -0.0035872126 0.003888538 0.010797805 0.003680277 -0.0034962886 0.011363969 0.011101385 -0.0026169876 0.0054571587 0.010931165 -0.0023028445 -0.007848758 0.009529207 0.0008075016 0.0025301257 -0.0019214023 -0.008649168 -0.0018503501 0.0006796179 0.0020787169 -0.004742523 0.0026067705
hãy -0.010221682 -0.0071166996 -0.010197314 -0.010701536 0.0022719349 0.0052077807 -0.0011473094 0.006675615 -0.010508155 -0.005406035 0.0041669947 0.007297043 -0.0047063255 0.0067540286 -0.004851287 0.003280183 -0.010163598 0.0074285967 0.008986673 0.007343365 -0.0064060353 -0.0035298187 -0.0011221686 0.011930952 0.0021631247 -0.002009824 0.005701389 -0.011170361 0.0011205112 -0.008223226 0.004096347 -0.004825011 0.008176798 -0.0035180093 -0.003800191 0.004022925 -0.0041750968 0.010706742 0.004591403 0.0037068934 -0.0029074582 -0.0016540949 -0.001414834 0.0068337545 -4.7124166e-05 0.0016003088 -0.008260501 0.0009197891 0.0043657664 -0.0045688297
chỗ 0.0034525811 -0.0052143335 -0.00082806544 0.0011296297 0.008722491 0.005237794 0.007053893 0.0005201996 -0.0030625272 -0.0020751448 0.009496837 0.0062681716 -0.006558331 0.0015541429 0.0025904232 -0.0024668663 -0.0006992588 0.0032015287 -0.0032538213 -0.00015379323 -0.0018414233 -0.0095987655 0.0037294023 -0.0028581999 -0.009211403 -0.0030578019 0.0077477423 0.0011753056 -0.003378659 -0.0033371218 0.0018726329 0.008357357 -0.0038074888 0.0046435064 0.009237583 -0.008475389 0.0074931127 0.0055246316 -0.0050723148 -0.009144078 -0.009142576 -0.00012612205 -0.010091876 0.0031198366 0.00038802112 0.0039432477 -0.009197305 -0.00040316215 0.0056772316 0.009113575
cảm_ơn 0.004851334 -0.0036397513 -0.0055987844 -0.0055447207 -0.007540117 0.00915438 0.0008668303 -0.005152025 0.006476408 -0.0076003666 -0.0044359076 -0.010333004 -0.0073745945 -0.0110168345 0.0048792195 1.6860466e-05 0.00074394676 0.004060737 -0.008333497 -0.0006774826 -0.000853957 -0.009541576 -0.006726725 0.003763542 -0.000553043 0.007893732 -0.00996362 -0.005653026 -0.004722938 0.0037007206 0.007281157 -7.005793e-05 -0.0005578148 0.010435407 0.0006744575 0.0066406536 -0.0030719333 0.008629588 0.0106576765 -0.006288841 0.008522363 0.00210488 0.0065527353 -0.00083343463 -0.0006535695 -0.0016623193 -0.005863253 -0.007886061 0.0038960648 -0.0054026507
nhưng 0.0020488116 -0.0019587246 -0.008919312 -0.0032128377 -0.009264366 0.0028896758 0.010024153 -0.0072866254 -0.010125574 -0.0034332129 -0.008799736 0.00182947 0.007583965 0.0035902443 8.1783095e-05 0.010614387 0.003236371 -0.00027923094 -0.0053597023 -0.010087407 0.0039182226 -0.0079192305 0.0041841087 -0.0060296673 -0.0038462905 -0.0064659533 -0.0008667982 -0.0015568435 0.00046893762 -0.0035520876 0.0053140055 -0.010337983 0.0049491683 -0.005734628 -0.0009109247 -0.007917716 -0.001996957 0.001247321 -0.0017408704 -0.0045592585 0.0050825854 0.006975136 -0.001286395 -0.0052083614 0.0072918315 0.005996187 0.0027701845 0.008556804 -0.00421914 -0.009584199
hai -0.009626474 0.0030776074 0.0012159324 -0.004284067 -0.005798992 -0.007512407 0.0016772685 0.0006618532 0.0016325412 -0.0036919075 -0.007996996 -0.000309975 0.0022210262 0.0008535371 0.0006654723 0.0076368093 -0.006330569 -0.0050586374 -0.010175914 0.0062085507 0.00901747 0.007795197 0.011494342 -0.0055387965 0.008213414 0.01597083 0.0022670503 -0.0036466145 -0.009435241 -0.012419218 0.0023437755 -0.009754659 0.0028411616 0.0066254255 0.001337085 -0.0055535245 -0.0074790684 0.012927067 0.008862459 0.0003647777 -0.00042835937 -0.0017679919 -0.0060827173 -0.00875324 -0.0071281064 -0.00398122 0.00569355 -0.0062622726 -0.003072613 0.0032823966
ông -0.008308413 -0.0028695334 0.0033926452 -0.005055945 -0.008235541 -0.002101583 0.011144457 0.003950885 0.006129147 0.008522548 0.005218054 -0.004154551 -0.0013361057 -0.0014692697 -0.012330909 0.0019224042 -0.0038886303 -0.005013123 0.0027063303 -0.009899626 -0.0106283855 -0.0039476864 -0.00018596488 0.008364066 0.0055072457 0.011610689 -0.0066763107 -0.008695109 0.0002557026 -0.012893898 -0.008596475 0.007868539 -0.00615203 -0.00010945719 -0.00029780332 0.011073465 -0.00557365 0.008952225 0.007386818 -0.00865163 -0.0040856665 0.004779223 -0.009845922 -0.002781932 0.008067186 -0.0021187004 -0.004595846 0.013311568 -0.0002499212 0.005971971
mua 0.0052311486 -0.012322453 -0.0062625688 0.0022232302 0.0066742534 0.005051496 0.0076619526 0.0072685783 -0.006286062 0.003976995 -0.0061965156 -0.013218787 -0.012575313 -0.005822135 -0.004367736 0.010062127 0.0058270674 0.0038269195 -0.0098900935 0.0007287125 0.009027973 -0.0055412403 0.0061062174 -0.0025535396 0.0016217999 0.0067752367 -0.0076143327 0.0044434834 0.0035468207 -0.0116637675 0.009924925 0.002285673 0.007971201 0.008232267 0.005750415 -0.0018153603 0.0067936843 0.003719931 0.012474373 -0.011236548 0.007015963 -0.0021917704 -0.007104555 0.005770434 -0.00029739947 -0.0021082405 0.0026021565 0.009285206 0.004594539 -0.0031462875
bạn -0.0032010642 -0.011048541 0.0038299998 -0.004300855 -0.004743676 0.0060482193 0.0053169793 -0.0006588061 0.007671509 0.0009804048 -0.0014345258 0.007587428 -0.0061364872 -0.011359846 -0.0025022035 0.012731283 -0.004066151 0.0042438903 0.0005085907 -0.008503808 -0.0035330134 -0.0041302196 0.010033821 0.008277861 -0.004891173 0.001957836 -0.0062408447 -0.00916469 -0.0115871 0.008231886 0.010356067 0.002138683 -0.0009815282 0.0006599372 -0.006749751 0.00082960894 -0.0053461203 -0.0036395965 0.009114838 -0.009318561 -0.004354613 0.0054233423 0.0085343635 0.0019267696 -0.001330374 0.00647317 -0.008980492 0.0066045644 -0.0022383418 0.0029168758
ổn -0.007685682 -0.006130765 -0.0046926793 -0.0023450938 -5.3617056e-05 0.0017158376 0.007411345 0.009320965 0.0037538696 0.01041722 0.0028351706 0.0005235534 -0.009690731 -0.010667967 -0.006217051 0.0062264083 -0.0008435718 -0.001037499 0.00048313139 0.0021703318 0.00898399 0.0024951615 0.0070501766 0.0060006985 0.009380722 -0.003861694 0.0044390513 -0.008699806 -0.008663012 0.002115552 -0.0058969585 -0.00993909 -0.004448303 0.01028504 0.00068018975 -0.006874766 0.009464347 0.0030205713 0.0043185106 0.002119528 0.0034911335 -0.0050708596 0.007629208 0.0016480071 0.0057520242 -0.0041534314 0.008857682 0.0065026134 0.003362221 0.005169886
điều -0.006689644 -0.009850981 0.0056291646 0.0013640592 0.0077652903 -0.007970948 -0.0028503083 0.0018410038 -0.0037805077 0.010849582 0.007305751 -0.012519036 0.0012673406 0.005666928 -0.0015230147 0.013048359 -0.004900594 -0.0026447794 -0.001994724 0.0040730103 -0.009388818 0.009382645 0.00045089054 -0.0037190956 0.0038123466 -0.00066722836 0.004942012 -0.008949461 -0.0017638396 -0.0034123007 -0.0018790878 -0.009134398 -0.007623237 -0.0040067197 0.0092434725 -0.0007533021 0.0072115404 0.009211639 0.012615232 0.0074759386 0.008265601 0.00082169176 -0.011306785 0.006331756 0.0053198864 -0.0051357946 0.0010571864 0.010999089 -0.0064166263 -0.0010875236
đến -0.00654213 0.0010425278 -0.0009626309 -0.0055761463 0.0045441436 0.010179857 -0.0073976843 -0.005203538 -0.010784287 0.00017968661 -0.0060279383 -0.005959913 -0.009923152 -0.007244573 -0.0044281995 -0.0038000694 -0.006484241 -0.00032093315 -0.0068210065 -0.008195775 -0.00662691 -0.008791963 -0.0054881484 -0.0039294176 -0.0029754404 0.008877106 0.0066304407 -0.009667534 -0.008442441 -0.0014153209 -0.0010666376 -0.00964262 0.003579901 -0.006317706 -0.0048963767 -0.008118078 -0.009231973 0.002559079 -0.003714747 0.0019504455 0.0032014472 0.0015923283 0.0058641653 -0.004181332 -0.0048217513 0.0072137485 0.000837078 -0.0031067776 0.0065865763 -0.0031459602
lấy -0.0020560955 0.00025988836 0.0055739055 -0.0041072466 0.0063458476 0.0015789976 -0.0072581563 -0.0013376263 0.002014136 0.0033033935 0.0055073085 0.0013677898 -0.000122026395 -0.00075102824 -0.012081996 0.006037371 -0.0066592554 -0.00022473026 -0.0032837803 0.008521948 -0.0031132095 0.0055444576 0.008526609 0.0010876621 -0.003515508 0.00036066212 -0.006307421 0.0055875336 0.0018392772 -0.0077210627 -0.004876223 -0.010961849 0.00805707 0.0056263045 -0.008197022 0.010415957 -0.00051512127 -0.0010398952 0.0016641046 -0.00788133 -0.0031807267 -0.0040802234 -0.009402392 -0.00706849 -0.0015651486 0.0038015728 -0.0030152027 0.0074729966 -0.008348663 0.00048139997
nếu -0.00784724 -0.009119939 -0.00085286616 0.002855854 0.008154418 0.008968258 -0.0043327133 0.00651221 -0.0046930774 0.0070756427 -0.004461378 -0.009984123 0.007819926 -0.0048743477 -0.0065713297 0.010879502 -0.010001621 -0.0089714015 -0.0070813354 -0.005322465 -0.0082714 0.003362198 -0.0013778388 0.010207247 0.0040804 0.0066615194 0.0005172828 -0.008028121 0.004322837 -0.00044800597 -0.009541646 0.007881472 -0.0026915723 -0.0037940873 0.008729859 0.008453384 -2.948359e-06 0.0040876344 0.009661241 -0.00054619374 -0.0069610924 -0.006483939 -0.0068848645 0.0078990795 -0.0074245874 -0.00968033 -0.0042981114 -0.0069574537 -0.009430347 0.0051030084
cần -0.0011051078 -0.0064920373 -0.010084403 0.00013461553 -0.0024066733 -0.0045079254 0.00078425364 -0.0031670316 -0.008850003 -0.00091506785 -0.0092728585 -0.01264728 -0.012002811 0.0028181502 0.005573814 -0.0009793339 0.00034107585 -0.0067575853 0.009661236 -0.0035185127 0.0012951771 -0.0029821144 0.003622859 0.012497654 0.007870708 -0.0006594379 -0.0021464787 -0.0088022845 -0.008792331 -0.009416792 -0.007228557 -0.0025950638 0.007315639 0.0010488215 0.0006354931 0.0047276793 -0.0010584883 -0.0006202951 0.006604004 0.0013685647 0.009781095 -0.0060182908 -0.0043071304 0.0056107044 -0.0062688338 0.004349159 -0.0009377018 -0.0014952479 0.00015685915 -0.004637872
vui -0.009445654 -0.005380359 -0.0025924868 0.0050364793 -0.0035372071 -0.007756073 -0.0042832014 0.007340901 -0.0004373057 -0.0001688397 -0.009906783 -0.00248731 -0.0020730013 -0.006781199 -0.013179509 0.009615474 -0.00039898502 -0.0026217028 0.0035436745 -0.00057810463 0.0019355401 -0.0015809194 0.009501191 0.005236422 0.0054723364 -0.0029661756 0.005722266 0.0043695252 -0.0060270107 -0.00040874325 0.0005447423 -0.0041202675 0.012032826 -0.0082893325 -0.006774651 0.00763533 -0.007024047 1.4121849e-05 0.013584973 -0.0030318277 -0.0004893994 -0.00063977897 0.00310132 0.0026847464 0.0048384154 -0.0101788 -0.0042477227 0.006657345 0.00920429 -0.009002581
làm_sao -0.0103277955 0.0008640827 0.009089234 6.9221824e-05 0.00060859433 -0.004606043 -0.0032550683 -0.0094490275 -0.00305439 -0.0027415024 -0.009495777 0.0003179197 -0.009598989 -0.0066275126 -0.007833893 0.0013245951 0.00525425 -0.0069930935 -0.002055843 -0.0019766951 0.006085891 0.0009354669 0.010631606 0.009292811 0.002960331 0.004095936 0.0038908813 -0.0076274252 -0.00518661 -0.00066902937 -0.006212373 0.009022585 -0.0076394673 -0.0048645684 -0.0027055193 0.0010535183 -0.009015782 -0.0027415906 -0.0036091944 0.00600207 -0.003326316 -0.0069699707 0.0075348928 0.009091848 -0.00698932 -0.004641134 -0.008460533 0.008867475 -0.009834199 0.004920659
sống -0.0011758717 -0.001708789 0.0027898462 -0.0026962329 0.009394626 -0.0074996487 0.008946893 -0.00018088405 -0.00666752 0.00975401 -0.0015728156 -0.0039055673 0.0061546047 -0.0073447176 -0.01236287 -0.0064993836 0.0065811686 -0.0073797978 -0.0018032589 -0.0067973672 -0.005953264 0.0059752995 0.008598577 0.0013805568 0.0020677196 -0.006227081 -0.0003570277 -0.0050613373 -0.010458033 -0.011530454 -0.009590229 -0.000653614 0.0026894812 0.009565161 -0.0076886406 0.0035767807 0.0014350294 -0.001211792 -0.0067032855 -0.00093907584 0.009306507 0.008315949 -0.0017479382 -0.0029015746 0.006209136 0.0021804639 0.00033041608 0.0072985208 0.0049814545 -0.004056821
chắc 0.0069807456 0.0043225028 0.006785102 -0.005920678 0.009207497 0.005798924 0.0008616486 -0.009180109 -0.003268029 0.008370852 0.0056518954 -0.004942351 -0.009100588 -0.004387988 0.0009728078 0.0021596435 -0.010944863 -0.008872475 -0.005519674 0.00090767647 -0.006505943 0.006003845 -0.0004884726 0.008606687 0.0076972875 -0.0038826899 -0.004565945 0.0071833134 -0.008585117 0.0030255364 0.005673484 5.1786246e-05 -0.0043749395 0.0093208095 0.010613659 0.0076012616 0.0033158709 -0.002302067 0.01123471 -0.0064768214 -0.0018184558 -0.00242548 -0.009493046 0.009702442 0.00032904168 -0.0020335289 -0.00701892 0.0042369594 -0.003545551 -0.007056844
giờ 0.00091236783 -0.010234197 -0.0031126572 -0.005507461 0.0074916403 -0.0060328455 -0.003460117 -0.0061789034 -0.0015748966 0.009387417 -0.008658732 -0.005241485 -0.011473511 0.004142563 -0.007000706 0.011587861 -0.009406898 -0.0060536107 0.0019556205 0.0012866679 -0.0078314785 0.008679735 0.0030310403 -0.0071103466 0.0060803574 -0.0012798393 0.008175979 -0.0025711947 -0.00088851847 -0.0070705847 0.0018130711 -0.001862729 5.771612e-05 -0.009025719 -0.006489379 0.0053372583 -0.0017975383 0.006756974 0.006186315 -0.010233858 0.008993752 -0.0027313323 0.0059721596 0.008174617 0.005366896 -0.0051647206 0.0059759114 0.010578547 -0.0019151116 0.0007275027
giúp -0.006106975 0.006444778 0.008470667 0.0013467576 1.2579917e-05 -0.0018480759 -0.008459619 0.007990888 0.0007270377 -0.002970737 -0.0011768336 -0.008373335 -0.0048897495 -0.0019031756 -0.00726802 0.009708348 -0.0030119347 0.0012468664 -0.0007075196 0.0061919675 0.0038196663 -0.0033832425 0.00824247 0.0027044844 -0.0043415762 0.0041328375 0.0076911864 0.0013653967 0.002838426 -0.009526968 -0.0013613248 -0.0034323004 0.0007583759 -0.0017272151 -0.0016659835 0.0047826027 0.0040733586 0.0033759233 0.006498601 -0.00024299421 0.009426342 0.0060332157 0.005727489 -0.0051551005 -0.00089813874 -0.0019292899 0.0027275307 -0.0062049194 -0.0012553293 -0.0075655137
trả 0.0009323252 0.0031878815 0.004069895 -0.0128880525 -0.006123677 0.0060447394 0.00033764818 0.008675693 -0.0049888645 0.0016641577 -0.008919319 -0.012418343 0.0016812881 -0.0005366845 -0.00461552 0.0051600346 -0.00998895 0.0082640555 -0.0009067072 0.0068894094 0.0005700393 0.008221522 0.011442198 0.011051851 0.006257685 0.0057078665 -0.0069430973 -0.009503252 0.0070003034 0.0076405313 0.0074624047 0.008421667 0.008218068 -0.008173839 0.0071061784 -0.0049023954 0.009353055 -0.0037786835 0.009435414 -0.0015622015 0.0071369265 0.0061459164 -0.0038777639 0.009073774 -0.004973979 0.006588604 -0.0070183906 0.010264993 0.002098004 -9.558461e-05
tiền 0.0015831293 0.002391752 -0.0091964295 -0.0031784894 0.0023507206 -0.007927007 -0.008420516 -0.0017979235 0.0011757354 -0.0014274628 -0.010251996 0.0037520393 -0.000587597 0.007233041 -0.004861784 -0.004777933 -0.006603058 0.0017957159 -0.0023044099 0.00508287 -0.0003482749 -0.0086408295 0.0040742434 -0.0059921527 -0.0023905975 0.011426072 -0.00069547165 0.00044081215 -0.009605047 0.0031654362 0.0062585305 0.0079194475 0.005872068 -0.001110748 0.008398158 -0.0036127048 -0.0006747878 0.0030801955 0.011695665 -0.009744983 -0.0006454653 0.00012617496 0.0031212794 -0.008915159 0.010105792 -0.004510999 -0.007455895 0.0018191313 4.5972145e-05 -0.0034484477
món -0.008642604 0.007641811 -0.004594835 -0.0009184156 -0.0031775734 -0.00040812994 0.010703445 -0.0031695836 -0.011819766 0.0039125877 -0.0094361305 -0.010500036 -0.008628242 -0.0054277563 -0.01358941 0.015014401 -0.0028528008 0.0028688707 0.0013152594 0.0003136036 0.0030146209 -0.0029374901 0.011571647 7.7779565e-05 -0.008980959 0.0029187445 0.0031191367 -0.011461785 0.0030945102 -0.012182822 -0.00368044 -0.010391193 -0.0024617468 -0.0057743257 0.006384118 0.0072717858 0.0063989977 0.01103891 -0.0021909464 -0.010340629 -0.0025643168 -0.006970695 0.006138284 -0.0035096526 0.002685912 0.00080000283 -0.0039623757 0.0032599117 0.009239378 -0.0036244537
tốt -0.006606999 -0.010098875 -0.010412666 -0.004224693 0.006702263 0.0016523825 0.0017210735 0.010294511 0.0028145404 0.0059031537 0.0068752216 0.0046203644 -0.011103306 0.0020723075 -0.004027607 0.004122473 -0.0076494585 0.005125665 -0.0039564604 -0.009195169 -0.0030498265 0.003290541 0.005373134 0.0019986958 -0.008589383 0.0017109733 -0.0051288796 -0.00016311144 -0.00647706 -8.1266946e-05 -0.0016715071 -0.004284815 -0.0025861308 0.0009814749 -0.0057108263 -0.005700596 4.529216e-05 0.0058931094 -0.001348576 0.001332552 0.008277912 -0.0021258334 -0.0019068948 -0.0076295524 0.0071603647 0.008547995 -0.0065492867 0.009415245 0.00660029 -4.4639124e-05
vài -0.0030440928 -0.004681457 0.0009781007 -0.002207151 -0.007814025 0.008637372 -0.0014964996 -0.007364216 0.0021390268 0.0028589845 0.0016457626 -0.0047721 -0.008855659 -0.005321409 -0.0047309943 -0.00012717542 0.0072079934 -0.007871194 0.006139405 0.0043967073 -0.009643917 0.003701057 0.0026699742 0.012308434 -0.0073355134 -0.003141747 0.001964155 -0.010258692 -0.010110339 -0.0017016925 -0.0024562667 0.001092741 -0.0054092254 0.001674095 -0.004771492 0.0022045064 0.007462201 0.011863865 0.0041705347 0.0020427944 0.004041128 -0.009175627 -0.0049378905 -0.0057364125 -0.00086676003 0.002927675 -0.00207005 0.003982646 0.00071174465 -0.007933088
thứ 0.008297723 -0.008296702 -0.0051123593 -0.0024314702 0.0010300141 0.009117734 0.0063502346 0.005305352 -0.009456678 0.0073731677 -0.0049418337 0.0029847238 -0.003487525 -0.008805287 -0.0054632155 0.013699875 0.0025581636 0.0058977017 -0.008058389 0.0072220447 -0.0029777612 0.004891722 0.0034787906 0.010741369 -0.002699676 0.008255314 0.0019348447 0.0023754912 -0.009503746 -0.009867993 0.0038642602 -0.0070932466 0.0017987564 0.006375232 0.00063538103 -0.0076659583 -0.00602032 0.0010268295 0.011208355 0.008452663 -0.003904388 -0.0001590753 0.0059514698 0.0044344575 0.0050385627 -0.0051514558 -0.0053112577 0.001361777 0.007027374 -0.002327527
mọi 0.00859014 -0.0026339465 -0.00046120243 -0.013252107 0.007932581 -0.0058572553 -0.005252994 0.009287635 -0.00814018 -0.004166074 0.0018758959 -0.012572051 0.0033873057 -0.007928568 -0.012672381 0.009455491 -0.007941506 -0.002672747 -0.0012847116 -0.0028287289 0.0012024504 -0.00635193 -0.0055621434 0.0027444365 0.009428531 -0.00062016316 0.004547525 0.005589063 -0.00030501344 0.004965922 0.0043288413 -0.008184978 -0.0011072779 0.003958123 -0.0070919893 0.0026221068 -0.0025079206 0.0029353967 0.012180751 0.003581339 0.0021499784 -0.0025979457 0.0026315937 0.007023174 0.0026975505 -0.007694675 0.0062298034 -0.0037814735 0.0028864576 0.008815225
về 0.0009564372 -0.0061830548 0.0003761451 -0.009954764 0.0058559426 0.005326688 0.009538763 -0.0044817636 0.008007397 0.0071361945 -0.00812746 -0.012804896 -0.010418815 -0.0050415555 -0.0048338743 -0.0040918803 0.0054041613 -0.007481358 -0.0036593478 -0.00044665372 0.003987261 0.000791954 -0.0066442396 0.008998789 -0.0024290339 0.0022143975 -0.0063274805 -0.0046943184 -0.0059214723 -0.0033824777 -0.000596814 -0.0052748024 0.008352925 0.010810159 -0.0037832158 0.009897187 0.00205358 0.012090189 -0.0043477775 -0.010074085 -0.008783907 0.00071941613 0.0045571504 0.00085141364 -0.0032084289 -0.005914175 0.0005421869 0.0041758423 -0.008262596 -0.006745585
trong 0.007502836 0.0031883921 -0.00025408948 -0.008241383 0.0052552624 0.0045384523 0.01069625 0.006928128 -0.01108477 0.009852366 0.0008184181 -0.0128511 0.0044896225 -0.011053123 -0.009822848 0.0093680145 -0.003389536 -0.007888188 -0.0037707803 0.0032964253 -0.0025400606 0.0005729261 -0.00061446993 -0.0050712177 0.0074950876 0.0034428048 -0.00037617225 0.006358086 0.0029146904 -0.012426149 0.009054687 0.0036534201 0.011000407 -0.004783718 0.006880839 0.008809526 0.009016847 0.007633692 0.010674678 -0.008747556 0.0055631497 -0.0014224289 0.007931482 0.0003868215 -0.0057084346 0.006439228 -0.0028609154 -0.0011743649 0.0097472565 -0.009318209
nhớ 0.003299526 0.005164785 0.007925168 -0.002222026 0.009862818 -0.0073201912 -0.008015099 -0.0041657495 -0.0012458707 0.0023154872 -0.0016501691 -0.011877526 0.007192231 -0.002519749 -0.006539783 0.012180207 0.0032875128 0.0007521095 -0.009272051 0.008429976 0.003058012 0.0058746976 0.009561342 0.005011888 0.0033150297 0.00030486358 0.0011714337 -0.0023541355 -0.009085602 0.0061876834 -0.008548258 0.0058926637 0.0066096196 -0.0067430376 -0.0088764485 -0.0056327833 0.0014388693 -0.0055808653 -0.0023077992 -0.0046107043 -0.0005425194 -0.008344802 -0.0027433136 0.00887997 -0.009820094 0.0048098974 -0.003788557 -0.0005055292 0.0059119426 -0.0059044836
tên -0.004875306 -0.0093307905 -0.005472474 0.007679363 0.007752849 -0.007317235 0.0034068204 -0.0047329473 -0.0102280965 0.009385806 -0.008250734 0.006003817 -0.004909056 -0.0017588992 -0.0059400233 -0.006907799 0.0066187633 -0.005096768 0.004981826 0.0037041877 -0.010357953 -0.0053406204 0.0083427355 -0.00037010992 0.0033480555 0.010817128 0.0019139531 -0.00023946242 0.0018658773 0.003698901 0.0010637557 -0.009894113 0.009697809 0.00028817274 -0.0055068787 9.377063e-05 -0.005329624 -0.0064217607 0.0075896177 0.0027120328 0.0060552475 -0.0011225785 0.006645672 0.003016121 0.0036365823 0.007866151 -0.0049259732 -0.004076935 -0.0015800353 -0.006659443
tin -0.0026311916 -0.004005108 0.0026711144 -0.0018436476 0.002344962 0.0108210035 0.0021769067 -0.0075838408 0.007832138 0.0056507876 0.0062855245 -0.010830523 0.00020270645 -0.009070298 0.0063293898 0.009051817 0.0022376373 0.005054394 -0.008541699 -0.0036164275 -0.0041302266 -0.0006817458 0.009835719 -0.0016906437 0.008204197 -0.0035374227 0.00802465 0.00875411 0.004975983 0.0044862665 0.0025388685 -0.0003655901 0.0011671796 -0.0077221678 -0.0077647283 0.0027265123 0.0091454135 -0.0031465804 -0.0070986096 -0.007780978 -0.0011269865 0.005523472 -0.009727435 0.004227691 0.009526377 0.007624519 0.008281418 0.0014383883 0.0020953855 0.0071401144
việc 0.00075463514 -0.009137533 0.0017891068 -0.0114946645 -0.00629359 0.008494231 -0.0068723923 0.0004995207 0.0031100346 0.009341578 -0.01030673 0.004921144 -0.0022240106 -0.00042408713 -0.0102063 0.014144495 -0.002481541 -0.004180786 -0.0032150475 -0.006550299 0.007826242 0.0022514414 0.006712772 -0.0027057813 0.008987713 0.009173282 0.004345714 0.002449986 -0.003963797 -0.009742769 0.00044383778 -0.010847953 0.011800252 0.0040028594 0.0058092414 0.006112612 0.00031701007 0.010747802 0.009351993 0.0007669245 0.0053949943 -0.008011246 0.0028116347 -0.00014057265 -0.007219242 0.002119414 0.001111257 -0.00081279466 -0.0009970586 0.0018510359
chờ -0.0050707436 0.005260312 0.0010637224 0.0047303718 -0.0009937609 0.0014689959 -0.003848079 0.0025561976 0.0032593862 -0.00729517 -0.0013627015 0.00083478907 -0.0011420724 0.00175295 -0.008532832 -5.9804734e-05 -0.010093228 0.0038585258 -0.009259029 0.0038764032 0.007039697 -0.0012227371 0.005562088 0.007281773 -0.0011720426 0.013788561 -0.0055269324 0.0020415762 -0.0009418855 0.0011367389 0.006827214 0.008626686 -0.0018661149 0.0037898251 -0.00093534525 -0.0072906446 0.0081014875 -0.0039320868 0.01282246 -0.0097754095 0.008317908 0.005206013 -0.0042781397 -0.009789694 0.0005155826 -0.0013172254 0.0030453529 0.008863601 0.00855803 -0.0028447767
hơn -0.0041062264 -0.0075322217 -0.0056940513 -0.013020419 -0.009886994 0.011626946 0.005843332 -0.003665152 -0.0019858168 0.0122522935 0.006047363 0.006258347 0.005729512 -0.0075203665 0.0045790984 0.013480647 -0.0055941334 0.006282004 -0.0047043143 0.0034872424 0.0028326176 0.001081782 0.008450657 -0.001870838 -0.005247192 -0.0006269248 0.006531797 -0.011877046 -0.0033789752 5.4267282e-05 0.008539186 -0.0068063657 0.0040633115 -0.0042408304 0.0022706909 0.01017107 0.004506254 0.0032127926 0.0069584874 -0.008266579 -0.008687134 -0.010743234 -0.0049533653 -0.002612303 -0.004493921 0.00094045716 0.0064354744 -0.006213335 -0.008385615 -0.0054492517
không_thể -0.0022196774 -0.007550531 -0.0075974143 -0.008687277 -0.006757673 0.008705728 0.0029548998 0.002838 -0.0072747255 0.0030349945 -0.009585731 0.001029156 0.0074466453 0.0024843751 0.0073653026 -0.0045316536 -0.00019400382 -0.0071006995 0.0021539433 0.0036953185 0.0035125364 0.002176285 -0.0034284762 0.011018957 0.0072335317 0.008947651 -0.005514513 0.0034011735 -0.0076326756 -0.0019273582 -0.0035252343 0.001200613 -0.0026794234 0.009670685 0.001466013 0.006994346 -0.0015366131 -3.6524758e-05 0.008886991 -0.0025876276 -0.0008566242 -0.008720399 0.0012173573 0.0064916965 0.005244743 -0.005192061 -0.0008440034 0.0016937639 -0.001698035 -0.0058057564
tay -0.009877871 0.008373378 -0.007973457 0.0034080388 0.008422119 0.01085513 -0.0023087012 0.0017993434 0.0053709815 0.011740499 -0.0053316145 -0.012227664 -0.0105172 -0.0020709222 -0.007774528 0.002183747 0.0010363497 0.0068173707 0.009518702 -0.007550822 -0.006513049 -0.0020572713 0.007636152 -0.006072166 -0.0037900861 0.008243242 0.0046984674 0.0027318532 -0.012502805 0.00046995308 0.0013043933 0.007695677 0.0074301264 -0.00049079215 0.009280867 0.0022275923 0.006684072 0.004586739 0.0031901184 0.0016130423 0.001357436 -0.0022681432 0.004283245 0.008620496 -0.003823659 -0.0033398469 0.0052971332 0.00976747 -0.00959984 -0.003424542
cám_ơn -0.009712059 0.0024363238 -0.007956394 0.003193185 -0.003212936 0.009043435 0.0002341115 -0.00051422836 0.006161702 0.0063377926 0.00673824 0.005962146 0.0003466142 -0.0069070705 -0.0025457218 0.0036042128 -0.009858691 0.003047809 -0.00047481808 -0.0069391737 0.006638473 -0.0073673096 -0.0042955335 0.004764316 0.006299813 0.008785676 0.0021969567 -0.00836513 -0.00790694 -0.007256977 0.005368318 -0.0028154259 0.0073293373 -0.008473249 -0.005956391 -0.0056786058 0.002329763 0.005783957 -0.0051648687 -0.0032183484 -0.004698532 -0.00035622664 -0.0066016493 0.007345297 -0.008455942 0.0020023258 0.004350189 0.004854163 -0.0065716268 0.0058055646
nữa 0.009635246 0.004135807 -0.00097030075 0.007468787 -0.008430316 -0.003302824 0.0027030134 -0.0015387813 0.0012732685 -0.007083198 0.0026525815 0.0052199955 -0.0013253253 -0.006222509 -0.008973221 0.0018346299 0.0055228574 -0.0064559435 0.0017296586 0.0028865656 -0.0037800362 -0.0044168057 0.008977475 -0.00771448 0.009760364 0.003963928 -0.0009361074 -0.00011414261 -0.0054516895 0.008331338 -0.0036871487 -0.0026861655 -0.0061281747 0.0068678204 -0.0043999897 0.009860902 0.0006943303 -0.0054508224 0.0035494 -0.00048224285 0.0035242948 0.0015931315 0.0013339403 0.008836812 0.0072160037 0.0024726584 0.0012781824 0.0046337233 0.0045303283 0.006575915
buổi 0.0059875767 -0.0090467455 0.0039488766 -0.00126797 0.0037160679 0.006815107 0.0025947404 -0.0041098264 0.003213894 0.002659701 0.005498399 -0.004270707 0.0057194564 0.0035233556 -0.013152742 0.0035419934 -0.010119346 0.0063159834 -0.0076474706 -0.006488131 -0.010152953 -0.0005388246 0.011777294 -0.0025150212 0.009131665 -0.001969084 0.0039304346 0.0019303584 -0.0023432279 -0.0029353672 -0.0017504507 0.008042733 -0.00036982837 0.010857739 -0.0013802758 0.003736345 0.008616714 0.012026356 -0.0049529513 0.007186017 0.009349328 -0.008752999 -0.00088159577 -0.0045342026 0.005782271 0.0074070552 -0.0008700732 0.0037545813 -0.008462501 -0.0013868309
ồ -0.00930858 -0.002263561 -0.008564833 9.256615e-05 -0.0042116884 0.0014065437 0.0035151076 0.006742165 0.0009484395 0.0063103638 -0.006619953 -0.0056165173 0.007857146 -0.006939134 -0.004349375 0.0070436117 -0.0011828446 0.005790931 -0.002802732 -0.0030178162 -0.0066168434 -0.004228318 -0.0027722477 0.010896455 -0.0033673693 0.0048888773 -0.0016917136 0.009383732 0.007370977 -0.002957896 0.0027354187 0.0061984886 -0.0062574227 -0.006436158 0.003093563 -0.006317063 -0.009538029 -0.0013844015 0.006493247 0.0038413156 -0.0059346207 -0.0061408314 -0.009685663 -0.0011977268 0.00029342054 0.006914382 -0.008528024 0.0076450547 0.0007098467 0.000104678664
nhau 0.0015559589 -0.006870541 -0.002973268 -0.00915313 0.008569891 -0.0041260514 0.0072593647 -0.0013001377 -0.006799477 -0.00047906142 -0.00031893142 -0.0037744297 0.00046109423 -0.012016737 -0.0021978368 -0.004485385 -0.008053709 -0.009391983 0.0048164357 -0.007843043 -0.00075482344 0.0048911097 0.001979973 0.010319999 -0.0038184568 0.013352212 -0.005756372 -0.008995001 -0.007827164 -0.0038925752 -0.002017927 0.0053986246 0.01030684 0.0074339504 0.0040593795 0.0075071515 0.008102199 0.009188587 0.008447538 0.0059340205 -0.00088755804 0.007034723 -0.001638896 -0.0035213907 0.0040042982 0.0058762706 0.008845156 0.0019410845 -0.008958075 0.0048219664
ư 0.007907365 -0.0039074677 0.0062663956 0.0024645121 0.0057174405 0.004650712 0.001811975 0.003822599 -0.0036198972 -0.0056705466 -0.0054737865 -0.0065975767 -0.009180935 -0.003291261 -0.0071666925 -0.0036227445 0.007461055 0.005679457 -0.01011967 0.0014154254 -0.0076544187 -0.008384607 0.00066089135 -0.002293679 0.0023747603 -0.0046863137 0.0008447208 -0.0017185179 -0.0043870253 0.0004150089 0.008605727 0.004409162 -0.005945214 0.00607837 0.0047139223 0.0049904594 0.009044082 0.005514204 0.0029781824 -0.0062337276 -0.006640638 0.0031237532 0.005331289 -0.008700141 -0.008232867 -0.0013169225 -0.01015104 -0.0053895735 -0.0024961464 -0.004220419
hả -0.007602191 0.002479704 -0.007496238 -0.0067191855 -0.006231395 -0.0051241294 0.010888548 -0.0049155243 0.005049468 0.0076581067 -0.00026120237 -0.005015016 -0.009226177 -0.009822347 -0.0066743344 0.0033995481 0.009021425 -0.0020388102 0.0012547175 -0.003528797 0.007265769 0.0010308694 0.0065896465 0.00039093074 -0.0032888092 0.012975226 -0.00019988487 -0.005428855 0.0037388038 0.0020205467 0.0022731167 0.005765163 0.0097590145 -0.0016447096 0.0028066854 -3.22222e-05 -0.008661012 0.0032398764 0.009566377 -0.004032313 0.004370197 -0.0044565364 0.0030370979 -0.0038862817 -0.0024280401 0.006243526 0.003993272 0.003498233 0.0076333815 0.008699373
chẳng -0.0035097187 -0.004572886 -0.005843828 0.0034130272 -0.002053411 -0.0056286925 -0.0011509006 -0.0085752085 0.0090467045 -0.0011397277 -0.0042743157 0.007030075 -0.0028049634 0.0074616326 -0.010574347 0.010800227 -0.010300172 0.0030089952 -0.0012031734 -0.009780704 -0.0052719796 0.0050479667 0.0021950004 0.008502265 -0.009538522 -0.0013674817 -0.0017999802 -0.009940745 -0.007888272 0.0034321367 -0.0014579698 0.0019623225 0.003460506 0.00062092894 0.0028691909 -0.0048263865 -0.0067901392 0.0074672513 0.006783744 0.00463143 0.0055433004 0.008298454 -0.0064323875 0.0017906014 -0.0085749645 -0.006368615 0.0027415128 0.007827479 -0.004786645 0.0068873027
bài -0.0056018857 0.003048333 0.006199335 0.00537544 -0.0022981027 -0.0011322863 0.007299278 0.007343609 -0.010747844 -0.0012546049 0.0062813954 -0.005330085 -0.00994117 -0.008834393 0.0027319095 0.002610645 0.00870455 -0.0065248813 -0.0042410647 -0.003939134 0.0081830295 -0.0049568447 -0.007551291 0.00789338 0.005293222 0.005952742 0.0076819877 -0.005896266 0.0037637523 0.0027209434 -0.0027811932 -0.0042409645 -0.005329276 0.00968239 -0.0012288567 0.008225925 0.0011125256 0.010397406 0.009811719 0.007615362 -0.0055749994 0.0013127648 0.0059254076 0.00090808724 -0.007148722 -0.009112959 0.0072280094 -0.0047631264 -0.005518417 0.009641089
hỏi 0.0075474386 -0.00970239 -0.008942646 0.0009956593 -0.006753917 0.0041101435 -0.0014181652 0.0044810358 -0.004286316 0.009523902 -0.009012542 -0.002733279 0.0027591784 0.0033027886 -0.0039457665 0.011379061 -0.0071136365 0.00625558 -0.0013986494 0.0025035464 0.0017816658 0.004070406 -0.0043374775 -0.0019240536 0.0037328016 0.007855177 -0.009993461 -0.011401888 -0.0102622835 0.0020500985 -0.0051116594 -0.0031865616 0.006441964 -0.008200983 -0.0051437016 0.007257965 -0.0021881433 0.0037091733 -0.0022317965 0.0007010007 -0.0010072418 -0.0057071685 0.0024859468 0.0050250627 -0.00069984264 0.0048711933 -0.006680178 0.0064858017 -0.0062997714 0.0053029335
sự 0.0011693442 -0.009405701 0.005439868 0.0015158197 0.0024045096 -0.00082843704 -0.0071546105 0.0030516244 -0.0076330057 -0.0037372047 -0.004536953 -0.010304398 -0.005248537 -0.0031748544 0.0033999863 0.002303871 0.0034014902 0.0029816006 0.0042141974 -0.0069210213 0.009058829 -0.0033238828 0.012200276 0.0044981656 0.008777184 0.0034080064 -0.008873014 0.0059133256 -0.007720942 -0.0006050818 -0.009053935 -0.006619096 -0.0082699405 0.00085868133 -0.004169854 0.008610301 -0.0068253586 -0.0076368125 0.007986766 -0.010963232 -0.0024942951 -0.0023031374 -0.0040842155 0.0017666485 -0.0018171737 0.008208649 -0.0045661633 0.0021337357 -0.0010892753 0.005600245
cùng -0.005613205 -0.00096258166 -0.010152588 0.0036326773 0.006758779 0.011268055 -0.0030259492 0.010004094 -0.010053075 0.007243142 -0.00048039458 -0.003481398 -0.010712909 -0.0016460267 -0.00060227787 -0.0019728513 -0.004831535 -0.011252712 0.0035955189 -0.011390436 0.0025348556 0.009589363 0.0037104962 -0.0044669327 0.0075702537 0.0039778156 0.006427031 -0.004838835 -0.0062826388 0.00044892245 -0.004617368 0.0065769255 0.008973032 -0.00052680454 -0.004257882 0.0061003584 -0.009773668 0.0071298582 0.008846391 -0.00918806 -0.009806869 -0.0033103512 -0.0024358202 0.0074219527 -0.008554019 0.0085979905 -0.010302887 0.0052800686 0.0069909478 0.0037229836
dùng -0.00840629 -0.0067293146 0.0066536847 -0.0057053543 -0.008886435 -0.0052282484 -0.006477851 0.006261069 0.0031868315 0.0099944165 0.008202229 0.0018463057 -0.00820662 -0.010862274 -0.010988796 0.009643419 -0.004344964 -0.011017072 -0.0040739835 0.002707477 -0.0058997874 0.0004583903 -0.0006078321 0.008773265 -0.006530681 0.006118421 -0.009458237 0.0005263963 0.00086257793 -0.007007053 0.003870452 0.0058361967 -0.0023436109 -0.0076611135 0.00149341 -0.0004863615 -0.0057163895 0.0032791991 0.007266186 0.0060725147 -0.00015302177 -0.00052907574 -0.002162665 -0.0033465223 0.0043837233 -0.0056329123 -0.010469433 0.01127815 0.004123566 -0.0013324525
nơi 0.00088456576 0.0021993686 -0.010110971 0.000921512 0.0027227993 0.0026808672 0.009339508 -0.00024178272 -0.0018509029 -0.008454525 -0.0050779977 -0.00467142 -0.00044646248 -0.0051809857 -0.008542443 0.011674461 0.0052266726 0.0026184497 0.00069585285 -0.011178103 0.0064686337 0.007985028 0.00045497986 -0.0075030397 0.0022616952 -0.0036708098 -0.008966838 0.006640125 7.569002e-05 0.0026281825 -0.0033724632 0.006250371 0.0065598795 0.009424679 -0.0057688863 0.004775457 0.0036424787 -0.001040808 -0.0017011312 -0.0018528957 0.0008486565 0.00020054264 -0.0044418345 0.0026772267 -0.0064970967 0.0017269371 -0.0011182443 -0.007396871 -0.008921515 0.005988858
kiểu -0.004569617 -0.007043936 0.0015342202 -0.0052594 0.00023213259 -0.0012849333 0.0062232367 -0.0008878738 0.0037428183 -0.007954966 0.008389783 0.0065397597 0.001182964 -0.0028751371 -0.0077886586 0.011773552 0.007914165 -0.0020648718 0.0057914914 0.0002745688 -0.0042000837 0.0074411673 0.005707217 -0.0015062615 0.007124785 0.0025021948 0.0018084069 0.002015298 -0.01133006 -0.009209392 0.0074880575 -0.004835541 -0.003689235 -0.0028649436 0.0033292193 -0.0049596215 -0.0007361666 0.0009973038 -0.006717313 -0.0022726 -0.0003590725 0.005924355 0.00062422035 -0.00041555878 0.00076858065 -0.009539357 -0.0017911387 0.011761093 0.009680984 -0.0017165927
khỏe 0.00086820737 -0.00046859775 -0.0077897687 -0.0045279027 0.0010690702 -0.0029011308 0.0076631857 -0.0044728075 -0.006723078 -0.0023055805 0.0021412836 2.5372106e-05 -0.005913665 -0.00904504 -0.009214469 0.008671402 0.0022707195 0.0023940355 -0.009855873 -0.0022988482 0.009321589 -0.006331832 -0.0056234756 -0.0007807864 -0.008207988 0.0058423565 -0.0092349565 -0.008702333 0.0019477067 0.0072696246 0.00094569457 -0.007311217 -0.0071341395 0.007896245 0.0041290876 0.002845578 0.0021131458 -0.00672322 0.0064646984 0.0068348157 -0.004612609 -0.0053585223 -0.010171104 0.00020490334 0.009657147 0.0049911067 -0.0014303717 0.003929382 1.2041381e-05 0.0044050766
loại -0.0024379021 -0.010233147 -0.002772729 -0.0026505154 0.0015160508 -0.0077014933 -0.0006220303 0.008661887 0.0074825026 0.0064460337 -0.0031490403 0.0050061774 -0.004850555 0.007388176 0.0058008875 0.0005001741 0.004065651 -0.007749663 -0.0064759227 0.0046856822 0.0022156725 0.008599616 0.009419284 0.0075916713 -0.0027294396 0.010690398 0.00898998 0.0006144577 0.007216017 -0.011331635 0.0031712828 0.0068108635 -0.005775782 0.0064784437 0.0041060383 -0.003662864 -0.001801296 0.0009134602 0.006848281 0.0029649108 -0.007906272 0.0013998109 -0.006888274 0.0009535775 -0.005368562 0.00037719618 0.0054296614 0.008430621 -0.004008161 -0.0067615327
tạm_biệt 0.00513074 0.0035167472 0.0010394725 0.0013312227 0.004362723 -0.0052475454 -0.0027627319 0.0068678777 -0.010793774 0.0007705155 -0.00065411837 -0.0034352804 -0.00359207 -0.0036807908 0.0003564838 -0.00044634275 0.0043714535 -0.0055013313 -0.009291479 -0.004092887 0.009691713 0.005046595 0.0111469105 -0.0009283136 0.0011038602 -0.0029325427 0.0010289317 -0.005763281 0.0061377008 -0.0055623674 0.0015621748 -0.0057719033 -0.0017116447 -0.008980612 -0.008909496 0.00316118 0.00092992815 0.0074913744 0.0014182099 0.0009755464 0.0038452665 -0.0034283504 0.0071626315 -0.00417762 0.005050997 -0.008638082 -0.002601316 0.009535561 -0.008116425 -0.0035905137
nhìn 0.00093604665 0.0008706813 0.00028632075 -0.009982532 -0.009940876 0.004851445 -0.0059238155 -0.001495095 -0.009927658 -0.005195733 0.007650957 -0.0077055497 -0.00090777467 0.0068726474 0.0069702044 -0.0055164206 0.0035639924 -0.011254093 -0.009232946 -0.006126184 -0.0016774507 -0.007347679 0.0063029584 -0.0064735315 -0.0079166405 0.0018901288 0.010078409 -0.00037783114 -0.009417467 0.0042691682 0.005048304 -0.0012622495 0.008575852 0.005004933 -0.009137489 0.009435197 0.0015030268 -0.0062003387 0.009027917 5.4255346e-05 0.003074451 0.0075958623 0.008112561 -0.0069062747 0.004461866 -0.00035289247 0.0061807246 -0.002900107 0.0016981143 0.0066556935
kia 0.009756578 -0.0009848737 -0.0044086934 -0.0035043608 -0.0061613307 0.007856283 -0.001069071 -0.0045838007 -0.010085229 0.0093471315 0.0058543184 -0.009890693 0.0014699235 -0.0017363654 0.0039521265 0.0023666308 0.0007255561 0.00055387954 0.008722328 -0.0015844245 0.006290191 -0.0012489387 0.011622246 0.0045671053 -0.002210642 0.0051515806 0.005108228 -0.010521437 0.0066396934 -0.007915576 -0.0034902205 -0.009019144 -0.0050374037 0.0064857015 0.0093393065 -0.006700053 0.0054724785 0.0037880656 -0.006551568 -0.0047859224 -0.0066093025 0.0012914097 -0.010442607 0.0006396888 -0.001904938 -0.0031852247 -0.006651235 0.00558677 -0.007956095 -0.0010250782
bây_giờ -0.0037172106 0.0038363575 -0.0047711525 0.008012119 0.0027873905 0.0022887143 -0.007046208 0.0013972048 -0.008035482 0.0016472902 0.0016278522 -0.006478852 0.0009079354 -0.00020584968 0.0028774485 0.011735659 0.0068429466 -0.001599182 0.002411141 0.002364345 0.00646436 -0.005391947 -0.0049528885 -0.007352007 -0.006409622 -0.0046111257 0.003499743 -0.008595588 -0.00090020103 -0.0062760613 -0.0059651295 -0.0028285247 -0.008534479 0.0029489005 -0.008256534 0.0009104319 0.0042434526 0.0049067074 0.010897628 -0.0033930962 0.0037000317 -0.007197633 -0.005774957 0.00913232 -0.007332435 -0.004481815 0.00449553 -0.005258944 -0.00088357483 0.0006158515
mời 0.009753877 -0.01063416 0.009512343 0.00044735946 -0.009356215 -0.0066642812 -0.0015454908 -0.00702861 0.00275782 0.008937972 0.0077463267 0.007185584 -0.0075232866 0.003419267 -0.0031297577 -0.001745926 -0.0017945854 -0.0029039336 -0.00342148 0.0022658985 0.0018961017 -0.001711631 -0.00816699 -0.0006850026 0.00881422 0.003420552 0.004735173 -0.010481078 -0.011595715 -0.0058089457 -0.0086413445 0.00029222394 -0.0031280774 -0.008230598 -0.0023700371 -0.0048564007 -0.008332138 0.00028644197 0.007003474 0.007185854 -0.0019008658 0.008191514 0.0042415415 -0.008550822 -0.00960468 0.00038120238 0.009294784 -0.0048419805 -0.008143799 -0.00802059
nhỉ 0.00843178 0.0039590225 -0.00979997 -0.0007729986 0.0052297865 0.00072368374 -0.008666543 -0.0030711617 -0.009435962 0.0042888853 0.0048603094 -0.007879458 -0.00928181 0.0024066516 0.004402083 -0.0055708294 0.002375253 -0.008363126 0.009036439 0.00083606027 -0.0069140764 0.0067865863 0.006646699 0.0050057913 0.009421096 0.0027542645 0.0031407322 -0.0008471382 -0.0053435653 -0.01023997 -0.0066450457 -0.009276178 0.0006193331 -0.0033909825 0.0029202488 0.0019121347 -0.006771305 0.0048477584 0.00911642 0.0041242577 0.0035869323 -0.008061178 -0.001592803 -0.008472771 0.007853609 -0.010077853 -0.003859233 0.002667596 -0.0057423688 0.002150458
kìa -0.0048300554 0.00795992 0.0024328427 0.008054885 -0.0024165642 -0.003968777 -0.007636798 -0.003192059 0.00080422824 -0.0013335954 -0.0033737924 0.0034951612 -0.009281335 -0.0012927945 -0.0069210446 -0.0036547342 -0.001429911 -0.0045837946 -0.004436245 -0.001207231 -0.0017157393 0.0038465797 -0.0027809073 -0.008094806 0.0070762136 0.0038109967 0.0071783005 -0.0014498688 -0.009015497 0.0028524506 -0.0016014315 -0.0018928036 0.003677001 -0.0062829955 0.009645882 -0.0073407874 -0.0051757228 -0.0056386013 0.0046034376 0.0060100616 -0.0006890381 0.0024560625 0.005195191 0.00034675223 0.0025325988 0.0019398588 0.0027504622 0.009765515 0.00611483 0.0065443334
đẹp -0.009713131 0.008555373 -0.00631996 0.004993002 0.0028371068 -0.008174035 -0.0029335583 -0.005150385 -0.0044344487 -0.0054213745 -0.0042621833 -0.011008746 -0.0065510496 -0.0004990073 -0.001661809 0.011260251 0.0008265975 -0.01123653 -0.00021162731 -0.005189308 0.0060518566 0.0010975841 0.012215432 0.007888727 -0.0028667317 -0.0016248986 -0.0018409877 0.0036646202 -0.0074826023 0.006643714 -0.008696852 0.0076592327 0.005296209 0.0065570613 0.004160104 0.008572358 -0.0052631423 0.0019459743 0.0031647335 -0.0021846844 -0.008623385 0.00031013452 -0.0073026814 0.007834176 -0.006822375 -0.008258077 0.008219952 0.009177803 0.00023038794 0.0069772233
chơi -0.009655624 0.008101519 0.0018503079 -0.010967583 0.0048644 0.011230069 -0.0005106926 -0.008974324 0.0012571549 0.0038895796 0.0045322184 -0.006134242 -0.009465656 -0.008903642 0.0059303725 0.003247279 0.004305081 -0.00049644546 0.008696367 0.0075959484 0.0075594117 -0.0069451034 0.008781301 -0.002677438 0.0063046184 0.008360073 -6.8423054e-05 -0.003298641 -0.0060900142 -0.0012703425 -0.001987361 0.008555892 0.0031479169 -0.007808917 -0.0001077047 0.0071859504 -0.008926276 0.00835811 0.0023255292 -0.0031057629 -4.4850767e-05 0.006971902 0.0046084 -0.0046040886 -0.0033326647 0.009681575 0.0023671873 -0.006906888 -0.0019161971 0.0050263763
rõ 0.0005892069 -0.0033436483 0.0045245807 -0.004448309 0.0055722864 -0.0037914515 -0.0052764644 -0.0013871236 0.006954953 0.002362745 -0.0036224993 -0.00028512458 -0.0016556422 -0.0043571764 0.0020447192 -0.00079775555 0.005919396 -0.0031488144 0.0011611413 0.006437341 -0.0044719223 -0.00855648 0.0061264327 0.010821085 0.006327314 -0.005510553 -0.0038683128 0.0036175903 -0.0048660953 -0.009403053 -0.000985937 0.0042505153 0.007283837 -0.00063872925 -0.003481693 -0.0061690933 0.009132326 -0.0074839573 0.0060618646 0.005997862 0.004359133 0.0052898503 0.007873367 0.00020405067 -0.0030895062 -0.0035064567 -0.007758436 0.00019476919 0.0009753833 0.0023496721
tìm -0.00897309 -0.0012254148 -0.009946906 -0.010826719 -0.0046859276 -0.0050729346 0.010464747 -0.0013234974 -0.006373459 -8.532995e-05 -0.00729746 -0.007438252 -0.0077712703 0.006402121 -0.0039140666 0.0058872155 -0.004558524 0.007516109 0.0039210627 0.0010784445 -0.005808182 0.0072086654 0.009832262 0.005402342 0.002082844 -0.004244192 0.0073425993 0.0014795378 0.0018291317 -0.0076025473 -0.002429312 0.006694637 0.0016811929 0.006520728 -0.0026897097 -0.008374291 0.0056810253 0.0053470647 0.002453142 0.0022052312 0.009003304 0.00810987 -0.0015066402 -0.002980348 -0.0011147367 0.008777397 -0.0031002373 0.0005455145 0.006389474 -0.0095067015
nên 3.1158706e-05 0.0066765463 -7.176091e-05 -0.0024769402 -0.0073766974 0.006815649 0.009834179 -0.008794983 -0.00474039 0.010550852 0.007931492 0.0015571866 -0.0041467794 0.0052820668 0.00031614903 0.010841264 -0.0086279 -0.011454399 -0.0093371365 -0.007931325 0.0065045375 -0.005407862 0.004465432 0.01034653 -0.007233647 -0.0022162392 -0.006743219 0.008760222 0.0069795866 0.0070845247 -0.0020426551 -0.009130893 0.010843315 -0.0071912664 0.010010112 -0.0034210607 0.0050488645 0.011256848 -0.005159116 -0.00954851 0.008380489 -0.0017728495 0.007229313 0.008926116 0.009832026 -0.0063036727 0.0028929596 0.009533728 0.009695745 -0.004849004
thử -0.0014264743 -0.00476132 -0.0042679724 -0.0068340106 -0.002185799 0.002592078 0.010367178 -0.0014486132 -0.009175031 0.002108374 0.009046529 -0.0011685287 0.001367726 0.008194364 0.003921154 0.0071473843 -0.00365964 -0.0056047775 -0.0062207924 -0.0015552056 0.007771554 -0.00040193557 0.005253123 0.0030433445 -0.0031961119 0.0043740165 -0.009308648 -0.0048601613 -0.009052441 -0.010683665 0.0012445819 0.009008284 0.00094580825 0.008028343 -0.0040222225 -0.0059579434 -0.00016061055 0.0015649524 0.0007886953 -0.0005840663 -0.0061392942 -0.0076458976 0.004348602 -0.009523541 -0.0023293353 -0.00090291374 -0.003964306 -0.0007808476 -0.008466731 -0.0058906088
đánh 0.00084821484 -0.008374817 0.00813915 0.0026564929 0.007845983 -0.0030242773 0.007527285 0.008954937 -0.0012511105 0.0003126583 -0.0072483495 -0.01221488 -0.006399915 -0.0036417677 -0.011815254 0.002880765 0.0023614282 -0.006704946 0.0017137566 -0.003288538 -0.008484745 5.3520016e-05 0.010950737 -0.0020282734 0.004253213 0.0040614614 0.002565954 -0.010664446 -0.007859898 -0.008856954 -0.006308204 -0.008859471 -0.002158575 -0.0071502696 -0.007493935 0.009985561 0.005450611 0.005047059 0.0073254816 0.00070390495 -0.0030697668 0.0022363202 -0.0008835316 0.0037800702 -0.0026832724 -0.005162756 -0.005964725 0.010705514 -0.0045849294 0.008691887
