779 50
cậu -0.0038355177 -0.0010917435 -0.004403416 0.00082558574 0.006213559 0.012577272 0.011118686 0.0044378582 0.008097502 -0.009851991 0.013900473 -3.0684594e-05 -0.010912815 -0.010665518 -0.009776235 -0.005614851 -0.008373803 -0.0040494394 -0.0140574 0.017497653 0.0053223795 -0.0021264644 -0.0140998 0.023787186 0.0005773785 -0.0021522448 -0.004930032 -0.0075409007 -0.0013138074 -0.002099456 0.015087621 0.0075140614 0.0015296768 -0.013634365 -0.010115977 0.013478166 -0.0111616235 -0.0020298334 -0.014344465 0.011674262 -0.015179983 0.0035062896 -0.014417498 0.0019965803 -0.011847212 0.014168381 -0.011191035 0.0004852318 -0.007468499 0.012378641
tôi -0.014167951 0.007924355 0.0056010755 -0.007136116 0.008285735 0.00907811 0.0046400866 0.0025810215 0.013313283 0.0014945356 0.006385265 -0.010307431 -0.010177154 0.0036643408 0.0049323905 -0.005795347 -0.018182702 -0.0063352804 -0.012989359 0.018477337 -0.012080412 -0.0139486445 -0.013806503 0.0035846245 0.011195229 0.0047681006 -0.008821651 -0.0037334554 -0.0058605564 -0.00037727205 0.014410993 0.0037078543 0.005390345 0.0040098582 -0.004356564 0.0118268365 0.0026600498 -0.011058229 -0.002903235 0.005903672 -0.013305397 -0.00023717064 -0.0004196821 -0.0014846039 -0.00241608 0.01143314 -0.013817509 -0.004755195 -0.0127593465 -0.007258753
không -0.012190793 -0.0007612474 0.005274198 -0.008469456 0.012359447 0.010558891 0.011539868 -0.0031693827 0.010451052 -0.004625326 -0.0007391189 -0.014285737 -0.0073057488 -0.00602297 -0.006618032 -0.0075051645 -0.0050939005 -0.005676518 -0.00913951 0.0073006647 -0.011101793 -0.013454421 -0.01333414 0.0020299398 0.0024746922 0.0020375461 0.00088863063 0.0005861382 -0.0057347156 -0.0037399197 0.0086126765 0.004836354 -0.011234409 -0.003058601 -0.0004206471 0.006404275 -0.0009524924 -0.0041856463 -0.0026491666 0.0045342227 -0.011337695 0.00227925 -0.0022954983 0.003113068 0.0016640031 0.0016179004 -0.0008974094 -0.008263888 -0.009397254 0.009850371
gì 0.0050780247 0.0076492974 -0.0048037027 0.00467154 0.009491255 -0.003984203 0.0011418567 -0.001415485 0.005453419 0.008000861 0.0025772722 0.0064667673 -0.0061666123 0.0033166204 -0.002523995 0.0037890528 -0.0036798615 0.006398881 -0.00805854 0.01393736 -0.008404443 0.0012139332 0.006969915 0.016838895 0.001981642 0.0013392415 -0.009917863 0.0069046426 -0.009724364 0.004905876 0.006214708 0.008388754 -0.0048186034 0.004159082 -0.011236487 -0.0022093798 0.000117118456 -0.0014187908 -0.007281492 0.0060045416 -0.0040032645 -0.005689263 -0.0019312283 0.007611895 0.007779026 0.004959528 0.002635792 -0.0018777272 0.0013535965 0.0025067865
có -0.0073150736 0.006976262 0.0033001052 0.002868872 0.011457352 0.0035595233 0.007436775 0.0018820764 -0.0012732507 -0.008029389 0.004268302 0.004957141 0.006372587 0.0046345047 -0.0064806817 0.0005746086 -0.012568175 0.006546815 -0.0014619498 0.011590949 0.0019166718 -0.010263416 -0.008544572 0.00925998 0.00075087446 -0.0034179876 0.00456126 0.0067796763 -0.004558165 0.0071732104 0.0030776002 -0.00062401313 0.005953005 -0.00965604 0.006173784 0.0026223194 0.0061443117 -0.0122783175 -0.008350413 -4.4731612e-05 -0.010384428 -0.002318466 -0.008513568 0.0018419686 0.0029040442 0.010143905 -0.010618496 -0.002523322 -0.0040915436 0.008196252
là -0.014708074 -0.003715062 -0.0039408035 -0.0100202635 0.0007465268 0.009474903 0.0026947146 0.004160162 0.0014175512 -0.008784031 0.010482593 -0.006462513 -0.00078553567 0.006957936 0.004231794 -0.0024149565 -0.003956161 -0.00074657315 0.0057139313 0.01852495 -0.011107231 -0.010266381 -0.0032072598 0.02034404 -0.0066575473 -0.007829479 -0.012065584 -0.002738576 -0.0099101635 0.007844463 -0.005363456 -0.0021316395 0.0020710113 -0.008043466 -0.0014546964 0.013570741 0.0014861005 -0.015132462 -0.008971065 -0.0007636698 -0.016612956 0.011022201 -0.019041155 0.004791427 0.0076759523 0.01430976 -0.014344591 -0.0012749159 -0.011424592 0.009143945
được -0.008556098 -0.004929464 -0.0011693295 -0.0039267605 0.00201335 0.011493753 0.009267145 -0.008058701 0.0072381087 -0.009493879 0.0068953237 -0.0065189013 0.0013230098 0.0021296563 -0.007084937 0.0020156412 -0.0053901984 0.0025380752 -0.012048552 0.00644846 0.0073566795 -0.015090481 -0.009146798 0.017004855 -0.0011279974 -0.010165976 -0.0030662962 0.009779558 0.001566764 0.011093966 -0.006410728 0.011281308 -0.006667326 -0.0058337883 0.0028243044 -0.0042982036 -0.007815179 -0.0019418449 -0.0052577644 -0.004854977 -0.011077647 0.0061857705 -0.008114767 0.011193339 -0.009819927 0.011592998 0.00037219393 -0.007587744 -0.008977222 -0.002915917
rồi 0.0005273315 -0.0070224414 -0.0038374248 -0.0011443715 -0.0068980707 -0.008348234 0.006533991 0.0016901065 0.010963756 -0.010881984 -0.005641142 0.0028077937 0.0056753024 -2.0632691e-05 -0.0022257983 -0.0127427345 -0.011680557 0.005147871 -0.009256627 0.008089613 0.0009775803 -0.013024801 -0.0081548095 0.00433721 -0.007483351 -0.005298144 0.0027608715 -0.008630911 -0.006603513 0.00093612063 0.0051046894 -0.0011455658 -0.00454907 -0.0062135872 4.2692613e-05 -0.00058911485 0.006366703 0.0032090072 -0.0050729737 0.007959918 -0.011786351 -0.005975967 -0.015535768 0.0028531188 0.00090307783 0.01380703 0.0019114792 -0.0019496107 0.0017933251 -0.0037304598
thế -0.012994919 0.006378708 0.0043845875 -0.0025123977 0.0071805874 0.0054068225 0.00784698 0.0043799276 -0.0011963433 -0.0030286987 0.00096033723 0.005932282 -0.002091432 0.00039860504 -0.0004546488 0.0012236448 -0.0044199773 0.0011032737 -0.010850977 0.013827373 0.003447484 -0.014740983 0.00086013775 0.007946955 0.011206096 -0.004907042 -0.011844316 -0.006428274 0.009211531 0.004294328 -0.0015541097 0.008542447 -0.009760279 -0.002005725 -0.0013770654 -0.005758041 -0.00067814847 -0.011131978 -0.004910479 0.010939701 -0.0057028006 -0.0027440907 -0.0047848364 -0.0049411724 -0.0050538713 0.0043625687 -0.01320398 -0.008993259 0.0041262913 0.0009568428
tớ 0.00022941249 -0.005284537 -0.0025222609 -0.0079061845 -0.005068259 -0.002490477 0.004110968 0.008380755 0.0020217143 -0.0046295114 0.005730059 -0.0106230145 -0.0056353444 -0.007541907 -0.0014524431 -0.011142011 -0.0057639396 0.0014197889 0.0053613754 0.01608357 -0.0057340814 -0.0018013978 -0.0045014904 0.0087662665 0.0029502339 0.0010459102 -0.0023478393 0.007234625 -0.0012599453 0.0022877539 0.011526482 0.015825897 -0.010762462 -0.0042389436 -0.0011498902 0.012194729 0.0041914065 -0.0140101705 -0.014139351 0.013904755 -0.0027413864 0.00076670677 -0.0073598647 0.0035595782 0.0032452003 -0.003754147 0.0018522778 0.0015471745 0.00070569845 0.0008517094
sao 0.00692559 0.00470317 0.009310328 0.0055999984 0.00842183 -0.005767991 0.011283398 -0.005870181 -0.008056841 0.008724245 -0.0032462955 -0.0015695941 0.00020603517 -0.0073616006 -0.0016950828 -0.0076742284 -0.009854135 0.008112456 0.00031913287 0.012372994 0.006252114 -0.006538227 0.0074265036 0.012001426 0.004881917 -0.01118673 -0.009555618 0.0044659767 -0.006541528 -0.005583886 0.0023595775 0.012901184 -0.0061133755 0.00073586946 -0.0028332076 -0.0016835775 0.0065673743 -0.011854805 -0.01140512 -0.0040447153 -0.008439476 -0.0054256017 -0.00033788275 0.0058222353 -0.007575026 0.0092248265 -0.005658276 0.0005696566 -0.0016670071 0.005698273
đi 1.9573341e-05 -0.0064774076 0.0051681623 0.00089412223 -0.006983846 0.0098234555 -0.0005163056 0.0070475987 -0.007652806 0.00020385138 -0.0004892279 -0.0074395016 -0.006930847 0.006580706 0.008551355 -0.0008062134 0.0038179522 -2.6134883e-05 -0.004303162 0.005756285 0.0045867236 -0.008576075 -0.006677668 0.0040869103 0.0018616006 -0.008347979 -0.009273695 0.0070259706 0.0022097763 0.0045307004 0.0056493334 0.010021602 0.0055400906 0.0043347306 -0.007353673 0.0053258375 0.0008971448 -0.0022609879 -0.012274142 0.0030316564 -0.014152695 0.004348212 -0.0041802083 0.0014102716 0.008023166 0.0126546305 -0.004875389 -0.011134255 -0.002204176 0.003853421
phải -0.0056532887 0.00543466 -0.0027999915 -0.0030997691 0.00063389743 0.0026802553 -0.006582954 8.865829e-05 -0.0063818484 -0.009904357 0.0010982413 0.0033556821 0.00092070136 -0.007688097 0.0067775175 0.0048104622 0.00044727663 -0.005801641 -0.005202884 -0.00022174034 0.0012317472 -0.007402429 -0.011278525 0.0005936017 -0.0009463066 -0.00604591 -0.0038170763 0.008266734 -0.0032338703 0.009000812 0.008998535 0.0136273615 0.004236612 -0.012560819 -0.009024382 0.0038375359 -0.0098784 -0.0068954364 0.004737225 0.0074573206 -0.003354464 -0.005561844 -0.0065186373 0.0010564593 -0.006105332 0.0091739865 -0.008954706 0.004424638 -0.012267505 0.003873938
nào -0.0013451311 -0.0063378224 0.000681173 -0.0069380538 -0.0041165454 0.0015080959 0.0113668805 -0.0015560755 -0.0061746165 -0.00990935 0.010590962 -0.0066151037 0.0069481167 0.0020117834 -0.009639716 -0.0075076534 -0.0077844276 -0.0053328318 -0.0060324273 -0.005025917 -0.0059533985 -0.008455105 -0.01226431 0.013291433 0.0067973896 0.003830876 0.0049991217 -0.0059530283 0.0066309893 -0.005847913 -0.001709291 0.0137593765 0.0037836083 -0.003500966 -0.008174313 0.0069156033 0.0021883491 0.00016651498 -0.0037141 0.009643398 -0.00397101 0.0051765684 -0.005976881 0.011534249 -0.0063398527 0.011601979 -0.009298474 -0.0060897577 -0.013443603 -0.0037142674
vậy -0.0013746535 0.00096000894 0.009009121 0.007827289 0.0033379046 0.0011079939 -0.005305402 0.007939283 0.010608493 0.0047516776 0.0038135082 -0.0077357716 -0.0023347877 0.008790385 0.004894371 -0.002420393 -0.013215304 0.00040011297 -0.0021692608 -0.0024469476 0.0069700046 -0.0049699317 0.0029482923 0.012965888 -0.0034560745 -0.0073577603 0.00688583 0.0072243954 0.008280538 0.0019118963 0.0019281743 0.010085743 -0.005449071 -0.0056984047 -0.0016483783 0.005045143 -0.010939652 -0.010550402 -3.1050688e-05 -0.00061651354 0.0053328364 0.010722451 0.0034975375 -0.0004802439 -0.005040355 0.001568056 0.0005660233 0.0029272975 -0.008897575 -0.008660882
đây -0.013133737 -0.0024625997 0.005406493 -0.004692968 -0.006679682 0.011564405 0.006160037 0.0032281692 -0.0012440823 -0.006243127 0.0025098936 -0.011636982 -0.00045161857 0.0015412176 -0.0032201093 -0.007977367 -0.015027528 -0.0062787887 -0.0035389697 -0.0030012247 0.008222607 -0.010357521 0.0033510893 0.01151094 0.0014023749 -0.0041843 -0.011208007 0.0018033738 0.0048758113 -0.0011559515 0.0044262754 0.0007015315 0.005948799 -0.009480346 -0.0048851282 0.002299102 0.0031702416 0.0050365147 -0.004172361 -0.0033073747 -0.011188183 0.0048453147 -0.0038231777 0.009199595 0.006225171 0.00082935515 -0.00854137 0.0056773312 -0.008263644 0.0047454443
ở 0.00508619 0.0011138769 0.00829111 -0.011286696 0.008040341 0.007841567 0.0041627213 -0.002430102 -0.0011135493 -0.0041659744 -0.004821891 -3.317952e-05 -0.0017458872 0.005977967 -0.009418187 -0.0014741684 -0.010072606 0.0045433985 -0.000744432 0.012162036 -0.0063111717 -0.00091500074 -0.012060787 0.013462733 0.003193095 -0.0032514774 -0.0033802981 -0.0031417352 0.0063299397 -0.0055118604 0.002045787 0.011321213 0.004433969 -0.008440018 0.0066492897 0.00030761666 -0.01315224 -0.008344311 -0.00827662 0.008690406 -0.017057026 -0.003851249 0.0007900576 0.0041534733 0.008391593 0.004112907 -0.007587523 -0.011952571 -0.009261111 0.0028762014
biết -0.003838369 -0.0003222763 0.002883573 0.002619631 0.0030704315 -0.007165919 0.0022899592 0.0017435696 0.011861943 0.008000783 0.006624255 -0.0012574812 -0.010706632 -0.002283114 0.004314157 -0.01047678 -0.015007273 0.004626537 -0.003357401 0.00030075051 -0.00496103 -0.010588106 -0.003291006 0.00859258 -0.0069629713 -0.011780503 0.0044081057 0.006621634 0.00019572441 0.0019460641 0.00013297067 0.005562138 0.007743064 -0.004765008 -0.0009049246 0.0136547275 -0.008633408 -0.0056894985 -0.0060277088 0.010408952 -0.013050692 -0.0016523495 -0.0030602207 -0.0055602863 -0.009805675 0.001416575 -0.010243453 -0.0070426017 0.0053103557 0.0060194014
làm -0.013054235 -0.000660656 0.003946758 -0.00035536205 5.204632e-05 -0.0020493967 0.00974168 -0.009498727 -0.00014861242 -0.0038373477 0.0069128694 -0.0067632804 0.004951993 0.004098909 -0.0054001776 -0.011379157 -0.0024593477 -0.0011246536 -0.0021568043 0.00839597 0.0062275873 -0.008947583 -0.00021870146 0.01610762 -0.001586332 -0.0035413154 -0.0069433977 -0.003227308 0.00038363456 -0.004931876 0.00027344405 -0.0014973736 3.737572e-05 -0.012743075 0.0033248386 0.012274747 -0.010483322 -0.010763923 0.005495447 0.0020622036 -0.01169482 -0.0049986825 0.0042032907 -0.00812167 -0.0008842768 0.0012349522 -0.014005427 0.0006896714 -0.00813023 0.010402149
nói -0.0056163617 -0.00579553 -0.00677987 0.002086086 -0.0071078236 0.005250751 -0.0034531413 -0.0070029153 0.008302726 -0.0020018856 -0.004853458 -0.010412072 -0.011427941 -0.0012474529 0.0067902235 -0.0075847465 -0.0099109 0.009401433 -0.006833726 0.0050192876 -0.010056932 0.004037998 0.00508529 0.007166382 -0.0056505767 -0.011775263 0.0056360234 -0.004963232 -0.009099373 0.010370686 0.009948798 0.0067397645 0.0077698464 -0.009873591 -0.0017975125 0.00660199 0.006774812 -0.0035655033 -0.0072268867 0.0073945634 -0.014681999 -0.0023293255 0.0032355434 -0.0026057286 -0.002769256 -0.0060705836 -0.008717697 -0.0019386297 -0.004216462 -0.00047869547
muốn -0.012550668 0.0014090742 -0.0034537737 -0.0041908906 -0.0025040498 0.00696649 0.0029169093 -0.009620917 0.008954348 -0.0010750886 0.010496604 0.006171606 -0.007530939 -0.0064147343 -0.002785557 6.6821165e-05 -0.0070832004 -0.00830622 -0.007113716 -0.0011456124 -0.0011485374 -0.0038680336 0.0012338923 0.013286799 -0.003972412 -0.011368612 -0.0052570775 -0.001113017 0.009468795 0.0075000054 -0.00013183446 -0.0020508806 0.0054357816 0.003466037 -0.006319664 0.0129438555 0.006509296 -0.0050895317 -0.011543164 0.010595288 -0.013007275 0.0059936494 -0.0031744088 -0.0077816006 -0.0036025555 0.01359051 0.0031225218 0.0021169742 -0.0071133994 0.0019140448
đó -0.012747994 -0.0050315834 -0.0024490112 -0.001626909 0.0053139054 -0.008298545 0.01006606 -0.0055909604 0.009060905 -0.009486993 0.01165194 -0.008996385 0.0066863527 -0.010242243 0.009731703 0.006524745 -0.003423327 0.0028469146 0.006880585 0.0012716538 0.00546385 -0.012843519 -0.007865218 0.0010366343 0.0100893155 0.0067026606 0.00620933 -0.005347784 -0.009834098 0.008450818 0.0030699167 0.0020733732 -0.0016598797 0.0053603053 0.0049664644 0.0037655043 -0.0047628754 -0.0035007626 -0.010079075 -0.0029337273 -0.010460077 0.010046264 -0.007331374 0.009908349 0.007394622 0.005654737 -0.013237351 0.0037039919 0.0003399419 0.00047576422
cho -0.010767017 -0.00069330214 -0.00070815784 0.0072908024 0.0118995495 0.009646944 0.0018994369 0.0066421805 0.004017698 0.0019663176 -0.0025108806 -0.006874406 -0.012314599 0.0008521587 -0.008423335 -0.0059917094 -0.0008021264 -0.005546368 -0.0014051769 0.008272454 0.004945029 -0.013787012 0.002466532 0.0015513003 0.010164713 -0.0011445313 -0.0012400515 0.008590895 -0.0013836762 -0.0026468246 0.011869717 -0.0013847516 0.0046341717 -0.0020786463 -0.00094317563 0.0010447024 0.005009679 -0.00039170112 -0.008897961 0.012121021 -0.008644042 -0.00063164905 -0.004080581 0.009118338 -0.0028311703 -0.0008115341 -0.011162427 -0.012194138 -0.009672835 -0.0021484585
đã -0.0020646213 -0.0076458934 0.0056583774 0.00036102606 0.0043221875 -0.004575137 0.008079357 -0.0041189278 0.0075298552 -0.000153866 0.0012840324 0.0026035625 -0.008366795 0.0032006581 0.007396619 -0.005302877 -0.00096804125 -0.00039564408 0.00633995 0.0025679045 -0.00083196245 0.00040607975 -0.0052595125 -0.0011573696 -0.0028728102 -0.010645693 -0.006295992 -0.0066565988 -0.008074056 0.0063443463 -0.0025414848 -0.0034120274 -0.010195769 -0.0028293824 0.0006821429 -0.0046639773 -0.0014876225 -0.010145776 0.0014226084 0.0025878542 -0.013842011 0.0061199246 -0.012510703 0.004307987 -0.0052639637 -0.0016229897 0.0028237842 -0.007886613 0.002206357 -0.0068833195
của -0.00071555073 0.005920133 0.011921062 0.006235011 0.0013093939 -0.006462769 -0.0034195841 -0.007286339 0.006711325 -0.005138332 0.013742066 -0.012386141 -0.00504361 0.0053736973 0.0016144349 0.0039471174 -0.01128642 0.009859038 -0.010242584 0.0041534044 -0.0003221819 -0.0027993657 0.0045195045 0.008275207 -0.0005292929 -0.009166269 -0.0114966165 0.0040191766 0.0015340574 -0.005836628 0.007490312 0.00087976456 0.0025190369 -0.008767347 0.0016725298 0.00062547124 -0.013082862 -0.015109187 -0.0036053194 0.001400934 -0.006927135 0.005453298 -0.0035437692 -0.0013875494 -0.010754256 0.0071407403 -0.014349642 0.003422796 -0.0146144545 -0.0024776224
đâu -0.007707293 0.006776683 0.0048303846 -0.0026455515 0.001388502 -0.00048082336 0.0084883645 -0.005676875 0.007368849 0.008500577 -0.0022066806 -0.0010686094 0.0026058897 0.0052916533 0.002929297 -0.008707002 0.0010504031 -0.002638652 -0.0011491787 0.013661198 -0.010515765 0.0030224305 0.00013674807 0.014998467 0.0028262343 -0.002873288 0.0055925087 0.002556985 -0.00706634 -0.0059187 -0.0039997785 0.0040299986 -0.006896556 -0.012450378 0.0030838493 0.011362963 0.0013804374 0.005792378 0.0021609718 0.0037193233 -0.015057427 0.0020124358 -0.0037796753 0.008824956 -0.010510608 0.0034052336 0.00440724 -0.005866091 0.0008074217 0.0013324401
thôi -0.009501574 0.008190469 0.008729199 -0.009484812 0.009662034 -0.0058757495 0.008501294 0.008331927 -0.0015091571 0.007858484 -0.0041005267 -0.011666482 -0.00095147436 0.0035027552 0.00090642675 -0.010351195 -0.008406432 -0.0037652245 -8.6547836e-05 0.011657454 -0.007786229 0.0034863737 -0.0007574288 0.00990755 0.009257304 0.0066364747 -0.00024553508 -0.0074124443 0.002890317 0.00049001945 0.0014049829 -0.0038965533 0.0052016806 -0.010056227 -0.0061322846 -0.001583369 -0.0033323928 -0.002983158 -0.007356562 0.010561977 -0.003961127 0.00739701 0.005042662 -0.0028164461 0.0016090041 -0.007126548 0.0038189485 -0.010678217 -0.004370527 0.002026481
đấy -0.010847194 0.0017917957 0.0029977644 0.0014519106 0.0044104923 -0.0043899836 -0.0051881224 0.009353019 -0.00066450157 0.0006080419 -0.004940934 -0.012862329 0.007294709 0.0073508867 -0.0099435 -0.0026126816 -0.008452658 0.0035970334 0.0061750263 0.0014310373 0.0065119304 -0.006196614 -0.008513504 0.011621581 0.0010011437 -0.008211027 -0.0009875488 0.001458969 0.0016294997 0.004580329 -0.004686577 0.0023291693 0.0006337454 -0.01255018 0.0050021713 -0.004746542 -0.00040048113 -0.0038770663 0.00093849667 -0.00038233015 -0.013275894 -0.0028900167 0.0046795043 -2.8336573e-05 -0.0026438297 0.011174581 -0.012068697 -0.0065328595 -0.010660153 0.008054251
một -0.003447892 -0.007298548 0.0021351273 -0.00020650112 -0.0069988254 -0.008138365 0.0097157005 -0.008551861 0.010408807 0.008535444 -0.005044562 0.0033307667 0.0065200916 -0.0038548848 0.00412358 0.006219713 -0.0040104818 0.0038890203 -0.0021829132 -0.0006637749 -0.0026059959 -0.0055811987 -0.0021442755 0.0122400215 0.008672691 0.0050935973 -0.0033371216 -0.00991932 0.003889949 0.008005931 -0.0037592351 0.0038137038 -0.005828301 -0.0053703287 -0.0031633168 0.0014626695 -0.0088917855 0.0019263 0.005321418 -0.0038128963 -0.009408336 -0.0064381026 -0.014797456 0.006380931 0.006101586 0.0010117611 0.0046554403 -0.0060024597 0.0047924775 0.004008447
à -0.008090759 0.0058994065 0.0037992862 -0.008547746 0.010398868 0.0029955672 -0.0075317943 -0.0032472932 -0.00071617257 0.0069106314 0.004250196 0.0029840842 0.0045270757 -0.009425567 0.00084562245 -0.002120887 0.004214677 0.0070188004 -0.0004901602 -0.005434703 -3.0614046e-05 -0.0077084815 -0.005174804 -0.0019603535 -0.0070320694 0.0043484257 -0.0028118684 0.0064023426 0.007291973 0.0021472068 0.005728783 0.0005429985 0.008002872 -0.004211999 0.0069583063 0.006170116 0.0028295347 0.004337832 -0.00387067 0.004735225 -0.004023893 -0.004271365 -0.007909815 -0.0022364378 0.007029804 -0.00048817598 -0.0064785006 0.0071343053 0.0060885674 0.0063811485
sẽ -0.0103604635 -0.0019008305 0.00013996803 0.0019685605 -0.0042019696 0.0057211136 0.0068998374 0.0064979265 -0.005434391 0.0025281052 0.0005791108 -0.008268933 -0.0048487093 -0.00417494 5.33513e-05 -0.0052438653 -0.00089961727 0.005794934 -0.003342802 0.013940027 0.008466743 -0.010368501 -0.006713694 0.014212106 0.0027794426 0.007109383 0.005484985 -0.008132954 0.003380052 -0.0047145435 0.002196112 0.00685854 -0.0062066386 -0.013600842 -0.00872635 -0.0006437494 -0.003912885 -0.0009893614 -0.013786875 0.012852991 -0.0014512436 0.0057931705 -0.00794892 -0.004334794 -0.007426964 0.0073141567 -0.006672542 -0.011745587 -0.0014552893 -0.0029119754
nó -0.004512034 0.0047861715 -0.00026845367 -0.0024134128 0.003420218 0.011495795 -0.0058890865 0.006965367 -0.005470279 -0.0008140264 0.0039568422 -0.002023866 -0.0012484739 0.006537926 0.006397197 0.0062902467 -0.0056709195 -0.006377337 -0.0060929814 0.0028533384 -0.002183786 -0.013411482 0.0032951878 0.01312394 0.010293335 -0.011254581 -0.0016182899 0.008089297 -0.003947431 -0.0005418527 0.0051747137 0.0074467207 0.002479919 -0.005389501 -0.00038610882 0.002217265 0.0006856658 -0.006204499 0.006198404 -0.007009581 -0.011617112 -0.00050921476 -0.014452897 -0.0049132695 -0.0021510003 0.009763601 -0.0029426683 -0.011293871 -0.013678575 0.007311696
thì -0.0044071665 -0.0004320816 0.0035749169 0.003456786 0.0052118013 -0.008405746 0.0006915727 0.0016604703 0.0012466069 0.007675629 0.011451707 -0.012330442 -0.0067313435 0.0056035877 -0.00036581946 -0.011299712 0.00178527 0.0009044601 -0.0085089775 0.011994353 -0.009580645 -0.014623087 -0.003568931 0.011348876 -0.0063654305 0.0016489091 0.0050792247 -0.0017348538 -0.009986147 -0.005171107 0.006602974 0.0020009244 -0.008370594 -0.010824683 0.0018698408 0.0047875666 0.0059607807 0.0039391387 -0.010008327 -0.0030214041 -0.015140411 -0.0012683485 0.0030926163 -0.0042889095 -0.0043973876 -0.0048035197 0.0006893004 -0.010197892 -0.009321152 0.0073731947
chuyện -0.00055820984 0.007877411 0.009050022 -0.011192229 0.009808189 -0.006650571 0.005481183 0.008336963 0.0009452204 -0.008817625 0.001393688 -0.011446341 -0.0067365514 -0.009146506 0.0062985336 -0.001719029 -0.0042770966 -0.0049594133 -0.010349792 0.006079877 -0.0023995375 -0.011505028 -0.008816872 0.014409183 -0.0030227578 -0.009676471 0.002790749 -0.0034858093 -0.010245144 0.004451832 0.0078203045 0.008041392 -0.009351667 0.0018150304 -0.008423385 0.0055557406 0.0034795715 0.00017950554 0.0039201854 -0.0036958456 -0.0022412976 0.0032060747 0.0012916019 0.0108239995 -0.004045762 0.01069307 -0.0027864221 -0.009270226 0.00051532727 0.0029230183
anh 0.004240876 -0.0067541157 -0.00020024853 0.001482165 0.0057893055 -0.0020353582 -0.0052954056 -0.0030064664 -0.006801138 0.006082873 0.009986124 -0.0031481078 0.0025642775 0.0033596682 0.004347053 0.006370742 0.0002128808 -0.00803177 -0.0041037486 0.007339466 0.0064328075 -0.013674358 -0.001457635 -0.0039515076 0.005720781 -0.001784517 0.0012541537 -0.0070679537 -0.0013897883 -0.002081189 0.007786579 0.0017025818 -0.009827791 0.0029153032 -0.010323516 -0.004376002 -0.0064557074 -0.0058525805 0.000118370575 -0.0046641864 -0.010565371 0.0010461699 -0.013453959 0.007190274 -0.005780653 0.012242476 -0.012770744 0.00068985997 -0.0070865755 -0.004998202
còn -0.007955729 -0.009558762 0.00037318896 -0.003127078 -0.0019617344 -0.0015055649 0.006237955 0.0038898815 0.0030949172 -0.0080521405 0.004657201 -0.009133375 0.0051528057 -0.002947937 0.007287636 0.002772144 -0.00787035 0.010666346 0.0019797883 0.0154852485 -0.00784696 -0.013757971 -0.004382534 0.0076132216 0.007755476 -0.007981582 0.008373235 0.0055081984 -0.0043771076 0.004557143 -0.0043551372 0.014252125 0.00010666342 -0.012982456 -0.0058905133 0.008818521 -0.0060553607 0.005765347 -0.0036081427 0.011300959 -0.007314571 0.0018357263 0.0024032157 0.008539824 -0.010075865 0.012581682 0.0030779524 -0.0025323129 -0.012926862 -0.004976617
này -0.012911464 0.001820461 0.008797948 0.0038730635 -0.0014935714 0.009006719 0.007195101 -0.005822208 0.010195087 0.006732434 0.0039190566 0.0054964754 -0.008031011 0.0063977726 0.006935327 -0.012409428 -0.013178303 -0.0011878974 0.0011671043 0.0016571889 -0.010226806 -0.006677045 0.005451757 0.015424329 0.010874707 -0.010695269 0.006397514 -0.00016428348 0.009404038 -0.0037128597 0.0072393944 0.003482007 0.0061591985 -0.012281457 0.00425975 -0.0036411213 -0.003772145 0.0026531576 0.006045007 0.007221564 -0.008183845 0.0012807354 -0.011400965 -0.0045359447 -0.0044009397 0.008600185 -0.005943052 -0.013403896 0.0042368104 -0.0067912126
cái -0.012523241 -0.005265196 3.4059376e-05 -0.006880798 0.00326244 0.008675584 0.0067018312 -0.009570623 0.011358733 0.008400203 -0.0026179766 -0.00027098294 -0.006756424 0.0042459248 -0.006458662 -0.0065944428 -0.007905648 0.004373047 0.004566918 0.00609853 -0.009640511 -0.014146967 -0.012307335 0.00043023494 0.0078588 0.0048874347 -0.008358997 0.004789515 -0.0061460366 0.007907151 -0.0015091648 0.0060947663 -0.00027710712 -0.0060571297 0.004405195 0.012958917 0.0006520652 0.0051652333 -0.006685678 0.0008620535 -0.0062335636 -0.0072751604 -0.0036561317 -0.0055844663 0.005532758 0.009585736 -0.011064754 0.002733348 -0.012748824 -0.0021425083
người -0.006157184 -0.00062088703 0.010449037 -0.004367934 -0.0013694091 0.00058869866 0.0035613286 0.0073720412 0.011138961 -0.003979256 0.0044680242 -0.0025656242 -0.0073660314 -0.0016910463 -0.004081264 -0.009213912 0.0011131141 -0.00196938 0.0015324908 0.010700378 -0.006125816 0.003760896 -0.0067267576 0.001541026 -0.0024821144 -0.0046700635 0.0028091187 -0.006537927 -0.004410334 0.003850515 0.010433088 0.006122822 -0.010371142 -0.0072671785 0.0053811995 0.0043084417 0.0039310874 -0.012728258 -0.0052070622 -0.0022351155 0.0038362793 -0.003608991 -0.008125446 0.008055895 -0.0068985843 -0.005768265 0.0027443343 0.0019270023 0.0029236039 -0.0073239557
thấy -0.010435763 -0.0022613364 -0.0074189827 0.0031634686 0.0023823008 0.0074720033 0.010189306 -0.009581214 0.0065243305 0.007752772 0.0053166407 -0.003910559 -0.00780688 -0.007947453 0.0047235396 0.00021636604 -0.0068952916 -0.0031012313 0.0078097624 -0.0026639285 0.00021261231 -0.005065298 -0.011567858 -0.004369659 0.0030716672 -0.001856024 -0.0032789907 0.008363958 0.009252144 -0.009296768 0.011400866 0.0018073093 0.0054476312 -0.0071802353 -0.0025534532 0.0066446834 -0.0059843836 0.006862029 -0.011740349 -0.0015801043 0.005354859 -0.008849031 -0.00072438776 0.008385929 0.007364505 -0.0056119757 0.0034211108 0.0014339393 0.0062627816 0.002131586
ừ -0.005224092 0.006294441 0.0059530637 0.007830906 0.00862357 0.002023665 -0.005964643 0.0040058484 0.0017257213 -0.0019415395 0.010511172 0.0019224168 0.006253367 -0.0023999088 -0.0035922285 -0.008052689 -0.01203673 0.0037590498 -0.010700394 0.0018091943 -0.009619314 -0.0115810875 0.00040193155 0.0015028726 -0.0003346032 -0.0074916966 -0.0020310255 -0.009983832 0.008444365 0.0018063476 0.0005134567 0.008360451 0.0025722422 -0.006137705 -0.003898988 0.006298515 -0.010919314 0.0043259305 0.0065971394 -0.0049712276 0.0010450144 0.0069043348 -0.008292544 -0.004441936 0.004343561 0.007973927 -0.012205583 -0.011910604 0.0067674103 -0.007086865
rất -0.00953735 -0.008496585 0.011481373 0.0060715172 0.011350898 -0.00122555 0.010532191 -0.007814929 0.0033751247 -0.00035967838 0.01344743 -0.005597338 -0.012205835 0.008052273 0.0040930468 0.0064995303 0.0032283063 -0.0063168295 0.0034126067 0.0004301456 -0.007982383 -0.010419919 0.0038568217 -0.00044662648 -0.003801052 -0.009712842 0.006101854 0.0039483686 0.0033514844 0.008244537 0.0015169313 0.012865906 -0.009711723 -0.008822089 -0.0043682307 -0.005492732 0.0017663633 -0.0075387065 -0.010750072 0.005473486 -0.0019052307 0.0012470735 -0.012569912 0.0120980255 0.0054533323 0.012674966 0.0029049634 -0.010525669 -0.009988451 0.006283152
ai 0.0027028518 0.005146747 -0.00048302487 -0.005865896 0.008191278 -0.0027350362 0.0030179196 -0.0089477105 -0.00021523921 0.0025985506 0.0056400606 0.001287077 -0.009498692 0.002729804 0.0035402987 -0.011112116 0.0012078558 0.008325557 0.0077407323 -0.005379857 -0.001507678 -0.007517458 -0.0021602712 0.013971274 -0.0027583733 -0.0011440187 -0.007424691 0.0030631043 -0.0029110971 0.004686463 0.001759691 0.011965903 0.0054845293 -2.8778844e-05 0.0005701678 0.0042201853 -0.008205127 -0.011680811 0.0017102887 0.0045648576 -0.009471976 0.0007097571 -0.009669316 0.005912939 -0.0039543305 0.0061619156 -0.010104175 0.0006741753 0.0042324197 0.007977145
lại -0.012329118 0.0076147323 -0.0028246033 0.004798206 0.0019780684 -0.003788314 -0.006924429 0.009526058 0.0013184913 -0.009462302 0.013244911 -0.006117079 -0.012111767 -0.0032851312 0.006825406 -0.0064584496 -0.00843078 -0.005870655 -0.012422658 0.015330574 -0.00099045 -0.010417615 -0.012370149 0.017082496 0.004971745 -0.0025013606 0.007550419 -0.0034577611 0.0093465885 0.0013778318 -0.005894016 0.0011936374 0.00733351 0.005325289 0.00319586 0.006275632 -0.0059570004 -0.011054832 -0.005261939 0.0068680784 -0.006731647 -0.005123583 -0.00728016 -0.005759737 0.0068961363 0.014575497 -0.005683482 -0.007897444 -0.0062544676 -0.0033837713
cũng -0.013645531 0.0043376037 -0.0069040745 -0.0029231142 0.0059533413 0.007930376 0.0064377147 -0.008834197 -0.006503167 0.0028976495 -0.00029884483 0.0013198982 -0.00452188 0.001446884 -0.004689316 0.002295495 0.001917994 0.006189502 -0.0065298653 -0.00032538583 0.0047930568 -0.013702828 0.0043452955 0.0004247355 -0.0056883474 0.002792836 -0.01089014 0.007055914 0.0063172444 0.0038434775 0.005449546 0.014422231 0.002885978 -0.005621878 -0.009450947 0.008076514 -0.003509473 -0.009419443 -0.00034965685 0.010696984 -0.006715073 0.003508068 -0.009190494 0.010973225 -0.0006390957 0.0040434003 0.002578482 -0.0094261225 0.0037100709 0.007201717
chúng_ta 0.0012047878 -0.006938356 0.005258403 -0.003977282 0.012052053 -0.0042684716 -0.0049721524 0.0076152906 0.0032161002 0.0008500047 0.0029891657 -5.4174976e-05 -0.005820354 0.0007556721 -0.0013582387 0.0025927857 0.0009290143 0.0027405957 0.004632521 0.002173573 0.0028864972 -0.0073686494 -0.003126122 0.00032529404 0.0044271317 -0.0043739877 -0.0004845137 -0.00019000996 -0.0019110923 -0.004140264 0.008838063 -0.0022641062 0.000628316 0.006021172 0.00738608 0.0041262163 -0.00019200172 -0.010147895 -0.0065938975 0.009381056 -0.003911459 0.0065266895 -0.011370324 0.008248321 -0.0064558955 0.0014903542 -0.008959575 -0.0046034567 -0.0075285314 0.008877531
có_thể -0.009210121 0.00013137262 -0.0015274709 -0.0074769235 -0.002560532 0.009523833 0.008557433 -0.0098019615 0.002398288 -0.010588665 -0.0011297641 -0.011930684 0.0016787292 -0.00016657886 -0.0019135838 -0.011253551 -0.010803477 -0.006415919 -0.008052091 0.015164893 -0.0038974304 -0.008747787 0.0020317335 0.009723972 0.008675081 0.0026890931 -0.0074852123 -0.0036654354 -0.0036107271 -0.0054408493 0.0024066227 0.00024766216 0.008023261 -0.008073983 -0.001800612 0.01345688 -0.010469037 0.0043757968 0.003419146 0.009018802 -0.00079609297 -0.0042210044 -0.015008697 0.00895442 -0.0033011083 0.0045801736 0.0019364865 -0.006217521 -0.012258516 -0.006085864
ăn 0.0068126163 -0.0016057792 0.0015543984 -0.010714946 0.009017651 -0.0031698865 -0.0007711976 0.004348567 0.009391132 0.0072916267 0.0035235828 0.0024683783 -0.0035261034 -0.00076832157 -0.0076713427 -0.008839416 -0.008801531 0.010107412 0.00030787586 0.0019423284 -0.0076978337 0.00023847983 -0.0046765944 -0.0007318979 -0.0073301797 0.0018392293 0.0013113262 0.0012751189 0.0069496217 0.0055630542 -0.0042476454 0.0012609389 -0.00787449 -0.012032421 -0.010439505 -0.0045306226 -0.008966053 0.00259916 0.0047444603 -0.0058301096 -0.0057713287 -0.00093544374 -0.003654168 0.0003740392 0.0056991205 0.006847938 -0.012295813 0.0005057223 -0.0030176034 0.0026428036
chưa 0.0051876837 -0.009342871 0.011769381 0.0042485027 0.0070976824 0.009771733 0.0009195276 0.009584914 0.0015289773 0.0020356437 0.0022042687 -0.0018155435 -0.010931581 -0.0069385525 -0.0028807486 -0.0020891847 -0.012536758 -0.00033637576 -0.0049713803 0.010078722 0.0037022957 -0.011515462 -0.0052140513 0.0056837616 0.00094390754 -0.007830365 -0.007119149 -0.004876018 -0.005295572 0.0036988393 0.0091489125 -0.0020148149 0.0023850892 0.0008762053 -0.00526714 -0.0018025201 -0.011827316 -0.0037779144 -0.010891614 0.0006430273 -0.013695159 -0.0077612638 -0.010570128 0.0065536727 0.0035921615 -0.0021153546 0.00345253 0.0033516092 -0.012098428 -0.004943037
thật 0.0058012293 -0.004918868 -0.0027693063 -0.0033108501 0.011159587 0.010217242 0.00465417 0.008920929 0.009834136 0.0031952392 0.0066137044 -0.0008622568 -0.0022339579 0.007869447 -9.217777e-05 -0.0039258255 -0.0074804113 0.0075538964 -0.010171697 -0.0051936028 -0.002206414 -0.01190323 0.007523504 -0.0002727544 -0.0060157203 -0.0032120147 -0.0066888235 0.0076299612 0.004339622 0.0014728365 0.005645175 0.008768419 -0.0046491153 -0.0037816481 0.0003195589 0.0061802724 -0.010965099 -0.0068883942 -0.012181898 -0.0024900923 0.00068869145 0.0070471526 -0.0077703292 -0.0026787517 0.008298822 0.0124495 -0.010296222 0.00668552 -0.011013411 0.010651829
chứ 0.004357682 -0.0038342548 0.0002526802 0.006901522 -0.0007349175 -0.008233825 -0.00017339794 0.0064479387 -0.0022719281 0.00021872776 0.009403967 0.001999156 0.00074854406 -0.0037353938 0.0003250702 -0.011219435 0.0035903507 -0.0014779413 -0.0032139504 0.008887843 0.0031252536 -0.012245986 -0.0021024032 -0.003947692 -0.0061826976 0.0018191875 -0.00065821374 0.0073080542 0.0016142842 -0.0043146173 -0.006951381 0.008696887 0.007000976 -0.0077071367 -0.0058328924 -0.0050099595 -0.010797346 -0.009001606 0.00013002477 -0.0001246463 0.0017831511 0.007461643 -0.009357305 -0.0042985505 0.0018415876 0.00836997 0.0014912147 -0.0035114076 -0.009537325 -0.008267478
vâng 0.0053229365 0.009481225 0.00841918 -0.0055663786 0.009401072 -0.008751169 0.010409899 0.00080670026 -0.0045381226 0.0093616005 -0.004013237 0.005482704 0.007646029 0.00014805533 0.004025516 0.0012371559 -0.006171695 0.0035349894 -0.007657352 0.010364605 0.0031328073 -0.010859558 -0.0058359774 0.004595357 0.007742835 0.008701162 -0.0046023745 0.0041438984 -0.004061885 0.0034148062 0.009704951 0.0059783603 -0.0048917974 -0.004773031 -0.0034465007 -0.00030526516 0.0037935325 -0.007540753 -0.0057028644 0.0084124785 -0.0064875646 0.008105844 -0.006125709 0.0075492035 -0.0066467244 0.0005680887 0.00084104063 0.004929973 0.0014413525 -0.0011673258
cô 0.00011041241 0.0042881165 0.0120950295 -0.0034254612 0.008675914 0.000917358 0.0050336868 -0.0018501837 0.008606644 -0.010480223 0.008881965 -0.0076574613 0.0073174154 -0.008652883 -0.006131304 -0.0090208445 -0.015709274 0.010386825 -0.008403882 0.0021586914 -0.001211219 -0.011858518 0.0049949507 0.0116497995 0.00010126654 -0.0057685557 0.007320122 -0.010256624 -0.0028364873 0.0066264467 -0.00034604158 0.0067536063 -0.0015992855 0.00616465 -0.008374739 0.008383327 0.006602239 -0.002559487 -0.013218348 0.0036241023 -0.011757613 -0.008511767 -0.009515738 -0.00046822088 -0.01107984 -0.00401934 -0.0046618097 -0.0024344283 -0.0017020536 0.0009760274
mà 0.0063977824 -0.0065454375 0.0060643903 0.004395266 0.009994422 -0.006784649 0.011500735 -0.007905519 -0.0069526616 0.0025148643 0.0017550661 0.0014919968 -0.0050301915 0.00096400303 0.0090102935 0.0014273431 -0.010696868 -0.003906916 0.006631374 0.009821722 -0.00913846 -0.006796753 -0.010657282 0.010978744 0.009169228 -0.01164804 0.00091190886 -0.0062870635 0.0050857156 -0.008584141 -0.006387254 -0.0048279054 0.003534921 0.0037300058 -0.008714896 0.0021774073 0.004509827 -0.008431954 0.0061086547 0.00094284245 0.0010544343 -0.006345951 -0.013088878 -0.0047123027 0.005957952 0.013129161 -0.008087347 -0.0119638685 -0.0021010663 2.710777e-05
chào -0.003614809 0.006280015 -0.0022357549 -0.0074947956 0.0018121732 -0.007492623 -0.00015500486 -0.00682957 -0.008561201 0.0002887298 0.0076861307 0.0043317094 -0.0062553436 -0.009139375 -0.00986308 0.0047886143 -0.010988796 0.0046916194 -0.007641057 0.00022716432 -0.006137091 -2.9786333e-05 0.008952758 0.012983121 -0.009207662 -0.005286148 -6.824848e-05 -0.009881552 -0.00026841392 -0.0009166548 0.010419986 -0.004913178 -0.006723634 0.0055086124 -0.004813046 0.009742637 0.006470606 -0.009064432 0.00037738262 -0.0026825932 -0.008223566 -0.0013727745 0.0047717644 4.250811e-05 -0.0071689514 -0.0026869602 0.002592231 -0.0069976514 0.005441127 -0.0036465065
đúng 0.0012995368 -0.0036143968 0.0026162148 -0.008493259 -0.007854343 -0.0085672615 -0.005248631 -0.0036833459 0.0035518222 0.005411064 -0.00509406 -0.011553969 -0.010602899 -0.008312561 -0.004424568 -0.0023405207 -0.010610184 0.00082334765 -0.00047079858 0.010459295 -0.00954395 0.00038738924 -0.008307029 0.0058140596 0.002681362 0.005263113 -0.0052187694 -0.006900563 -0.0047754254 0.0014519321 0.0068828496 -0.0035624797 0.0045741466 -0.010337943 -0.006723555 0.0064830026 0.0038826275 -0.009507983 -0.0058003445 0.0073270965 -0.006868773 0.008974396 -0.012821866 -0.0032977166 0.0074922214 -0.0011358024 -0.007872241 -0.009444098 0.006925053 0.0031125268
với -0.0020868906 0.008230046 0.010201748 0.000382768 -0.0003720434 -0.0018736606 0.009904426 0.0043146443 0.0058209696 -0.007908405 0.009672646 0.0014895792 -0.0015760405 -0.00077785144 0.0028790399 0.0021598414 -0.008545749 0.0015625881 -0.0030604827 -0.0004441367 -0.011097939 0.0020489674 -0.007301267 0.008213455 0.00459834 -0.0032123865 0.006419674 0.00373597 -0.005317373 0.007791054 0.012298395 0.012751796 -0.009666374 0.0041846917 -0.01113557 0.0001921205 -0.0026236507 -0.0052756662 -0.012552466 0.0010218652 -0.009554801 -0.009195976 -0.0057862867 0.0034144018 -0.009677235 0.011640163 -0.002013017 -0.0073552816 0.0015070054 0.008999604
chúng -0.002250154 -0.0030188109 0.0026201187 0.00674929 -0.0027939386 0.0091086 0.006893003 0.0057463287 -0.0042642546 -0.0027104546 0.007218674 -0.004100752 0.005472852 0.005021633 -0.009530376 0.00045552631 -0.01132064 -0.005130198 -0.0023045726 0.012927153 0.001376821 -0.008229376 -0.0061153932 0.0047928975 0.0086655775 -0.004208886 -0.010449366 0.0012035649 0.00042152012 -0.0022914319 -0.0043003024 0.010585346 -0.0015933432 -0.0048947167 0.0014987015 0.0059201 -0.008088611 -0.00108772 -0.00305107 0.0056565427 -0.012131692 0.0047784834 -0.009931096 0.0034539788 0.0073126373 -0.0005233161 0.0076659475 0.0067538745 -0.0035170596 0.0043440443
đang -0.011482054 -0.0028171604 -0.0042342623 0.0055383407 0.011363557 -0.004831674 0.011173349 -0.00011665157 0.00562484 -0.0049833963 0.0042805956 0.004385871 -0.003068085 0.008911169 -0.005842329 -0.007683957 -0.008064822 -0.0035906855 -0.011864451 0.0011679474 -0.0030834419 -0.00094300107 -0.0014494582 0.003828941 0.0052628964 -0.007171533 -0.006775113 -0.004507089 -0.002419496 -0.008415725 0.007848678 0.009883456 -0.004271186 -0.011725562 -0.0044930647 0.011700617 -0.0015206034 0.004071038 0.00073566963 -0.0008625941 -0.011898636 0.004770878 0.0017748489 0.0067442125 0.008003574 0.0040449635 -0.013330948 -0.005876135 -0.009828192 0.0015424043
xin -0.0036978833 -0.0019355422 0.008938254 -0.009817435 -0.008603683 0.0042233863 0.005989704 0.00012865243 -0.008839725 0.009154444 -0.0013095721 0.00591675 7.012126e-05 -0.010082675 -0.0013610111 -0.0044589466 0.0039085555 0.008824426 -0.004594125 -0.008064955 -0.008890656 -0.0003046547 0.0002131623 -0.0029519736 0.0034512812 -0.0036175034 -0.007987515 0.0080019655 0.0011965835 0.007032227 -0.0022432413 -0.0067499797 -0.00589254 -0.008562357 0.00090725586 0.011322164 0.008396411 0.0027904494 0.0028488776 0.00015553542 0.0012571001 -0.0057186875 0.0019579974 0.010177883 -0.008567672 0.0052056448 0.008568141 -0.0014087668 0.004414002 -0.0052912016
ra 0.0024625866 0.003612655 0.0074531035 -0.0009725111 -0.004524812 0.0054450603 -0.00719391 -0.00144113 -0.005367512 -0.0021557952 0.010729908 0.0071500624 -0.000563034 -0.007589415 -0.0048667667 0.0047990014 0.0039302893 0.010862751 0.0002715565 0.014698646 -0.01075672 0.00017792798 0.005481593 0.0061929114 0.010752358 0.0018237388 0.005639464 0.006751867 7.988118e-05 -0.003618785 0.004095968 -0.0038962448 -0.0032043238 -0.008211751 -0.011292895 0.0003134971 0.0008865675 -0.00017894982 0.005716099 0.0022060194 -0.010021461 0.0018567644 -0.0067981835 0.006958421 -0.007428329 0.007351616 0.0031394495 0.0043453374 -0.0015578035 0.0015908831
nghe -0.004718854 0.0020242515 -0.003862451 -0.00017854194 -0.006985746 -0.0029490052 0.0066067874 -0.0024697625 0.00886304 0.004110942 -0.0029705942 -0.008421948 -0.0026549436 0.005632666 0.0030890603 -0.01054465 -0.0020237856 0.00615955 0.007442425 0.013406657 0.006205385 6.785037e-05 0.0032144957 0.003450421 0.005649197 0.0077775978 -0.008863031 0.007490561 0.00564948 -0.00029380675 0.009579119 -0.00627813 -0.002261417 -0.011816886 -0.010148706 0.010390696 -0.0078133 0.0023812263 -0.0060963645 -0.0018562534 -0.009676145 0.0012775697 -0.0014602738 0.005225811 -0.009539958 0.008388857 -0.0018038765 0.00579933 0.0029838365 0.0047145463
khi 0.0040987586 -0.011039973 -0.0004130193 -0.00043329893 -0.00025870936 0.0031328942 0.0063964305 0.0017650106 0.010477585 0.008527558 0.007105781 0.0053201066 -0.010619109 0.0045801452 -0.002647031 -0.009639141 -0.01315301 0.005099405 0.0018521146 -0.0029454844 0.0016373197 -0.015050962 -0.0074783135 0.011703865 0.010383484 -0.010388853 -0.002989835 -0.008770084 -0.0016599983 0.00573577 -0.001930203 0.010346066 0.009049676 -0.0037467163 -0.0047338214 0.0070474804 -0.006072864 -0.006057586 -0.0061594844 -0.0044271154 -0.013783469 0.0018737569 -0.0062327175 0.011685743 0.0014042349 0.009536994 0.0059591066 -0.002456132 -0.007886514 -0.0014729382
ấy -0.012155732 -0.008630893 0.012577306 0.004928134 0.0021267873 0.010587422 0.0018524155 0.0022372636 -0.0028609468 0.0057409303 -0.00083165243 0.00595631 0.002627133 0.0037282002 0.007571526 0.0068884455 -0.0017810528 -0.00892347 -0.0026411284 0.011965584 0.00077332114 -0.013779112 -0.007973929 0.015985634 0.008383263 0.0036103579 -0.008988472 -0.0075500687 0.0061545325 0.0075327572 0.00732943 0.00027683715 -0.0018291548 -0.0048462246 -0.0036833503 -0.0058899177 -0.0017764333 -0.007089225 -0.004103994 0.0050870255 -0.012090446 0.006162072 -0.011515553 0.008096302 0.002533151 -0.0032441968 -0.0032282376 -0.00160694 0.0033923818 -0.0034554668
và 0.0045368294 -0.0059224293 0.012094126 0.0053019268 0.0014739298 0.0058663995 0.012255812 0.0018612297 0.0004074472 0.0059420825 0.003441034 -0.00763903 0.0018301628 0.00661797 -0.0071724853 0.0042741504 -0.0017965997 0.003278193 -0.0063066897 0.014833816 -0.0014445422 -0.005548398 -0.0036125642 0.012072545 -0.004141053 -0.012993342 0.0062617757 0.0016561778 -0.0034993317 0.0098228315 -0.0038082125 0.014087148 -0.009827698 0.0055036647 6.267891e-05 0.014866217 -0.0108450735 -0.0018745826 -0.0029946964 0.0083329845 -0.017382488 -0.009143749 -0.014140201 0.00054763735 -0.0046806126 -0.0005361577 0.00025367548 -0.0010720415 -0.00088050385 -0.0037641323
để 0.00017308292 -0.0026929928 0.010536715 0.002409293 -0.0056509855 0.0064276075 0.010915398 -0.008229216 0.011426412 0.0010382037 0.0025333655 -0.0095700435 0.007048927 -0.0016060845 -7.5628224e-05 -0.011555692 -0.013617281 0.0054662735 0.0063697174 -0.0007297465 0.0033306424 -0.00871606 -0.008712779 0.013696599 0.008956744 0.0047371183 -0.003486142 -0.0018339166 0.0039410894 0.008938611 0.011352418 0.010699535 -0.0037581795 -0.0033536367 -0.004973869 -0.0029136904 0.0020074479 -0.004032476 -0.012314865 0.0015940395 -0.00039676676 -0.0019491076 -0.0011069659 0.010818418 0.0017784425 0.004051947 0.0045998367 -0.013047301 -0.012177205 0.008719088
gặp -0.005668731 0.0012338299 -0.006144435 -0.007719009 -0.008013741 -0.008836824 0.010015404 -0.009030986 -0.0012951421 -0.004739503 0.0062182113 0.0017848958 -0.0040464588 0.004088802 0.0049474253 -0.011709988 -0.0034309863 0.0014064233 0.008362593 -0.001942746 -0.0009448107 -0.0063365777 -0.008720916 0.0004772879 -0.00043193877 -0.0005170176 0.0039979722 -0.009975489 -0.0029230826 0.006786132 0.0034202489 0.008411397 -0.0073899473 5.827479e-05 -0.005818082 -0.0034111475 0.0070289606 0.0047476524 -0.0051552937 -0.00600004 -0.008084845 0.007909489 -0.012232472 -0.0034703524 -0.0076263817 0.0037043144 0.002452159 -0.009374437 -0.003965172 0.007401354
nhé -0.006522534 0.00025628982 0.00031472277 0.0027867828 0.00035350054 0.0034432504 -0.0057829665 0.0062319366 -0.0015601879 -0.0017042416 0.009799166 0.004496296 -0.0059549394 -0.0013704995 -0.008850218 0.0001878928 -0.0062651555 0.005860022 -0.0067156013 0.006854131 -0.008138037 -0.008954868 0.006910096 0.006808554 0.010333677 -0.0070401537 0.0028393622 -0.0071867546 0.0063494043 -0.00073355244 -0.0075154556 -0.0055624214 0.0007372754 0.0049088355 0.0057112915 0.009466692 0.0035554648 0.0035458503 0.0072402377 -0.007958508 -0.004651449 -0.0026474504 -0.0003267559 -0.0026233562 0.0060695163 0.009300808 -0.0068730563 0.00010976357 -0.010201665 0.004782565
ta -0.0065036938 -0.009036392 -0.0066695153 0.006729948 0.010237112 -0.002798182 -0.0011477903 0.008482882 0.0029652251 -0.00064164476 0.010133724 -0.008214542 0.0030378138 0.0041458667 -0.006340872 -0.01087817 0.0020792715 -0.0061562927 -0.0006929778 0.014525563 0.0028105178 -0.010779733 -0.00788005 -0.0028067376 0.003093266 0.00059439964 -0.006667999 -0.004076858 -0.0035810715 0.00016474556 0.0053720693 -0.0021411523 -0.009620901 0.0022102615 -0.01099465 -0.0030488574 -0.009823931 -0.008007961 -0.0012645418 -0.00013189441 -0.006098475 0.009089811 -0.010208912 0.007188704 -0.009522483 0.011533434 -0.009720584 -0.0052687554 -0.0076526613 -0.0017529505
như -0.000893955 -0.0012670049 -0.0011926468 -0.0022303902 0.0104375025 0.0053779185 0.009478508 0.009873189 0.001978177 -0.0018428385 0.00619725 -0.01053216 0.0036394384 -0.0104890065 -0.007210991 -0.008152798 0.004313763 0.0020207057 0.0018084412 0.0062909643 0.0053580585 -0.010762162 -0.00037582702 0.01694057 0.009564253 -0.010580512 -0.0017621982 0.007094675 -0.0045949174 -0.0040761563 -0.0027563975 0.015017148 -0.0052261935 -0.007874077 -0.001915183 0.010203146 0.0011526922 -0.011409111 0.002007921 -0.0021314204 -0.008047036 -0.007312256 -0.01429466 0.01179885 -0.0032224376 0.0023266189 -0.00027223927 0.00078205514 -0.010235423 -0.004453546
cả -0.010179041 -0.0025326351 0.00060319435 -0.010702409 0.0016655474 -0.005628626 -0.0073127197 -0.0030041742 -0.008439081 -0.00015113139 -0.0027627575 -0.010870647 -0.00031878645 -0.0011411337 0.009585076 0.0033835075 -0.00823956 -0.008652651 0.005646376 0.011352773 0.001291727 0.00392053 -0.0018820727 0.010332247 0.0039014001 -0.005280914 -0.0035453408 -0.00591773 -0.008906821 -0.0057867207 -0.00060507806 -8.959553e-05 0.009197767 -0.0019727957 -0.000946178 -0.0071479124 -0.009582367 -0.0046072043 0.0037357258 0.011557337 -0.0019324109 -0.0019335706 -0.0019288996 -0.008195381 0.0018484899 0.0022153654 0.0023672415 -0.0010838367 -0.010499496 0.0075926986
bị -0.006907502 0.00466889 -0.006263459 -0.009584779 0.011285864 -0.008172657 -0.002931147 -0.009763963 0.0013732428 -0.010121422 0.010102747 -0.000624747 0.006137042 -0.00090288016 -0.0024436098 0.0065650037 -0.015457145 -0.00890174 -0.010328987 0.0053331885 -0.0016817363 0.0042759627 0.006349019 -0.0009618378 0.0056564487 -0.00858941 -0.0029283059 0.00813579 0.009786083 0.004061246 0.011919778 -0.0016567066 -0.008126407 -0.005481376 -0.01158244 0.0068871905 0.0053864345 -0.009881952 -0.013025516 -0.007383546 0.002152126 -0.0044632787 -0.0062216884 0.009093463 0.0022827804 -0.0043424955 -0.013264549 -0.013236234 -0.011628217 -0.0034806982
lên -0.0055858116 -0.004005813 0.001234947 -0.0029507542 -0.0015731115 0.0059000873 -0.0075618085 0.009297363 0.009833775 -0.00059624773 0.011771199 0.007715365 -0.0024913826 -0.0027744526 -0.001851617 -0.0056844032 0.0018512157 -0.005484299 0.008158961 0.008465152 0.0022066638 -0.01198068 -0.0011901499 0.0022360694 0.0029325215 -0.01121484 -0.0070747104 0.0073543945 -0.0022974696 0.00082085584 0.0040859077 0.0062711323 9.0389185e-05 0.0026837534 0.001748553 2.0179154e-05 -0.009366017 -0.0089786 -0.009597975 0.005014205 0.0020201118 0.0022245245 -0.0012840063 -0.0013317326 0.0078067575 0.005430071 -0.008439632 0.0045963763 -0.0112426765 -0.0032258995
lắm -0.0121178115 -0.006015031 0.011653637 -0.011000755 0.008033679 0.0003524692 -0.0044047576 0.0039699264 0.0074932314 -0.008329367 -0.0025230206 -0.008944567 0.0019936338 -0.0008976587 0.0018431413 -0.006010839 -0.0052890624 -0.006960671 -0.002526059 0.00070054346 -0.0072232448 -0.013446332 0.007907627 0.006927907 0.010640371 0.001083971 0.0018992006 -0.0069197 0.009923525 0.008426452 -0.0048083067 0.00031713597 -0.004256953 -0.011273039 -0.0047107283 -0.0064446446 -0.00042823137 -0.0047252057 -0.008591402 -0.0055979597 0.0035389937 -0.009217239 0.0021408265 -0.0005746485 0.0058380747 -0.0054361606 -0.0020822566 -0.005629748 -0.007557837 0.0066286875
thích 0.0032988046 -0.009173198 0.0060667656 0.0028988058 -0.007282196 0.0031302678 -0.007411518 0.002743271 0.006632852 -0.0012327032 -0.0077409567 -0.0032660584 -0.006103326 -0.0017707868 -0.0040097637 0.0007954162 -0.009347716 0.008641268 0.0016336092 0.0049861292 0.0019543017 0.0036934386 0.0041824006 0.008945232 0.00010569441 -0.0047761244 -0.0067357337 0.00053466286 0.007736237 0.0020560296 -0.0076481355 0.011906704 0.008178305 0.0048523033 -0.0074817403 -0.004971407 0.0043246495 0.00441175 -0.003467852 -0.0056918296 0.0010811989 0.003195833 -0.0015337016 -0.0036869913 -0.00302081 0.008357932 -0.0090864245 -0.006131841 0.0025653436 0.010248584
các -0.011765421 0.002147844 0.005723662 -0.011178669 0.0071086003 0.0044490807 0.009547884 -0.008783107 0.00489591 -0.010832971 0.005691368 0.0064780745 -0.0007775241 0.0026832416 0.0015552045 -0.008528347 -0.0067421827 0.0023714458 -0.008098068 0.004076361 0.008536073 -0.007947831 0.006232594 0.012512365 -0.0059358003 -0.009149624 0.002817714 -0.0040645325 -0.008376924 -0.006435358 0.0041991533 0.010805452 -0.001836085 -0.0030638082 0.00669338 0.012965309 -0.0018533143 0.0055888672 -0.013021443 0.008541334 -0.011875684 0.0003707298 -0.009770649 -0.007883739 0.0022684205 -0.004040887 0.00043789035 -0.0037991444 -0.008856318 0.004264779
mình -0.0012683844 0.008303284 -0.0082335835 0.0057730344 -0.00833152 0.0020369967 -0.0073470306 -0.0045855795 -0.0009820923 -0.0049097473 0.005916026 -0.0023149918 0.0035971177 -0.007214024 0.005356346 -0.008033662 -0.008184875 0.007573906 0.005086045 0.009494602 -0.007776502 0.0043719187 -0.0032693925 0.0032867033 -0.0061156475 -0.0052020275 -0.00022266485 0.0045982874 0.008081327 0.008356695 -0.00398171 -0.0013386924 -0.0025319764 -0.0051151193 -0.0068938206 0.012027136 -0.0062496695 -0.005351638 -0.0076182904 0.009637555 -0.008563557 -0.006864497 -0.011443315 0.00046852397 -0.0028121711 0.0101849325 -0.009863064 0.003808616 0.004537846 -0.0021121514
chỉ -0.005730646 -0.008151328 -0.0077266153 0.003431698 0.00018714342 0.0064083315 -0.006618328 0.0072107585 0.010328992 0.008679386 -0.005150003 -0.0069112745 0.00833633 -0.003925984 0.0091886 0.0051258425 -0.0032075562 -0.0061761388 0.0032563733 0.0060042413 -0.0026891406 0.0066472595 -0.011244991 0.002508753 -0.00686321 -0.010113608 -0.008694988 0.0013431567 -0.009780746 -0.0018450718 -0.0030758833 -0.0050271023 0.007122131 0.0012947368 -0.005938615 0.00011051413 -0.002366284 0.00010504185 -0.0077288416 -0.005878292 -0.007080747 0.010843559 0.006329232 -0.00077943614 -0.010474369 0.005295521 0.006981447 -0.009873869 -0.0057515907 -0.0019842356
chúng_tôi 0.004025184 -0.001159994 -0.0077866907 0.0016969691 0.0052811843 0.007607915 0.0019787985 0.0078049367 0.0034114933 -0.0015489714 0.002643675 0.007654621 0.0023108867 0.0063592205 0.003977578 -0.0016500899 -0.009425487 0.0010716564 0.0016054122 0.00060927606 -0.0108604655 0.0047091637 0.006538407 0.008091699 -0.0048587495 -0.003251676 0.0082205925 0.006880732 -0.0070988205 0.005913989 -0.000555865 0.011359223 -0.005877804 -0.010485441 0.0025092189 0.008794723 0.0015454649 -0.0065103485 0.001071323 0.0038128213 0.00502556 0.004352915 -0.011501869 0.0053813504 -0.0052972077 0.0014427499 -0.010795509 0.0071283793 -0.012200224 -0.0021112047
thế_nào -0.009551426 -0.0067343335 0.0026285257 -0.005725535 0.0045253644 -0.0026365588 0.0009175058 -0.007264537 0.00023341508 0.0042582112 0.01136843 0.004196404 -0.0037786402 0.008691071 0.006133316 -0.0010262524 0.00055392075 0.0031037563 -0.002756967 -0.0064956113 -0.0028104964 0.005666531 -0.010274159 0.005684365 -0.00014426355 -0.008859319 -0.0015193785 -0.004658653 0.0067728614 -0.0061361114 0.0061445246 0.0047609583 -0.008006806 -0.0021227857 -0.0089091 0.007104839 0.0087774545 -0.0058737732 0.00086194644 0.004201924 -0.01035567 0.006494198 -0.006966309 -0.008665873 -0.0030079002 0.0015513529 -0.010118693 -0.007802227 0.0009666848 0.0030116246
hay 0.0049412614 0.0093282685 -0.0062797205 -0.0055715106 0.00895527 0.0063106944 0.0066909892 0.0058444724 -0.0048602275 -0.0019671046 0.007865393 -0.0010161031 -0.0015264408 -0.0071936497 0.005765796 0.0068136244 0.003424459 0.0065163174 -0.0066368696 -0.005601342 0.0024947536 -0.0069783893 0.00046893884 -0.004447075 -0.0058525046 -0.0035912206 0.001162577 0.0025637827 0.0091598155 0.005608605 -0.0045444435 -0.0013075582 -0.0036655825 -0.009511273 0.004098359 0.007944537 0.004269067 -0.006195447 -0.0081022745 -0.008339317 -0.005717541 0.009837822 -0.012088624 0.00323812 0.002473643 -0.0067468593 -0.007545234 -0.003344879 0.0044464953 0.007986599
nghĩ -0.006544438 0.009646458 0.0035944332 -0.008374687 0.0039858576 0.0005838622 0.0026298417 0.005150253 -0.004073417 -0.008079838 0.004257457 0.0050048633 0.0076432703 -0.0027663657 -0.0067598517 0.0033809012 -0.00046314092 -0.0031361782 0.0038469734 0.012536665 0.0030651398 -0.0076337103 -0.0024039964 0.01311546 -0.0033556307 -0.009685121 0.006035196 0.0039003387 0.0030353745 0.0060141524 0.007968601 0.0040846216 0.0053543006 0.004887901 -0.009237169 0.0067287893 -0.011503875 0.0041096234 0.0025528239 0.0073088664 -0.0019246836 0.003423521 -0.0070386445 -0.00077718956 0.0017528664 0.010947068 -0.002520052 -0.0064511956 -0.011775627 0.01090051
vào 0.0008159332 0.0076911454 0.008647855 0.008486416 -0.0058669676 0.0026431012 -0.0012756624 -0.006575537 -0.0061174054 0.0039868704 -0.001680415 -0.010544102 -0.0092758695 0.00017340809 0.006106969 -0.002420396 -0.013837837 0.0071322843 0.004947558 0.014869611 0.00070590863 -0.005043764 -0.007387452 0.015404477 -0.0072662164 -0.0076309606 -0.004600724 0.0028374312 0.00068774255 -0.008886342 0.009641569 0.0073580397 0.0057900483 -0.0024228387 -0.0066811927 0.012463185 -0.011663413 0.0011963143 -0.010709144 0.008036568 -0.008991714 -0.0028909745 0.004312506 0.0063810903 -0.001279617 -0.003536356 -0.008042736 0.0025604216 -0.0041019483 0.010595857
quá -0.011380464 0.0037917797 0.0048969467 0.008221134 -0.0013658631 0.0067480225 0.0023812552 0.0019761035 0.0073058843 -0.004918969 0.008237553 -0.0041460884 -0.0020885412 0.004302555 0.0054862 -0.010912028 -0.008667975 0.0012960898 -0.0050155697 0.0039899447 -0.0053325845 -0.010679089 -0.005869207 0.009277632 0.005034756 0.0018978718 -0.010630941 -0.006549378 0.009977713 -0.0067354618 0.009503564 0.009305571 0.0064392905 -0.006353915 -0.005514093 -0.0034581528 -0.00017911739 -0.010413652 0.0037763359 0.0022621774 -0.008356391 0.0025348722 -0.0033469812 0.0024057317 0.009248369 0.010758274 -0.011781654 -0.00961807 -0.01093003 -0.0045002284
hãy 0.0048423596 0.009001847 0.0040687122 -0.00470521 0.005012605 -0.0036435206 -0.007405083 0.0026478758 -0.006932132 0.0030392646 0.010975153 0.006293814 -0.01060028 0.00587756 -0.00042093085 0.0029356244 0.0063738874 0.0040463456 -0.001908597 0.003461121 -0.0024772186 -0.005371241 -0.0043380107 0.010568862 -0.008428317 0.0050426912 -0.0060607507 -0.0023737336 -0.007866501 -0.0031431532 -0.008855099 -0.0007865976 -0.004422396 -0.0039858627 -0.008285425 0.008667241 -0.008989047 0.0034820107 0.007581938 -0.008301808 0.0019410611 -0.0038407715 -0.011682647 -0.0074665253 -0.005660525 -0.0014528474 0.0049969144 -0.009226743 -0.010164194 -0.0033659616
chỗ 0.0070158322 -0.008751162 0.0024288087 -0.0047198813 -0.0040525654 -0.0043421676 0.0074105854 0.0055262856 -0.004235573 -0.0075347135 -0.0059924414 0.0008066321 -0.009082332 -0.0050893705 0.0023146297 -0.0031313573 -0.008135248 0.0034058052 -0.0027895253 -0.00027062508 0.0012733303 -0.0036959385 -0.0074303695 0.0056024836 0.00025450633 0.0062434003 0.0042506773 0.0032534515 0.00808889 0.0034708532 -0.007740607 0.0070962915 0.0033315378 -0.007731225 -0.010657383 -0.00039964373 -0.008280231 0.006952264 -0.004442593 0.009322273 -0.007826105 -0.0053287465 -0.0007458418 0.006543681 0.006571129 0.004248404 0.005421294 -0.0058540218 -0.011311913 0.0069762333
cảm_ơn -0.008618432 -0.0071711596 -0.0085734315 0.0053750356 0.010034417 0.005140493 0.002281626 -0.009150268 0.0013505751 0.0058510373 -0.0007768267 5.837381e-05 -0.009006413 0.008725048 0.009541469 -0.0039186967 -0.0027902354 -0.008830137 0.00049208716 0.004216504 0.0070474716 -0.011183434 0.0057308963 0.00058756454 -0.0024572285 0.0024542157 -0.008184113 -0.008684126 0.00951097 -0.009057531 -0.00031744016 0.0002841504 0.009499138 0.007805296 -0.010694348 0.00014386009 -0.00962783 -0.0016547143 -0.0076427 0.0012939438 0.0056725335 0.009533039 -0.008121736 -0.005967668 -0.0024679268 0.0067982767 0.0048534153 -0.010352287 -0.010702784 0.007009514
nhưng 0.0077569415 0.0027937775 0.0020525598 0.00073134695 -0.0057507535 0.0089356555 0.0071550277 -0.0043471158 0.009044549 0.007705408 0.0056003877 0.0008578061 -0.01034565 -0.004922439 0.0029389663 -0.008814794 0.0063395384 -0.0045403102 -0.01007925 0.003727204 0.006106285 0.005314056 0.0005769601 -0.0021219447 -0.009524833 0.0042564156 -0.0027040066 -0.008185294 0.00015818264 0.004612816 0.0053903777 -0.006179976 0.00011314571 0.0071018273 -0.009907112 0.008674279 -0.0063763983 0.008534848 -0.002757752 0.008426715 0.0016625144 0.0046733837 -0.008931467 -0.001544193 0.0006961547 -0.0072760223 -0.007510522 -0.0026886638 -0.0038806791 0.0072308322
hai 0.0018363871 0.0059711067 0.0019772844 0.0074688406 -0.004023451 0.0051202322 -0.007824113 -0.0034917337 0.009096877 -0.0065586646 -4.352133e-05 -0.0015355424 0.0046066167 -0.0001817867 0.0021006258 0.002821626 -0.0019385567 0.008168648 -4.0336246e-05 0.012786294 -0.006512537 -0.0044224337 -0.008997562 0.010973586 0.0065415073 0.0054683597 -0.007177995 -0.0065769046 0.008349678 0.0078021544 0.0035638884 0.009168627 -0.00505707 -0.008182592 -0.007310713 0.005397416 -0.0073149446 0.0048823203 0.0065217577 0.007884397 -0.0007987791 -0.007603024 -0.011278317 6.7210094e-05 -0.010456168 -0.0036192746 -0.00071250147 -0.0042123664 -0.00934674 0.010279711
ông -0.004115757 0.0031106418 0.00085963256 -0.0058266795 0.005841427 0.005041528 -0.0023212594 -0.0030405014 0.006759245 0.0036883513 -0.0054940674 -0.0059879133 -0.0110365655 -0.009491423 -0.004283324 -0.0026521662 0.0022350624 0.0051775877 -0.004712125 0.00040692568 0.0073974957 -0.0045126965 0.004837565 0.005375897 0.004560668 -0.00030386884 0.004547512 -0.002514701 0.00039853144 0.007222961 0.0052091614 0.012959501 -0.0019822682 0.0008083776 0.0030582678 0.0030409081 -0.004469617 0.0042017763 -0.011266931 0.010843019 -0.0041140183 -0.0014843293 4.865103e-05 -0.007220393 -0.010349447 0.0077699423 0.004335337 -0.0037580077 0.0029105346 -0.0030099188
mua 0.006981599 -0.0011404682 0.008597063 0.0053430283 0.009423617 -0.006767013 -0.0016272794 -0.00025030953 0.002928985 0.00907666 -0.0014875339 -0.003663653 -0.001728297 0.0077813887 0.006406244 -0.011041088 -0.004007472 -0.0035665438 -0.000635222 0.0006006481 -0.009794045 -0.0039029953 0.001062809 0.004413147 0.0024546485 0.005759174 0.0073704654 0.0022409577 0.0052819527 -0.0047869473 0.010887208 -0.0039982605 0.007410365 0.0012649 -0.010902504 0.0050184675 -0.0032123816 -0.0061133057 -0.0070749833 -0.0070955255 -0.013198777 0.0031038977 -0.012848949 -0.007183072 0.0044297953 0.011826593 -0.00037470984 -0.005953232 0.003062643 -0.0042841686
bạn -0.010461502 -0.0025856122 -0.006058529 0.0067542107 -0.008621769 0.005531085 0.010031043 -0.0019081808 -0.00283546 0.0034366953 0.00031638084 -0.009835129 0.006076161 -0.007976575 0.00878807 -0.008851072 -0.0038643233 -0.00626866 0.0070791235 0.0013150817 0.0054860967 0.0011879513 -0.005526504 0.005962447 0.007180309 0.0009882177 -0.0031322192 0.010099413 0.005892735 -0.00049637933 0.0035067091 0.011597773 -0.009734965 0.002938621 0.0061724917 0.0020437662 -0.0061013787 -0.0064941174 0.0038139245 -0.0050828108 0.0027788016 0.006328748 -0.010381312 0.0012136201 -0.0050365557 -0.0043821624 -0.0011136289 0.007998128 -0.0076615294 0.0012251234
ổn 0.007588391 -0.008902379 0.0010653491 0.0023524922 -0.0040774415 -0.0059928247 -0.0035420097 -0.003934122 -0.00029787835 0.00069360645 0.00938914 -0.002625565 0.0022043511 -0.009605462 -0.0026321514 0.0027052911 -0.0033101316 0.010204772 -0.0024086533 0.0033983456 -0.005762907 -0.008638461 -0.00342384 0.010067665 -0.009203216 -0.010129531 -0.00012385126 -0.0023362427 0.0056488924 -0.005289662 -0.007234521 -0.0030549075 -0.0045329034 -0.009473522 0.004339378 0.0102571 0.006187161 0.00090102566 0.00058407907 0.009633203 -0.0017654749 -0.0018007327 -0.0015222713 0.00027143193 -0.005173884 -8.673406e-05 -0.0098271575 -0.0038617703 -0.008405342 -0.0037870076
điều 0.00057512004 -0.0057562585 0.002543109 -0.007195817 0.0057135746 -0.0048688236 -0.0050162086 0.0026382646 0.0019183413 -0.002212631 -0.006421821 -0.0065504825 0.0018822923 0.008289853 -0.002570284 0.0012983669 -0.004676662 -0.0019776374 -0.002142682 -0.0030911623 0.0034340846 0.0006899422 0.0020882268 -0.004398295 0.0017223173 -0.0019179778 0.0070472686 -0.00046252747 0.00049320905 -0.007900176 -0.0054237116 0.0061174906 -0.0068909274 -0.010128158 0.0064673526 0.002760746 -0.010653096 -0.0021985818 0.0029780539 0.0076836827 -0.009966866 0.007200578 -0.0027636092 0.0091754915 0.0048630144 0.00523599 0.0040276777 -0.0033269916 -0.0066200052 -0.0054210695
đến -0.0077870884 0.004461135 0.0009371954 0.008654745 0.004678316 0.0050130817 0.0008683226 -0.0011464359 0.009560871 0.0023599525 -0.0069218283 -0.011234886 0.0073341075 -0.0049939607 -0.008101332 -0.011098894 -0.0062137623 -0.0026365498 -0.00071692694 0.012577075 -0.004178209 -0.0092085805 -0.0076831616 0.013529264 0.005492396 -0.0005668726 -0.0016564647 0.009379531 0.005162295 0.0015196031 0.010241116 0.010549311 0.0010383166 0.0042560147 -0.0014466397 0.008568462 -0.0044257464 0.0029869014 -0.009404608 0.0068956637 -0.005322262 0.0087888595 -0.006897656 0.008123434 -0.00036382553 -0.0026239343 -0.009159155 -0.003009225 0.0054236143 -0.004351612
lấy 0.0024760312 0.0027815627 0.0067505585 -0.0011673481 0.0016918597 -0.0013986498 -0.008796713 0.0011910376 0.006779107 -0.0076653147 0.008091814 -0.0036594158 -0.0058957804 -0.0064515066 0.0028483837 -0.0064398074 0.0001867686 0.005682834 -0.00043688135 -0.0009491574 0.0056183757 -0.0063310135 0.0062614046 0.007927071 0.0047594868 0.0058763777 0.0004995227 -0.0018323486 0.0016498318 -0.00071053987 0.0017929287 -0.0048245736 -0.00947732 0.0010378275 -0.0011126621 -0.0058961506 0.007757694 0.0052530332 0.0043746643 0.008840756 -0.003987819 0.00046851198 -0.01185135 -0.0029868325 0.008343685 -0.002523058 -0.0014121992 -0.0007063139 -0.00877218 -0.009408048
nếu -0.010374932 -0.007027242 0.009114822 0.006838046 -0.007743749 0.0032548718 -0.0017246695 -0.006101978 -0.0073022884 -0.00868296 0.003450181 -0.006034884 -0.0042348993 -0.005869701 0.006466614 0.005354833 0.0019154055 0.0060635097 -0.00026445548 0.010382254 -0.008305189 0.0022446471 0.0014377355 0.011016711 -0.004197643 -0.01057815 -0.0009619666 0.0097470945 -0.0055678026 0.0022385276 0.004934678 -0.006610833 0.009171291 0.0046564555 -0.0091453735 0.0005908979 -0.0013636254 0.0017575251 0.0001006784 -0.0039632297 -4.401395e-05 0.004840756 -0.009323594 -0.0059235464 0.0038453145 -0.0050312122 -0.00879644 -0.007803103 -0.011017735 0.0048533008
cần 0.000663708 -0.010022305 -0.005694648 -0.010846878 -0.0026749524 -0.0016795408 0.0030606585 -0.009197694 -0.0032180294 -0.007403258 0.005097107 -0.007295419 0.008531677 -0.0076035154 -0.003563177 -0.004158714 -0.0024032292 0.0046201022 -0.006500301 0.010692023 0.00047217374 0.0012834504 0.007666306 0.009813636 -0.0030535196 -0.008454655 -0.0091388915 0.00474692 -0.00050384324 -0.008484231 -0.0010066427 0.0043055904 -0.008397292 -0.009301105 0.008861955 -0.007814135 -0.0015746602 0.006189081 0.0069264295 0.00024615886 -0.004305575 -0.0047011795 -0.0049037673 -0.008482591 -0.0053630904 -0.0069700317 0.0052994746 -0.0058722594 -0.004116059 -0.002975964
vui 0.0028091415 0.0059209378 0.009556829 -0.0066543156 -0.0041553113 0.008840715 -0.004847317 -0.005348429 -0.0037596528 -0.0051937657 0.0031093059 -0.0036495696 0.004031017 -0.0047342107 0.0010535504 -0.0028627242 -0.0035040241 0.0018700684 -0.006850135 0.0059567727 -0.0097156335 0.0037631465 -0.005698249 0.0076097236 -0.004126951 -0.0058031003 0.00096314354 -0.002678761 -0.00048685752 -0.0053783613 0.006873363 -0.0063415593 0.0046458817 0.0035366614 -0.0045704 0.005445465 -0.008136548 -0.005226909 0.0055677732 -0.008641052 0.003113521 -0.009685385 -0.010918582 0.0052463673 -0.0026203494 0.01025114 -0.000729342 0.0034028885 0.0016532909 0.010795448
làm_sao 0.0065323752 0.0018559372 0.0010845325 0.0067952266 0.0052540493 0.00061362423 -0.0046500093 -0.007514952 -0.009161477 0.0020416796 -0.0077288477 0.001965017 -0.01060239 0.0070017083 0.0076919445 0.0046717767 0.00084626884 0.0020461113 -0.004046925 0.0047356864 0.0021997807 -0.00543094 -0.0033327749 -0.0054741343 -0.008269485 0.0058033452 -0.00430112 -7.540281e-05 0.009078586 -0.0037097794 -0.0012867913 -0.0058185686 -0.0057255197 -0.0049701887 -0.009243247 0.0019591465 0.0054748403 -0.01012049 0.0007618996 0.0078885835 0.002719175 -0.0023805758 -0.0063016103 -0.00035397927 0.0054652956 -0.0005727425 -0.00759645 0.004225294 -0.009941718 -0.0051464345
sống -0.00774503 -0.0055561056 0.0023867155 -0.0019684301 0.0026598934 0.005255246 -0.008610116 -0.0032809286 0.010553037 -0.006106213 -0.0069363317 0.0013580872 0.008447168 0.00029622915 -0.00074287906 -0.0007521085 -0.0006539437 0.008072508 0.00029128944 -0.007893944 -0.009869361 0.00082546344 0.0077997292 0.012123991 -0.0026394748 -0.009086309 0.008132666 0.0035829765 -0.009765304 0.0068551404 0.0060354555 0.0107476665 0.0002336221 -0.008720332 -0.0027350585 0.011756991 -0.001988847 0.0016157555 -0.010892063 -0.0006813145 0.00020135877 0.0016125892 0.004686813 0.0049267854 -0.005855594 -0.004283574 -0.011588676 -0.008489962 -0.010401883 0.008773997
chắc 0.00021852352 -0.00094190164 6.052488e-05 0.009007762 0.007819402 -4.9530645e-05 0.003893025 -0.0022188486 0.0028678968 0.008589556 0.00737829 -0.010238425 -0.0042470023 -0.006523626 -0.009764196 0.00068305474 0.004031834 0.005814842 -0.0023797192 -0.0016076603 -0.006958024 -0.0011073628 -0.0031489576 0.013575412 -0.0028922195 0.008519625 -0.008934721 0.007088596 0.00419362 0.0005359327 0.0009923145 0.00024555862 -0.00010469076 -0.0014513715 -0.008033206 0.0052592033 -0.007897401 -0.012435657 -0.0047992184 0.008352937 0.006045909 -0.007099556 -0.0015821776 -0.0026925548 0.009490424 -0.0041939938 0.0018121632 -0.00044382823 -0.0016502558 0.0047695525
giờ -0.008382592 0.001654678 0.0073009213 0.0032560998 0.010651465 0.007401097 0.0043850155 0.0046816235 0.003659539 0.0027119534 0.0016563918 0.00018458476 -0.0015898896 -0.0067947535 -0.0044069537 0.0044509573 -0.0074900817 0.0012251285 -0.0028435993 0.0077465517 0.002474082 0.0048230826 -0.0068409033 -0.0012317614 0.00913718 0.008769638 -0.0020391974 -0.0017040522 0.002288376 -0.0012121184 -0.0024468554 0.0072296388 0.005343583 -0.009276174 0.0016734868 -0.0015909972 -0.010835695 0.003226812 0.006369946 -0.0047687106 0.0062177926 -0.008049833 -0.011990889 0.0025428452 -0.0005244797 0.0027831506 0.004858675 0.0042235698 -0.011614151 0.003307468
giúp -0.011076911 0.0049147583 -0.00532172 -0.0043783695 0.0022031744 -0.0005667011 0.006645436 -0.0036429546 0.0077330447 -0.0007245646 -0.0008632695 -0.0029484367 -0.0029655923 0.006523737 -0.0014993798 0.0037998662 -0.005142285 -0.0050418614 0.005788235 0.002354255 -0.0014464427 0.0012788234 -0.0019143112 0.011210492 0.009904503 -0.0010103727 -0.0070983805 0.00024339612 0.0030419563 -0.0006561378 -0.00039645482 0.010848809 -0.010231866 0.005435428 0.005844913 0.008687903 -0.00601963 0.00083974673 0.002347434 0.00016402437 -0.012412485 0.0010068805 0.006367126 0.0049129957 0.009301445 -0.0003964237 -0.0058851647 -0.006510815 -0.0026164863 -0.0018755522
trả -0.0023939887 0.0068046544 0.0067266766 -0.006410374 0.0009857641 0.0019484872 -0.0077756224 0.0029452026 -0.0044373022 -0.010182997 0.0066823508 -0.004698552 -0.002474693 -0.0046108286 0.005784483 -0.00858761 0.0021900458 -0.003921922 -0.008317221 -0.0066017555 0.0045513795 -0.009312746 -0.0084980745 0.005577617 0.004218008 -0.007232325 0.0022202702 0.00020879119 -0.0063798334 -0.0070929634 -0.0059767542 -0.00082894205 0.003938693 0.0019096335 -0.009378541 -0.0027251504 -0.0046246503 -0.006407492 0.007861329 -0.00091489573 -0.0070252838 0.0052166507 -0.0007116373 -0.0062068175 0.008247357 -0.00079726777 0.004114965 -0.0012138569 -0.009761332 0.007001263
tiền -0.008168686 0.003090604 0.0019701393 0.009046562 0.008869783 0.006261966 0.0042943964 -0.0035329284 -0.006165884 -0.0008484047 0.0012412003 0.008419333 0.0012299278 -0.0049678395 -0.0019349422 -0.0052388352 -0.006369949 0.006375159 -0.007450884 -0.0021279317 0.008658987 -0.0075568394 0.0077220155 0.011118807 0.00786281 0.0034968548 -0.005814299 -0.0041015106 0.00012207452 0.0017493294 0.0001183642 -0.0010357508 0.0004068417 -0.001019245 -0.005795649 -0.002693647 -0.0031405287 0.0022182055 -0.009233134 -0.0015121942 0.005916547 -0.007686992 0.0065405313 -0.0036020253 -0.008696919 -0.0048090764 0.0010621409 -0.0071838154 -0.0067733657 -0.008716683
món 0.003401687 0.0065388726 0.003927017 0.0071301195 0.005053826 0.0040089996 0.0024022935 -0.0066053784 -0.008538151 0.001933489 0.004792868 0.007524931 -0.01028009 -0.008246745 -0.009989471 0.007522587 -0.007307311 -0.00064329634 0.0061294422 0.009225438 0.0026282668 -0.011930315 -0.0029843329 0.006691312 -0.0035882525 0.007153505 -0.0077887126 -0.006536082 -0.0033248225 0.0051385215 -0.0075952034 0.003529643 0.0033396804 0.00767445 -0.00048550166 0.0044584298 -0.009332628 0.004861673 -0.00596037 0.0033717803 0.00036343452 -0.0024151942 0.0026676478 0.0007985512 -0.010957456 0.00025296106 0.002330004 -0.0061931093 -0.001969797 -0.005531794
tốt 0.006068262 0.003996857 -0.0067080725 -0.009527914 0.00090170087 -0.008732365 0.010553286 -0.004435408 0.010510718 -0.0058290623 0.001605773 0.008501853 0.0072189257 0.001937865 0.0010751828 0.0014778592 -0.0126392245 0.002513707 -0.007761177 -0.0004222635 0.0052295686 -0.010614661 0.007380437 0.0008821225 -0.008390123 0.0074364883 0.008504861 -0.007153844 -0.002919946 -0.0018567875 -0.005743429 0.005862293 -0.004288673 -0.00018161493 0.008168721 -0.0053268312 0.006433024 -0.0071038986 -0.0012027539 0.009699171 -0.0025873 -0.0025549498 -0.006060802 0.0010958241 0.0018545943 -0.007015488 -0.004123861 0.004053547 -0.00695023 0.001558912
vài 0.0075016483 -0.00783346 0.008638592 -0.0066414773 0.0047969846 -0.004827132 -0.0037081938 -0.001283422 -0.00022813561 -0.009540773 0.00031451098 0.0042413427 0.005695815 -0.0014903634 -0.002416803 0.007925118 -0.0006273295 0.009157198 0.008630223 0.004387183 0.0031033028 -0.0011561206 -0.0019620315 0.006215911 -0.0039904034 0.006308308 -0.003775609 0.005729679 -0.0067485156 0.005876148 -0.0006351203 0.0026656145 0.0019342657 0.005326941 0.0049216314 0.011483404 -0.003997564 -0.008769656 -0.0066096326 -0.0033455293 -0.0015304238 0.008162461 -0.012118529 -0.0016550781 -0.0031118689 0.004014994 -0.0037205745 -0.004315806 -0.0029056624 0.0076517276
thứ -0.007938663 0.0055416874 0.009098517 -0.00071872247 0.009025535 -0.008167733 -0.0076793833 0.009041858 0.0030298533 -0.0083704945 0.009165634 -0.0100682145 0.004863733 -0.0033279036 -0.0044641607 -0.0094705345 -0.0017810483 -0.0013600719 4.6505484e-05 0.012215905 -0.0064303824 0.0017894062 0.0032409457 0.008327909 0.010546771 0.0013515303 0.006771749 0.0075279414 0.002159855 0.0045012655 -0.0057321377 0.0031795765 -0.0058349213 -0.010181956 0.001440446 -0.0045760954 -0.010186422 -0.010516508 -0.010106584 0.011247578 -0.012955913 -0.0020730176 -0.008713973 0.00012778166 0.0007654682 0.010556572 -0.004097742 -0.008948797 -0.011554676 -0.0015950688
mọi -0.010034049 -0.008995432 -0.008937956 0.0022932163 -0.0056470227 -0.00047177784 -0.003832459 -0.005404265 -0.00317732 0.007936188 0.0020311093 -0.0008167536 0.0071834777 -0.006811677 -0.0031389722 0.0048352294 -0.0050655873 -0.0027822373 0.004587161 -0.0033649993 -0.0016066065 -0.0070969695 0.008417498 0.0112854615 -0.0070445156 0.004170374 -0.007995988 -0.009178527 0.0035265547 -0.0044352743 -0.0006260784 -0.004378364 -0.0007296197 -0.0074617933 0.0036497016 -0.002702973 -0.0024659464 -0.0004566547 0.00070799165 -0.00091183075 -0.0003741306 0.008491897 -0.0042269984 -0.008571187 -0.010446611 -0.0023834382 0.002001728 0.0041554524 0.0046158126 0.004510106
về -0.0035425082 -0.005473073 0.008860464 0.0044742897 0.008288285 0.009495445 -0.006995844 -0.0027948858 0.004834228 0.005259724 0.007457879 -0.004166392 -0.006533508 0.0060290727 -0.0046509556 -0.004251995 0.0021384715 -0.0031016718 0.0005817731 0.012661049 -0.0074459207 -0.012187114 0.00054590695 -0.0007660496 0.00770269 -2.6164096e-05 -0.010464973 -0.008775258 0.0038040387 0.0067367163 -0.0063877134 0.006524037 0.0037609374 -0.0074381162 0.006305282 9.8343735e-06 0.0059896754 0.0019447985 0.0034650995 0.008473363 0.002093649 0.0090058325 -0.0055861864 0.00082754344 -0.0004756203 0.011388753 -0.009320762 0.0075902063 -0.0065241535 -0.00398501
trong 0.0041903756 0.0075084777 0.0017884603 0.00041214286 0.0047511957 0.0018591152 0.0024709757 0.0058823857 -0.008462358 0.0007579073 0.0063784826 -0.010740132 -0.0090238545 0.0054944763 -0.008350978 0.007602656 -0.012075455 -6.34656e-05 0.007195587 0.012614783 -0.0038429247 -0.012857243 -0.000987919 0.014146841 0.0059183757 0.005428602 0.0030462646 0.0076892767 0.009306397 0.007095742 0.004460698 0.00964103 -0.00029971945 0.002102011 -0.00819518 -0.005836636 0.0008254271 -0.0115898885 0.0076379543 0.00510012 -0.011941186 -0.006325914 0.003184236 0.0044074086 -0.0008024165 0.0062666615 -0.011284393 -0.0008828301 -0.0067327973 0.0056327875
nhớ 0.0013444512 -0.009912227 -0.0021238877 -0.0048342566 -0.00047462448 0.0041380357 0.00644304 0.0074129826 -0.008753827 -0.0047772317 -0.0025225764 -0.0067974664 -0.0022564135 0.008595242 -0.0006832477 -0.0023978087 -0.003127599 0.001581739 0.005219551 -0.0069336756 0.009235617 -0.008555698 -0.0055799237 0.0056097377 0.00521329 -0.0031256145 0.005488511 -4.8580925e-05 0.0030275376 0.0054419814 0.010138881 -0.0066714985 -0.007767916 0.00369214 -0.00071245467 0.0060834405 -0.009646825 -0.0064122323 -0.0016044291 -0.0046799523 0.004178065 0.0066706156 0.002449994 -0.005971253 0.0045163794 0.0022926189 -0.0013189932 -0.01107505 -0.003558887 0.0024672009
tên 0.0050505344 -0.0051977737 -0.005874537 0.00039469462 -0.006593508 -0.006583679 -0.000147011 0.006283916 -0.008496848 0.007000621 0.0075536333 -0.006694805 0.0021526336 0.003502118 0.0013227183 -0.01068688 -0.003560957 0.0011069266 0.0047790646 0.0016981203 -0.004864984 0.006838673 -0.005867723 0.008329598 0.0057646674 0.0055983188 0.007316188 0.0066581564 0.0048373225 0.0031354486 0.0045208917 0.009073378 -0.0077530947 -0.008672868 0.0063273725 0.0049660564 0.0032195402 -0.00406945 0.002357755 -0.0031311424 0.0032324067 -0.0028000483 -0.00069366896 0.00013204252 8.7085005e-05 0.0029749314 -0.006716544 -0.0059654987 0.00407626 -0.0017153858
tin 0.0032071702 -0.005963338 0.002285997 0.0025337425 -0.0011842544 0.004238119 0.010399016 0.0062202495 0.006671195 0.0010653904 0.008430403 -0.010669815 -0.00092044764 -0.008272235 0.0014469062 0.008560969 0.0026926761 -0.008659669 -0.0002870098 0.0014939927 -0.0073994678 -0.003286473 -0.0026946138 -0.0068877544 -0.004522176 0.0018071919 0.0006410726 -0.0077518043 -0.0033170027 0.0026629895 -0.0020152444 0.0014626598 -0.003240329 -0.01067529 0.00022909718 0.008650193 -0.0023695945 -0.004507046 -0.003120794 -0.006199241 -0.00133409 -0.0064143944 0.001167584 -0.006170375 -0.002963609 -0.0075518205 -0.01008207 -0.0029498262 -0.009960683 -0.0066314954
việc 0.004172045 -0.0010725157 0.0043042502 0.008141254 0.0055939183 0.009604182 0.0073500792 -0.0036327052 -0.0057942565 -0.00096376776 0.009876963 -0.0049762023 0.0070140297 0.005740125 0.0097892145 -0.008276432 -0.009179259 0.006246595 -0.009910825 0.0016465781 -0.00018579468 0.0042600655 -0.0021606253 0.003729524 -0.006628867 -0.008756253 -0.0004863924 -0.007397531 0.009257384 0.0012274241 0.009462737 0.012226082 0.0030415833 -0.01040894 -0.0032166764 -0.0018657709 -0.0076643433 -0.0033011078 -0.007901771 0.009646231 -0.0019567383 -0.0015968085 -0.013069109 0.0018445135 0.0025620302 0.005430593 -0.008719608 -0.00995304 -0.009584735 0.007019738
chờ 0.007936911 -0.008266234 -0.004667026 0.004927891 -0.0044068084 -0.007890548 -0.0036280456 -0.004792047 0.00023332195 0.004472121 0.0020354358 0.00017843202 -0.0009136234 0.0046925223 -0.006309895 0.0044728727 0.005143882 0.0036763265 0.0026864598 0.01005115 0.005732232 -0.0033737337 0.004691737 -0.002423587 0.009303072 -0.0036275745 0.006726914 -0.0065739327 -0.001052586 0.0071599507 0.0090521695 -0.0025168404 -0.00029905594 0.0045526866 -0.0100014135 -0.0071174502 0.004382308 -0.007700841 0.0071654273 0.0014295704 0.0010720822 0.004805814 -0.004106633 0.0011016125 -0.0028681513 -0.006376338 0.0031693962 -0.0069980253 -0.0012047172 0.009410024
hơn -0.006283297 -0.008429167 0.006040073 -0.0010821475 0.009385127 0.0036601902 -0.005567021 -0.00018924513 -0.00021750267 -0.008341826 0.009631168 0.0025386931 -0.005722757 -0.0013783881 -0.004199035 -0.005705163 0.005153357 -0.00019171335 0.0042606303 -0.0033956808 0.0029477563 -0.0042639696 0.004955591 0.009424149 0.005028128 0.007380381 -0.007858482 -0.0006135128 0.0021972554 0.0062534795 0.008544641 0.010974002 -0.002397543 -0.004707218 -0.003961555 -0.0021959883 -0.007765628 -0.0024446526 0.0043055485 0.0114547545 0.00138117 -0.0063930205 0.004949859 0.005651313 0.0074590966 0.008876783 0.004755371 0.0062575187 0.0017332 0.0055218167
không_thể -0.0003319191 -0.010073455 -0.0077029117 -0.009434457 0.0032843614 0.01032648 -0.0033501012 0.0028836397 -0.00816462 -0.0058327834 0.007772565 -0.009524715 0.002621443 -0.0007724033 -0.0015080888 0.0051731947 -0.0070318333 -0.003303859 -0.0047573764 0.0021151104 0.0060013616 0.000734226 -0.003304218 0.011608435 -0.00766118 -0.00812696 -0.0018567906 0.0031736644 0.0014333244 -0.003862638 0.008704379 -0.007270474 -0.002604347 -0.005736413 -0.001946819 0.004169046 0.0048291762 -0.0015470245 0.0022364433 0.006068534 -0.005210214 -0.0024300667 -0.010380447 -0.0014737283 -0.002164371 0.00903661 0.006409933 -0.0076559214 0.001329525 -0.005119568
tay -0.0044532055 0.0061550597 0.009567079 -0.0039080195 0.008339645 -0.0022627572 -0.0055738906 -0.0067008827 0.0015206997 0.0010049073 -0.004475401 -0.0028743409 -0.008840627 0.0074012713 0.008848509 -0.004888197 0.0057346867 -0.003043389 0.0022074129 -0.0034829555 0.0054983664 0.0030961873 -0.008464028 -0.004263596 -0.008289404 -0.0056042313 -0.004905488 0.00079575705 0.0020338001 0.009914953 -0.00802368 0.00708975 0.008819448 -0.010040672 0.003739036 0.004723213 0.0003825701 -0.00070084963 -0.0021700973 0.0030337106 -0.0059553967 -0.004212944 -0.011574726 -0.004252997 0.005761861 -0.0073996237 -5.5177734e-06 -0.00024218547 0.0039489064 0.0033455414
cám_ơn -0.010017176 0.0019217039 0.0066089323 0.0015211079 -0.0023473292 -0.0015073719 0.0052055446 0.010068923 0.008583714 0.004260362 -0.0013434046 0.0026511317 0.0030447955 0.007795184 -0.0045416597 -0.0040885825 -0.007704803 0.005421792 -0.007726301 0.0039303666 -0.009848407 -0.009800088 -0.0075747264 -0.0011409586 0.0070368666 -0.0038492964 0.000117457676 0.00175054 0.009406254 -0.0063436856 -0.008075037 -0.0036560856 0.009690143 0.003827883 -0.002463839 0.0066523436 -0.0045536975 -0.0038900923 0.00020727089 -0.0023680255 0.0075034443 -0.003973754 -0.005592961 0.0064150817 0.0058168834 -0.002024214 -0.002984673 0.008202827 -0.0048431926 0.0025089204
nữa -0.004075165 -0.0035268117 0.004330326 0.0008670283 0.0050470466 0.0004892924 0.002286121 0.005998469 -0.0007516257 -0.008852201 0.00357366 -0.00044152854 0.0047767092 -0.008204234 -0.0068340404 0.006282783 -0.0083197085 0.0053847716 -0.008666085 -0.0062536253 0.0043987245 -0.003380043 -0.008675515 0.003914523 0.008703437 -0.00077622494 0.0013984799 -0.00016092346 -0.004711057 0.0049202144 -0.0017367642 0.0062325113 -0.007331221 -0.003830629 -0.0007701056 -0.002717373 -0.008591709 0.0052070986 -0.009789716 0.00042183427 -0.011290783 0.009264194 -0.0055972068 0.0008307822 -0.0077204076 0.009096339 -0.003998503 -0.005486268 -0.0026563762 0.0032605403
buổi -0.002641081 -0.008885438 0.0047259596 0.008270809 -0.005835574 0.0022285595 -0.00851615 -0.009542372 0.0033871112 -0.0008205079 0.010315113 0.00023277676 0.0002820673 -0.0096604675 0.0032181116 -0.008895801 0.0071171494 0.0015950853 -0.0041353917 0.008949564 -0.008748205 0.00036789113 -0.0019827934 0.0041222703 0.0034356902 -0.009723763 0.0023945651 -0.0072004395 0.004328536 -0.0077339816 0.0042727003 0.010071315 -0.009418905 0.0069751786 0.007272059 -0.006631538 -0.006094114 -0.0039659943 -0.011467655 -0.007239421 -0.0026441226 0.0045911293 -0.0009777369 -0.008619068 0.0006340549 0.0014266339 -0.006829515 -0.006828795 -0.0022269373 0.0038691054
ồ -0.0024144682 0.00021541571 -0.004361084 -0.00287084 0.009773314 0.007180071 -0.00016388322 0.0048275744 0.00024913828 -0.009299123 -0.0070876954 -0.0004546661 -0.004964616 -0.008826052 0.0023314953 0.0025112978 -0.009767953 0.0006977355 -0.007904081 -0.008020695 0.0076802946 -0.010584082 0.00023426232 -0.004640491 0.007224275 -0.007727171 -0.0017669083 0.0076937606 0.0055964915 -0.007195826 -0.00055027264 -0.00025092784 0.009028476 0.0041481135 0.009104243 0.0077313795 0.0005031371 -0.00018924288 0.007300709 0.0060918997 0.006784071 -0.00888614 -0.0047993613 -0.0028041906 0.0012039829 0.0076440885 0.0065799747 -0.0018752675 0.0012795075 0.00716906
nhau -0.00590647 0.0042370614 0.007383097 -0.0010415984 0.008784656 0.0018108224 0.0067714453 -0.0027624834 -0.00017001311 -0.0028683469 -0.0073990435 -0.010554447 -0.0028557368 -0.000754064 -0.009442389 -0.010707413 -0.012005652 0.00013525893 0.002178801 0.009208297 -0.005902755 -0.0055196634 -0.010482854 0.011874785 0.006758322 0.0014512585 -0.0075928015 6.9822336e-06 -0.0013335536 -0.0024877682 0.0047713164 0.0048423195 -0.005006468 -0.0010844356 -0.0077893874 0.0106500955 -0.0060465564 -0.0033967276 -0.0041704867 0.00019255586 -0.00819408 0.003442855 0.0029359502 -0.004197416 -0.0052754297 -0.0005856689 -0.00094557554 0.0064967787 -0.010154192 0.005823543
ư -0.0077022645 -0.003628867 -0.0030490493 -0.009941048 -0.009068199 0.00627918 0.0017419289 0.009198884 -0.0010122006 -0.005058164 -0.0073213475 -0.0041638594 -0.00418848 0.0091961855 -0.0076786797 -0.0073281126 -0.0075473934 -0.0012020328 -0.0063250605 -0.008365622 -0.0076384875 0.0020070511 -0.009935998 0.005778121 -0.0054027177 0.002356444 -0.0028481288 0.003545302 -0.007224084 -0.00944341 0.0018581148 0.0022669437 -0.0076967883 -0.010039002 -0.00941825 -0.006009132 0.0017782224 -0.009963703 -0.009375336 -0.006043871 -0.011568082 -0.00934243 -0.00076625333 -0.0043814466 -0.0075050523 0.0052776625 0.008968688 0.0047219973 0.008814736 0.0039857873
hả 0.0027832112 -0.0014159819 -0.0041367323 -0.009573843 -0.0054483856 0.008160126 0.007968988 0.005606432 -0.006610075 0.0074707153 -0.0072410167 0.0030520442 -0.0029179016 0.0076272357 0.0024961254 0.00510169 -0.008284896 -0.0065674293 0.0020615237 -0.006804704 0.008792202 -0.001280904 0.0037116373 0.010925084 0.0003971203 -0.006700729 -0.0046790144 0.0057539195 -0.0041933195 0.0035975447 -0.0020333482 0.0034877693 0.008698731 -0.011214116 -0.010225386 -0.0021208366 -0.00010990208 0.0034746118 0.00255124 -0.008042035 -0.0028124365 -0.007189164 -0.0065829167 0.004257498 -0.008104775 0.0052634054 -0.0037631916 -0.006608901 0.0065543465 -0.0006837706
chẳng -0.006651294 -0.0017515764 0.0021995362 -0.0016456669 0.002394971 0.003461623 0.0025417614 -0.0045688907 0.008986937 0.0022813547 -0.005027746 0.007247932 -0.0079394085 0.001123162 0.0031176629 0.007547469 -0.0021053215 -0.008521445 -0.0034645777 0.0113443555 -0.0026876694 -0.0026842079 -0.005157661 -0.0061619338 -0.0011058134 -0.010747651 -0.00011653869 0.0013548012 0.006398644 0.0063894982 0.009143424 -0.0071156663 0.004455852 -0.0063899388 -0.009598403 0.011159629 -6.4976084e-05 -0.004817709 -0.008817711 -0.0067550335 -0.009316059 0.0076676817 0.0048778714 0.008937247 0.004894292 -0.008498984 -0.009876464 -0.002263877 0.002445678 -0.0048352745
bài -0.007560318 0.003874353 0.002537255 0.0023279313 -0.00246265 0.0069163614 -0.0077651814 0.007028379 0.0030742192 -0.0060395147 0.008566064 0.0066867904 -0.0017369525 0.0020008758 0.009475464 -0.008451481 0.0047290535 0.0034826729 -0.0062260414 0.002680819 -0.008755686 0.0017674736 -0.008815588 0.0062195924 0.010273699 -0.004427371 -0.005364982 6.751301e-05 0.0013866357 -0.0047816825 0.008984129 -0.0020194864 0.0034652762 0.0052748495 -0.009605332 0.0022632186 -0.0013554592 0.005464821 -0.008609066 -0.007823513 0.003700558 0.0018687961 0.0075304597 0.0005089766 0.00044448496 -0.006714026 -0.0036347394 -0.006620708 -0.008672569 0.0036740396
hỏi -0.008185015 0.007049279 -0.0042326325 0.007481646 0.006282462 -0.0083395485 -0.006760661 0.0006916867 -0.004095549 -0.007078857 -0.005454358 0.0040788515 -0.0069790874 -0.0065392214 -0.00632792 -0.009265593 -0.006131014 -0.00012399018 -0.006305876 0.0017722567 0.003343221 -0.0050792317 -0.005790782 0.0068572285 0.006691678 0.00756715 -0.0025806562 -0.008001604 0.003908594 0.005556494 -0.0008228285 0.0077953623 -0.010356611 -0.008516396 -0.0062441337 0.010116605 0.0012287658 -0.007407188 0.0063425046 -0.008209908 -0.005313886 -0.0012266398 0.0055686273 0.007162731 -0.009124869 -0.0017353203 0.0029318298 0.0061237393 0.005442717 0.00084219023
sự -0.0076656938 -0.0047676843 -0.005448537 0.00021425165 0.0051523526 0.003541539 -0.003335451 0.0032895915 0.008652545 -0.0016969283 0.0037147377 -0.01010372 -0.005732811 0.0027874813 -0.009347687 0.0013926239 -0.012129541 -0.0010621776 -0.006212883 0.0068520615 0.0072024376 0.002227026 -0.0028939147 0.009103404 0.001589927 -0.0016107771 -0.0021091003 -0.0023249777 -0.0064237593 0.0009704746 -0.00090634933 -0.0047934502 -0.007891236 -0.0069196434 0.0033609236 0.0028413096 -0.00049674057 0.0011365148 -0.007961254 -0.0058560735 0.0061968244 0.0065161516 -0.003863031 -0.0056933505 0.0012682662 0.006063289 -0.0035900024 0.0018401928 -0.010217714 -0.0012289981
cùng -0.0051683304 -0.0048368745 0.010195297 -0.0063768183 0.0024229086 -0.00046850907 -0.005492363 -0.007070905 -0.00026844357 0.00034522676 0.010356261 0.0046212343 -0.0097736055 -0.008812761 0.008292249 -0.005827828 -0.0043414775 0.0066691237 -0.0026570547 0.008084761 0.003950293 -0.012130331 0.0080237035 0.008028475 0.0025798348 -0.0068802964 0.008996358 -0.0061304653 -0.005688271 0.009099052 0.01199632 0.0013815757 0.0073216455 0.003267009 0.0010605118 -0.006795869 -0.004043568 0.006998752 0.001803461 -0.0009838165 -0.0055633564 -0.0014844044 0.0039972444 -0.0079492675 -0.0029258619 -0.0065275976 -0.00060697744 -0.010933203 -0.011723394 0.010378669
dùng -0.0021757402 0.006264295 -0.005086284 -0.008337452 0.0008870018 -0.008940873 0.007783738 -0.0012070532 -0.0055389246 0.0073488937 -0.0064223823 0.00047669755 0.007950923 -0.0026418355 -0.0008985435 0.006402701 -0.0020711508 -0.0014209886 0.0064886655 0.009799938 -0.001556707 -0.0031824056 -0.003581086 0.0061908867 0.0028106095 -0.0067654443 -0.0030533327 -0.0034119776 0.007930767 0.002130213 -0.0056507955 0.0019226932 0.008494925 -0.009156112 -0.0076685986 -0.0033965218 -0.0068135317 -0.009053881 0.0045284927 0.0048848893 0.0062408433 -0.008641629 -0.0038514629 0.00097067095 -0.0044428147 -0.0030568035 -0.010457852 -0.00059570064 0.0032351539 -0.004039077
nơi -0.00326186 0.007875908 -0.0029728576 0.0020705126 -0.007519394 -0.00298611 0.007114499 -0.00071566564 0.0059642177 0.0041560614 0.010139268 -0.0084574185 -0.006504292 -0.0098172 -3.6483274e-05 -0.0043952097 -0.0025289217 -0.0069865915 0.009393193 0.00812406 0.006022195 -0.0015052757 0.0024081818 0.0037758772 -0.004726997 0.006152636 0.0054426333 -0.009207215 -0.0017539419 -0.005863743 -0.007586871 -0.0069903447 -0.0067887227 0.008433778 0.0068380134 -0.004454718 -0.009609469 0.0016488201 -0.0006009107 0.005753913 -0.011681064 -0.0045092073 0.0021577661 0.005053218 0.002820915 -0.0017179601 -0.011074477 -0.010680241 -0.006523398 -0.0034805995
kiểu 0.0075290874 0.008091387 0.0067625823 -0.010280027 -0.0040098913 0.010138395 0.008307487 0.002878543 -0.008808758 -0.0027568154 -0.005239585 -0.006812004 -0.001008205 0.001063034 0.0028482694 0.0017296959 -0.0055904593 0.005583292 0.0007914068 0.0032254872 0.0026702795 -0.005124448 0.0044873315 -0.0018611174 0.008627257 -0.0103571955 0.0008409955 0.009708076 0.0027260578 -0.00040097587 0.00692096 0.009934475 -0.00992204 0.0055416287 -0.0028856758 -0.000922361 -0.0028504217 -0.00080312113 0.0063372096 0.00621154 -0.0027794105 7.281765e-05 -0.0017677371 -0.0031254136 -0.008372206 -0.0071216216 0.0009913974 -0.0029485556 0.001497785 -0.0028522199
khỏe 0.0027554154 -0.0009831401 0.0018350992 -0.0049017877 -0.0073313606 0.00081579085 0.007009366 0.0024617736 -0.008326652 -0.0041327295 -0.0016647902 0.0050931755 0.0061845034 0.008273497 -0.0053888424 -0.0055886963 -0.0021480916 -0.008877681 -0.0012835781 0.0058608395 -0.0048721028 -0.003611135 0.002798081 0.0053097485 -0.00080920703 -0.003237816 0.0032249757 -0.0021288604 -0.004617566 0.008556173 0.0058351387 0.0061634034 -0.0037864626 0.008320706 -0.008090793 0.00865925 0.003998712 -0.0004954306 -0.0018241479 -0.008213696 -0.005228619 -0.0026891208 -0.0041352245 0.007112767 0.0035340688 -0.0031964765 -0.0067465804 -0.007822711 -0.01036287 -0.0071971607
loại -0.007741679 0.009276342 0.0018210051 0.0020479602 0.008587593 -0.0057338793 -0.0011211475 -0.005084774 0.008623448 -0.0034407126 0.0069213216 0.00064094935 -0.0013682225 0.0011247303 -0.006599815 -0.0035029806 0.0031811132 -0.0038155927 0.0029658547 0.0062772157 -0.001965025 0.0021761074 0.0062463423 0.003738181 0.007215072 0.0009169609 0.00013874476 -0.008558631 -0.00035056222 0.0005840069 0.0036022374 -0.0069958516 0.0073261075 0.0015145211 0.004461138 -0.0048311087 0.000515388 -0.0017013825 -0.00067722995 -0.0043637715 0.006527148 0.00022454685 -0.0075151944 0.0072086765 0.009371774 -0.0076908586 -0.0044022556 0.007956652 0.0056208493 -0.0011653445
tạm_biệt -0.002650528 0.0015781494 0.0017067746 0.0022810416 -0.001972563 0.006884191 -0.0040151086 -0.00043685007 0.0019665658 0.0056572366 0.0013998109 -0.010466846 -0.0024666004 -0.0028439534 -0.0038541737 0.0029950195 -0.003928486 -0.0021819174 0.0029324146 0.0022441566 0.006609989 -0.0024701715 -0.004600757 0.0059520444 -0.0065760445 0.0032929743 -0.0063659125 -0.0058292793 -0.0016762344 -0.0035976924 -0.0038732004 0.010656618 -0.009223739 -9.227124e-05 0.0053988923 -0.007613078 0.0030445405 0.003149348 -0.005692143 0.005480857 0.005230193 0.006010854 0.008010389 -0.008260742 0.0040735677 -0.0049291626 -0.0033385635 -0.0017884179 -0.011073974 -0.0016480747
nhìn -0.00925378 0.0043862876 0.008802095 -0.005036667 0.002740815 0.006532226 -0.00892536 -0.0015618833 -0.00073025504 0.007920987 0.010068001 0.004992608 0.0034595581 0.001272837 0.001269589 0.0075002117 -0.0026438858 0.0046537085 6.252453e-05 -0.004092902 -0.001043525 0.002964394 -0.00089801254 0.011086187 -0.0077340994 -0.0073871072 -0.0003970654 -0.009153836 -0.0025991877 -0.009089167 -0.0044723656 0.007889735 0.005228091 -0.0053273905 -0.0047493177 -0.0031928108 -0.009252583 -0.007968547 0.005289915 -0.0040355483 -0.005129577 0.0019165647 -0.011541499 -0.0022729659 -0.0071765236 -0.0047489633 0.003518319 0.0047277403 -0.0026282005 0.0028682135
kia -0.004215591 0.00040601438 -0.005052895 -0.005556583 -0.007028536 -0.006979384 0.006262499 -0.0024577468 0.0023222228 0.0001323081 -0.008816162 -0.0058401492 -0.0027268429 -0.005403113 0.00070847344 0.005075748 0.0069406126 0.002540204 -0.005857144 -0.0076782415 0.0031243681 0.0023323572 -0.0039918367 -0.0037797312 0.0014971748 0.0027267819 0.00472421 0.0061843004 -0.0091360565 0.009516177 0.00565131 0.009550753 -0.0035386272 -0.004929685 0.003322758 -0.0065715155 -0.010400326 -0.010631681 -0.0074469694 -0.00037573502 -0.0111563075 0.0044167857 -0.0064081647 0.006513782 0.0074697537 0.0043806424 -0.00345976 0.0052144043 -9.0875255e-05 0.008322324
bây_giờ -0.0012081525 -0.0098399175 0.0042194836 -0.008549872 0.00053044636 2.702337e-05 0.006967654 0.007524788 -0.0024698253 -0.006366758 -0.0007349352 -0.0051619457 -0.0039400915 -0.008233784 -0.006238495 -0.0022620552 -0.0011366322 -0.006164526 0.007429991 -0.002733524 0.00045917302 0.0044946144 0.0072985734 4.239829e-05 0.0023980024 -0.0034210668 -0.009228761 -8.412906e-05 -0.0063611595 0.008863694 0.003005334 0.0038170961 -0.0051506427 -0.0031233695 0.0071818237 0.0069517754 -0.009604744 -0.009307357 0.0036832097 0.0048539345 -0.0028621529 -0.0036246572 -0.008206557 -0.0045124623 -0.00930063 -0.0028692922 -0.009972626 -0.0065731728 -0.004997259 -0.0013746192
mời 0.0042198035 -0.0037273099 -6.2342784e-05 0.00493522 0.0020061042 -0.0083316285 0.0008014178 -0.0073179943 -0.008204752 -0.008770695 -0.0031841842 0.00432531 -0.008777409 -2.9846098e-05 -0.0034796395 0.0013263406 0.0011665114 0.006983096 -0.010214915 0.006480748 0.0014785562 -0.005319253 -0.007942416 0.008675742 -0.007022576 -0.009606183 0.0039041068 -0.009195794 0.0054226504 0.0074280477 0.0076588183 0.009054435 2.081744e-05 0.0005215829 -0.004168567 0.004363232 -0.0043367646 -0.009375126 -0.006602919 -0.0021225982 -0.0102719115 0.00785411 -0.0089022955 0.0064280895 -0.0020129236 -0.0029322198 -0.009434256 -0.004205535 0.0054202913 -0.0077529135
nhỉ 0.007346353 0.006723309 0.0017565987 0.006523386 0.007558232 -0.008198538 0.007942894 0.009624399 -0.00013034767 -0.009759291 -0.0027345563 0.0072662868 -0.0015342913 0.00194227 0.0030746933 -0.0059714494 -0.0017854318 -0.00916243 0.0013920545 0.009129872 0.0029373446 0.0020786687 0.0057608415 0.0051009296 0.008109008 -0.0035242368 -0.009610789 0.0073604975 0.007812074 -0.00036112577 -0.0028418158 0.0062965285 0.006199656 -0.0059245294 0.004143883 0.0027398928 -0.007827177 -0.008057219 0.007649344 0.007156696 0.0039409804 -0.0023286557 0.0065861368 -0.009083851 -0.0019111225 0.0072724777 -0.0066053774 -0.0003334173 -0.0049355463 0.004571452
kìa -0.001638355 0.0023576801 0.0043284874 -0.00020193633 -0.005935233 -0.008690236 -0.0037226211 -0.0070463633 0.0018877616 0.005897074 -0.0075065666 0.0018557768 -0.0024763793 0.002386515 -0.0038413852 0.0020494983 0.001235252 0.0030570326 -0.0045255516 0.010461066 -0.009682962 0.0008766349 -0.009535396 -0.0049312045 0.000359823 0.004703034 0.0037356436 0.0025564046 0.0037240025 0.0010639175 -0.008242138 -0.0014642696 0.0066315434 0.003162872 -0.001252082 0.0043708063 -0.0099627515 -0.010171811 0.0019471258 0.0065343967 0.0027557076 0.008782225 -3.1514788e-05 0.001964007 -0.00012202265 -0.0024550038 -0.009015952 0.007213977 0.0024323973 0.009667241
đẹp -0.00944133 -9.6117685e-05 0.0047063404 -0.0007537337 0.0077651097 0.0020807143 0.008137541 0.008403225 -0.0032843242 -0.0032358633 0.008455873 -0.007901768 0.0006191675 -0.002860184 -0.0073651117 -0.0003877238 -0.007886688 0.0005485994 -0.004951895 0.00048317862 -0.00577713 9.154374e-05 0.0016978168 0.0125064 -5.5247965e-05 -0.002413781 0.003640613 0.0012778563 -0.009988326 0.00011922948 0.004047364 0.007217476 0.0052041877 0.00592469 -0.005407162 -0.0013018606 -0.010848445 -0.010196915 -0.0065485504 0.008891105 0.004529009 0.0039845966 -0.009298445 -0.0035586967 0.0018882995 -0.0052476106 0.0013890219 0.0056252317 -0.0041408148 -0.0044351886
chơi -0.0056923917 -0.009991756 -0.007520288 -0.009202806 0.007450055 -0.008392911 0.003203232 0.00097026036 0.00582052 -0.00036987374 0.0106085 0.0015551007 0.0017836215 0.0013062216 -0.0076763155 0.008601265 0.00067586 -0.0019023109 0.008379946 -0.0055494104 -0.0003426376 -0.0050042304 -0.008401503 0.012043135 -0.0048914514 -0.0045924825 -0.009235661 0.0016153977 0.00663034 0.006849561 -0.0041573853 0.011837189 0.0009090031 -0.010338297 0.008803366 0.0045579714 -0.009390072 -0.008135643 -0.0042655957 -0.004454443 -0.00015016539 -0.008029245 -0.0058389856 -0.0010938431 0.00891677 0.009128372 -0.010181661 -0.0035453304 0.001056818 0.0062707
rõ -0.00716173 -0.009087302 -0.0052141473 0.008313157 0.005336124 0.0074826586 0.005283545 -0.009035515 -0.00018674177 -0.003048861 0.0067628133 -0.0089147305 -0.007863078 0.0017654466 -0.009583672 0.0026525066 -0.007281778 0.009141047 -0.001244749 0.0016031902 0.0026016422 0.005709395 -0.003555784 -0.003448099 -0.0033815692 0.003558773 0.007986181 -0.008412879 0.00136089 -0.003086224 -0.0035189309 -0.0019061591 -0.0022796094 0.008221123 -0.006612929 0.0027150523 -0.007157134 -0.00994633 -0.010794054 0.0046818615 -0.0028258117 0.0045121573 -0.009243217 -0.004784763 0.0073203472 -0.00034083193 -0.0028596218 -0.0034810514 -0.0071772 0.006812321
tìm -0.002701727 -0.0073481994 0.0105503285 -0.0043810094 -0.0014154528 0.008033398 -0.001561631 0.0063132984 -0.006208546 -0.0026640722 0.001628104 0.006619618 0.0020179509 -0.009376006 -0.0015867084 -0.0034950573 -0.0028063373 0.007312926 0.0026948832 -0.00081118336 0.002529817 0.005499307 -0.0073213773 0.0056109754 0.00024894098 -0.00017920198 0.0028340006 -0.005701482 0.009448836 -0.0064484817 0.008908487 -0.0004791288 0.0024972472 -0.00020811213 0.008972316 0.0008447303 0.0076532364 -0.0054040058 0.00070654624 0.005741469 -0.0018149696 0.010461873 0.00051336817 -0.0036356573 0.0005396435 0.0010532468 0.0018783065 -0.0038130796 0.007803385 0.003639247
nên -0.004100063 -0.0055225873 0.0014856381 -0.0033977893 0.010268907 0.0027052865 -0.004000093 0.0029060596 -0.0052323015 0.008033378 0.0064804885 -0.0044626473 -0.0041584326 -0.0069214674 0.004947107 -0.011012584 -0.005558873 -0.0015753323 -0.003128103 0.0032990794 0.0071578748 0.0037926612 -0.00798596 0.0033090578 -0.004871751 0.0063889935 0.00076918607 0.009663996 -0.008800032 0.0050679646 0.0051990678 0.0071920133 -0.0032465677 -0.0043117385 0.0017894171 -0.0023949503 0.0022946172 -0.00730801 -0.0031291672 0.0022512467 -0.004334344 -0.0014474688 -0.002935833 -0.00397463 -0.0046951217 0.010073093 0.003750748 0.0053356914 -0.0067086224 -0.00096214184
thử 0.0074242903 -0.0061548394 -0.009650205 -0.007462561 -0.0037944512 0.008862249 0.0027222123 -0.0011493675 0.0020679429 0.004208875 -0.0032879713 0.006451647 0.0072533656 0.0073614917 -0.006662101 -0.0071725757 0.005007889 -0.008687963 0.0004451822 -0.0060179853 0.00097007793 -0.0037474832 0.0070190714 0.009616336 0.007080253 -0.0021306702 0.008968252 0.009761775 -0.009868024 -0.004081052 0.009779019 -0.0069288784 0.008506845 -0.006423173 0.009264974 -0.00299129 -0.0015777866 -0.0075914203 -0.0022303218 -0.009459116 -0.004612851 0.004999545 -0.0029405225 -0.0072651673 -0.006711361 0.005023468 -0.0024210014 0.00052063324 0.0071828137 -0.008208384
đánh 0.005285743 -0.00229364 0.0034772407 -0.005435319 0.007647553 0.0036554015 -0.0016244672 -0.004740596 -0.009190989 -0.0016744098 -0.0041257837 0.0049294657 -0.010135002 0.0084712505 -0.006609214 -0.00230973 -0.008791956 -0.0025894886 -0.007789863 0.011340593 0.0056797615 -7.121151e-05 0.005707954 0.0064527276 0.0057255793 -0.008039398 -0.001920204 -0.009146895 0.008504913 0.004826312 0.0016404764 0.0029128566 -0.0015969353 -0.009504052 -0.00047505694 0.007830495 -0.0017998186 -0.0067409975 0.0019128643 0.008996239 -0.010700997 0.0017475707 0.0003940019 -0.002957649 0.004178813 0.008261194 -0.0048936503 -0.009876616 -0.002143512 -0.0014417452
